{"layers":[{"biases":[0.0,0.0,0.0,0.0,0.0,0.0,0.0,0.0,0.0,0.0,0.0,0.0,0.0,0.0,0.0,0.0,0.0,0.0,0.0,0.0,0.0,0.0,0.0,0.0,0.0,0.0,0.0,0.0,0.0,0.0,0.0,0.0],"weights":[-1.4579760622352802,1.1866186987390812,1.166413591980823,-2.0025545282628574,1.0161892197668934,0.4359470989324482,0.03503590193813363,1.0136170335482395,-0.4194667035866741,-1.1072174283732235,0.5764767791558357,-0.07609059518520031,0.3362778491114592,-0.7322988790526336,-0.08856561872693451,1.613831814347804,-0.16213078540027645,0.2394645142352834,2.007187780371524,-0.7943108324051273,0.8873170594384111,-0.22157428586007402,0.2502704089932034,0.5361498229106771,1.5729766051762057,-0.9533958182300769,-0.8344357935903621,1.2919773059146076,1.2582034634914467,-0.8978636421781298,-0.23925282471730294,0.046472820798513725,-1.2816440939480875,0.7818582516273012,0.03636282172240381,-1.989997988123849,0.545447824042818,0.4940055351211779,-2.214606708228811,1.063574340423075,-0.11666085195369023,-2.4155645468155744,1.9687418439168058,1.386392946729651,0.2652857798271708,-1.076113186808175,-0.04944535177555714,0.966943298665283,-0.31362169736494144,1.523925907447004,1.2258046792452586,-1.7562221076224165,-0.4928524143544361,1.0110227357887334,-1.3390688445334133,1.7978746879588365,0.9679231195661667,-2.32459618628647,-0.41869127360222486,-1.0372038911770929,-0.37270125603033666,-0.5140283477723527,-0.863070037347458,0.5714147391344303,-0.1896104178722474,0.20710519978126565,-1.372341876063378,-0.3573729945877389,-0.13946172398067663,0.7036228356478785,-0.07020845908525297,-0.2991409688936944,-1.200697716205698,-1.958426725285333,0.06632127999601076,-0.2077656825447402,1.22815086529247,-0.026529221341703938,-0.03010159391941553,-1.051779724632452,-1.74887478316053,0.4523260049490336,0.8379860534819663,-0.6037693378485,-0.2101637248503442,0.5279024089206228,0.9334013670362331,-0.39607925171870084,0.026437126314474396,1.196389282155536,-0.7122051831318198,0.5198400899878404,1.2590288586758136,1.1400715744693137,0.39076342848021905,1.6298507406072777,-0.42807737126279843,-0.4351672240176889,-0.7234364601773343,-0.5572294984724785,0.3682850447208842,-3.140439425727214,-0.6345163230744142,-0.8912501723415477,0.3732731712670271,0.16192331968225313,0.8089141299404523,-1.9049685822813105,-1.1804327586436103,0.12327659900918471,0.4153934328885649,0.23440814706622629,-0.16694730373420555,0.7019144653464766,0.8373630399889619,1.3318240062193578,-1.425007371822141,-0.2881467263902531,-0.036065481609938554,0.7729066814178228,0.37715436358440463,0.7627977287989752,-0.49879664419431285,0.3254010146003924,0.05417979939099657,0.2610954745480515,-1.0487104008459194,1.583253457925463,-0.23241374601061007,0.5815046655075661,-1.1510577357740297,-3.2023609090264387,0.8744590819817246,-0.47736688912134856,-0.21447738874470726,0.9138249461523008,1.0151579328314138,-0.8932112801842873,1.5111692927118063,1.598076572977413,0.2823662062865666,-1.1239817773291179,-0.23148798184526417,0.8960994710203093,1.4639089594867885,0.08849028840092425,-0.1861350448900146,-0.06425949603096033,1.1099281384701591,0.18908203828272727,0.3496252260215406,-0.5821528993531214,0.897860844808488,-0.7596868250418664,2.3201910711165494,-1.3594064085653959,-0.25685303434866474,-0.22952230140828758,0.08766035807520457,1.3004450307955722,0.11908187783595314,-1.714815380733916,0.7892936881700205,-0.5655245264704128,-0.30779973304670155,-0.5842783791163485,-0.25636711540322016,1.610816852947934,0.6911906116909978,0.5370031718713403,-0.19150540041966949,0.19545405781634898,0.23014240176439446,0.4575811058906636,0.2615754814219553,-0.03293272292261382,-0.20652989058044366,0.03510222547507163,1.528618381773342,1.5975686348635632,1.3413292477304382,0.031571128854650854,-0.5283531248064549,-0.9117821493823682,-0.5860224665329085,0.0982849945222587,0.5886322657001543,0.2165999104277853,0.8089574887734926,0.026333983983077888,1.0087110257968708,-0.8027266847000596,-0.24011966952147115,0.6530804077517035,-3.1604977283568156,0.06198590412963262,0.4729983575197708,0.4619361313004878,0.37352239096209733,-0.0060494802619232525,0.5484493367361223,-0.3532952810028486,1.8458366049242936,1.5015311031757828,0.8250130010930404,0.6942456658202616,0.33402129557191007,-0.06564981567887981,-0.9413862553064833,-1.284076903686842,-0.037252830663451066,-0.04590026789717492,1.1376989824978192,-0.43371677662149766,-2.1173423804992773,0.7569158694697241,-0.1018762606604724,1.0494974611568495,-0.13427545130438825,0.10776485576173772,-0.22378843919691915,0.15822408823748363,0.18577602409952895,1.0569283050671683,-0.5262248510489803,-0.9830729582660922,-1.3444036966541602,0.5734159239419104,1.1275853655358106,-0.48616640986853943,-1.0765063204481837,-0.05799776285066052,1.8841892326843162,-0.7321765848010376,-1.2231255967294719,-0.65955284276361,0.30618161810029293,-1.9997602664214158,0.702985149491337,2.1169283386581914,-0.5594227912564561,-0.28784539301710643,-0.27491147403140664,-0.36623925406927305,-0.41592166030082295,1.1280925900141368,-2.1400080340347354,-1.7902303068267482,-0.41830372021686413,0.29656690290493604,-1.047127336375608,-0.2494925977810389,-0.7717994542712091,-1.1003638286775492,-0.23398886646170844,-0.6259542968456191,1.5981438518515796,-0.06644148776455971,-0.6963335747578738,-0.3622995030754457,0.39082413159329876,-0.029498371114288543,-0.5624194615590995,-0.4178900758140444,-0.322635810486297,-0.12789072170055685,0.538847688024782,-1.578806480080578,0.036813591282000645,0.8485389147594077,0.15256012249503523,-0.8779272896998843,0.9283180503782495,-0.6829680914604751,-1.0674947197821623,-1.4628671176749126,-0.007055640775387045,1.4666176695892297,-1.0764781995288353,0.8183921030532932,0.21858208069785467,0.5753636569767292,0.8118888465600556,-1.1545876461681313,2.001081202611998,0.5548720127066293,-0.5206103922738993,0.22128274775489717,-2.5553170950910213,1.9835966450174018,0.7838043224976087,-0.5496460625616533,0.7305154359830514,-1.0547472490278935,-0.19839287984250972,1.2441560902757303,0.2943560796762988,-0.67777039398764,1.353274407282687,-1.6945691526943818,-0.013438494656110956,-2.4199111748087296,-0.12352427175418346,0.38268817437492875,1.0538862098536628,-0.3108096764406353,0.2471690769601441,0.27951166908044495,-1.0698744693700202,0.6515330919463025,0.6572086469652938,-0.0783255578926351,-0.40283232216450165,0.8022038440693889,-0.7077291700785198,0.6979496625220916,-0.5716225267814408,0.19112624251303104,0.6421727960360206,-0.7739149166571507,0.4035895286727993,-0.7655633397547464,2.2315247272871863,-0.14046356111425998,-2.0313707775071586,1.2488974766490175,-0.8947392089023414,-0.04317828908578583,0.15523036639612758,0.41011129054129924,-1.203563307406448,-0.754411730943126,-1.4431581588260587,-0.7764534126663074,0.6439640159498384,1.2356432757911862,-0.4288678612352593,-0.2983312421168893,1.0487467968174784,-1.0003357141323366,-0.9946913261284781,-2.1889851422175917,1.4733671031913367,0.9218720052195154,0.5370309860962054,2.1451891809235963,-0.681401074934872,-1.3224662130244254,0.15729625985836584,-0.4180618314735528,0.2953784035850111,-2.0780204901043096,-0.639534738936503,0.010945103589832054,-0.5628777766356863,-0.07671134950825298,1.3197720791293355,1.1953353967256632,0.9340569774904989,0.8121579581740158,-0.3169471846763129,1.2609768213485926,-0.7951569282097686,-0.1522816264006144,2.467934889930584,-1.305219398267711,1.277216327191738,-0.7322822557802456,-0.8053248762048566,0.00658021165626459,0.38657546211842275,0.5007836631480606,0.6892159067496524,0.12012132735247937,-0.3594792410417049,0.9190759279381299,-0.5024291999178809,-0.3900987800154828,-0.5022354833568643,-0.9593741796143949,-1.612711184875261,0.512497713787005,1.938878922542113,0.9385544341241668,-0.7106075178477687,1.5895728225309878,0.6902239401420863,0.5117773018394312,1.1234874175082414,-0.6011225045505532,-0.06060236763202854,-0.37832252574581504,-0.04425827992351356,-0.014331169935205492,-1.3809572803568175,-1.035556459554133,-0.1391883188055977,1.6864633621310732,-1.3945817040456652,-0.46776556064583663,0.9737168432633085,-1.7641177309916571,0.8099525267994717,0.07014452335503753,0.5727707433137997,0.6480290740302105,0.36836517835724814,-1.134690544072246,2.22882664543304,-0.15155429583379568,-0.010727993141379233,0.1273185092107418,1.342160594534126,-1.425631019550869,-0.8806414864272908,0.33852016485558106,-0.9254105144135315,1.740343410750781,-0.5336736527497632,1.4924748544019224,-0.07519031672687625,1.1367618335186194,1.0919067654255983,-0.45479346060025083,0.5606704608507437,-0.3994078608588946,1.2336854328293727,-0.29119689623885975,0.4287131590720408,-0.7800527877636426,-1.0227523071709763,-1.001249315520234,0.01254361887584293,-1.537015227606036,0.5809999248336061,0.1384841692631344,0.2494519821306756,-0.7682215021275748,0.12992469939467718,-0.03385799632861129,-0.84587042092632,1.0901688059237316,-0.26159014758787175,-0.4133214359167812,-0.35225683176501604,0.22321366573571358,1.8552436044141796,-1.7260995990594912,0.8392200616377771,-2.52860447095218,0.018059961255632386,-0.8434777271468887,0.502280345281462,-0.42119810650636935,-0.526147856879623,0.6054401920029528,-1.2810394737950774,-1.028530689376221,-0.2259534355782247,0.039152620137828165,-0.6609050293959224,-0.5229969516074978,0.12127639941255876,-0.48647699394140587,1.551547780705466,0.5607321757428639,0.36206351670856374,-1.267586193398546,-0.7494196027918281,-0.4717902055446482,0.5474468960545186,2.0857979832760614,0.6245595424622141,2.969962226376817,-0.04196073253910579,-2.169713705178577,2.2639096717928866,-1.0512264693442266,0.7722545579345149,0.7170842407347329,1.5995799818940084,-1.2118813687556245,0.026749346715806015,-1.174220784020693,-0.20846437097350368,1.4336457088724788,-1.54810462765107,1.6804383667254086,-0.08041312421908571,0.22564042209594654,0.33928841426748474,0.24338686421861364,-1.7775342126547262,1.1757628728087952,0.007548020858791862,0.2694105553750269,1.8424611905295323,0.5736732132965775,0.9817542361563182,-0.4184202073236896,1.198744048659522,-0.49819094345578974,0.030789237164294436,-0.941602214956337,1.063855882618457,1.8201657302052168,-0.33865740480725426,0.3030814923527715,0.9323524333937802,-2.3879177707042927,0.23409574845755518,-1.7016131007769801,-0.634604401023348,1.6149166110322832,-1.0433250256128994,-0.010644710173417754,-0.33528637162999136,-0.7603811109516121,-0.2988765042293117,0.9274239215044461,-1.2228190443393634,2.7146405776273093,-0.6816149833282823,0.28040223666284586,-0.394462950809287,1.1278111370753126,1.8900718668078706,-1.4853352172237326,2.39052480616913,-0.06978510218990026,-0.4832057761268705,1.3393693169741756,-0.5751627218007913,0.3632095119450785,-1.0051021427861397,0.5058405232797144,-2.6717873157829404,-0.011450798243044116,0.0611874866576059,-0.11288023767308694,-0.09344582663418535,0.09114352809604638,0.9874693185674583,-0.6650755514895533,-0.37722652339496515,-0.057592061627271554,-2.039926481997893,-1.1043523813531666,0.9027518250408451,-0.8478797517356133,0.28558252046782834,2.185482333394601,-0.8528228825746256,1.1223558887650618,1.110772380050701,-1.0948383971155684,1.2997712734611016,0.4561839079817273,-1.3088767407591253,0.9914497263132758,-0.6201637409079576,0.09856598608803262,-0.3324297238822167,1.073837865596181,0.5635799299775688,-0.7783737474099128,-0.26813121118834593,1.1063380912686678,-1.1788916384469668,-0.12267650330216884,1.1364372857994842,-0.7511211435362684,-1.406684752301175,-0.36741646101804415,0.09632067337171861,-0.4333401532847217,-0.8044959760952214,-1.2056764972901755,-1.9150956884829116,-0.5361859615306527,0.14157832860358704,0.22488706994864782,-0.2763781248023347,2.0134057432305292,-2.443169876333869,1.2654299915753524,0.41942878346335655,-1.140591045962882,0.11080127708569158,-1.5020942352457416,-0.009722396728325193,0.3953302555127431,1.1869586068306028,-1.2315167858918228,-1.1655035758968015,-1.660637176647541,-0.8332995761918469,0.21473744414132082,-0.46517933518736926,-0.028148487244245648,0.15356760837052347,-1.8068758584506228,0.17383112929677536,0.841128162921018,1.732937281045282,1.7818303859617146,0.9332725048792202,0.18926370861732375,0.725739503703316,-1.1751703758649237,-0.005040814617321082,-1.2467897558773549,0.3620450751053866,-0.2548306604660313,-0.23366846292404045,0.13370428979548865,0.5935011260789078,1.2756482403610512,-1.5388945796535651,-0.14109171312532295,0.19931750432664752,-0.02343739544284191,1.1137701774728044,-0.049967299484294944,0.7730124462883506,0.37524378419829185,1.4904027664078907,-0.08391267266799539,-0.5503469564515928,1.625615824397137,1.946000924291912,-1.2633290511684583,0.4224260088299736,-1.6614954336856256,-0.8904668240274602,-0.2530047129528585,0.2634942233318906,-1.7189306267072573,-1.1637212517042668,0.31813466671712887,1.269985748854922,0.6093661782856198,1.3490517748038893,0.27425517702330116,0.3922020434318889,-1.295001432466539,-1.356915766162002,-0.07464009369752903,-1.4601863418271779,0.6376913290546345,-0.9089610960560015,0.11938676262827372,-0.04635289292931545,0.03363959825292174,0.43586374424558383,-1.1850656318131005,-0.4879312381742337,1.116068220277779,2.984842282742554,-0.09612639998721616,0.07340137144063531,1.3664231473874064,-1.7351308081800403,-1.0372537294802375,-0.9534270045167745,1.7665509306019251,-0.2559867331487321,1.583040603418093,-1.235355894419312,-0.5479528482765063,-0.13183720475466398,-0.07545484202038193,-1.6161619740689264,-0.019262763768453227,0.9053234757698825,1.0504111695465095,1.0149361778496484,-0.22265302439592444,0.5323120210457863,-0.7016781584616089,0.2414459089067305,0.600016588780546,-0.7926718294594698,0.16513646785517797,0.34321675293261245,-0.21750282581630762,-1.2875967094985425,-0.5335021437009325,-0.9993408821064909,0.2007228458737639,0.026249973498328163,-0.24701616823682285,-0.6617089916177329,-0.5225142332920063,-0.18032433970331357,1.8690239685495322,1.0470912195368545,0.3023797465039537,-1.7785344677444057,-1.5390417651980504,0.2177826532834136,0.23263522759254548,-1.0167965137278077,0.7746982086343874,-1.3593865764418191,1.5068159033123878,1.8716926035702484,0.00946046357598207,1.3741596030706569,0.15144205916329453,0.6301037809995991,0.3131686761521355,0.8938552469422374,0.3863522380573712,-1.4062439193968796,2.7104987671221568,0.2371866490579997,-1.4513158621119442,0.2641767012407592,-1.1373184761125827,0.3579226013689461,-1.4051990276657877,0.06012741056607433,-1.4307348929508037,-0.45076792255336084,0.6062260746053744,0.4987869299606501,-0.7987988506758282,-0.7450811746818639,0.4376829954080941,0.7445490424906164,-1.6617171375523692,1.076663953163694,-0.008642766528650337,-1.1730510727690562,-0.07249900492897567,0.4654094330507615,-0.8829269628544061,-1.1889008980233233,0.19464165067823805,-0.5685584485781721,1.1871877324653157,-0.7848966205573669,0.6065697836664808,1.1896417215253126,0.6848269614832487,-0.09338542256376435,0.5283876876776086,1.4398656497527695,-1.6153963757127512,0.5215375268849057,0.1376766068639436,0.20747627251794218,0.29788921132193713,-0.4370120344589211,-0.2275068605530058,1.8416666258818193,0.9434631069352505,0.4275127714947159,-0.7749568782109894,0.35439772003879694,-1.6282406578765196,-0.2627330780986198,0.3945698737682058,-1.0182962337732402,-1.5901746452355778,1.6288964523841125,0.1440869436979501,1.1810815544204838,-1.7687203542525947,-0.27552243398895687,1.1922181645870495,0.7951301312090834,0.5314843278452214,-1.1539803302588374,1.6660486058224986,-0.40006008088436984,-0.07397410014740444,0.15261878148201632,-1.4162330342209832,-0.7062312381857445,0.10260714671289485,-0.13015789028107053,1.5898433865691959,0.01591643664221802,0.7154343178997935,-0.15792514490039716,-0.4055053607710868,0.33263145056006704,-0.6357604110971856,-1.2156773235097391,-0.47802522015918725,0.7718508046795847,-0.2562948095087283,-0.2563915277846343,-0.8010869650966839,1.2978352753239073,1.2004760258606486,-1.8407389040305782,0.9437172012677583,0.9096405628932153,0.38931415348888254,-0.31622273717096594,-0.47684807689038516,0.7624947379957302,-0.10571596662331707,-0.17900538923710713,-0.09636267375385502,1.749691890482436,-0.5447583314277156,0.9645514499068333,-0.3329378004107496,0.10918514742414942,0.44792179363378604,-0.4377954594763094,-0.05917488307959836,0.7958353716174588,-0.7434922110582,0.5064897059296645,0.7681694350695174,1.102753610823334,0.8407969460669927,-0.5471684046288834,0.13942606964842533,-0.15744875029792166,1.887098213233421,-2.540271218382799,1.1879495404415978,-0.8252709509376729,0.2260596193689841,1.37646363695455,-0.7547222064274248,0.7977361252051708,0.04558426325489234,0.35803920530869027,-0.35250698355032406,-0.19674276310153116,-0.45058811531106524,-0.7907331434688353,1.7873698077216413,0.17080692999529146,-1.124093490581678,0.18633276977208194,-0.9598547638431953,0.10968240908078118,-0.15357860419562092,1.5507046645842224,0.8711143777390304,2.4950872127366726,1.1094774333605721,1.2255023781099246,-0.1588327913527798,-0.6860421372209692,-0.1565105900977975,0.5965957098677612,1.3044176247229744,-0.9529987910085412,1.1895061495673918,-0.2605423329466884,0.737644800348049,-0.3502961033437045,-0.9203991796085214,-0.8908199205436413,0.8623214452067438,-2.27912414735866,-0.1249183500092247,0.44278709143651024,-0.49029096997195454,0.45656783574393345,0.3420993812439553,0.9301836695888274,-1.1046242417709513,-1.380181493792663,0.27596608828784575,-0.6727761123934854,1.0344162895974918,-0.8699375356616433,-0.4273099982728147,0.204054020685008,-0.6519745320283361,1.204550849009417,-0.5856745540174882,-0.8042430274249246,1.9256997293501508,0.05258026186017024,-0.36854981064111547,0.6921810596756949,-1.0012018218602634,-0.5379359378577468,1.4722936208509767,-0.41901600521135945,-0.36442014511215326,-0.41966464982041135,-1.0866869262676229,1.36014308817991,0.9687095981141958,0.753657331970736,0.24809992613552231,1.2615976032240475,0.5815953094056521,0.15460851607908618,1.4271226836860391,-0.39217390469055535,-0.02735730054480724,-0.89851020747528,-0.10693229236374541,-0.011211798622706208,0.3713630551708318,0.8324448476192564,1.3934736799508571,-0.9771662370823759,-0.06189132567017835,-2.4153980280939233,-3.4600317585551768,-0.07710291697730819,0.11468924094207394,0.6756709294210212,0.3480887499719404,0.7427800883663568,0.001242071751127121,-1.0541091981767001,0.7016405184531572,0.26175796348753766,1.6431717708824487,1.9248655373266195,-0.3660753693657109,-1.697388517325213,-1.5600088715049212,-0.01912746720262525,0.8600653368602007,-1.3782586948097861,-0.48290393081154165,0.908952276549977,-0.021548409697630225,0.28551781273135296,-0.2090876331895263,-0.27019588463859207,0.29842382638743015,-1.0357646257098843,-1.1346835434331382,0.14584662513453162,-0.8292600954217603,0.2825653620785538,-0.9716399180374288,1.3890846021731527,0.5904762150384698,0.10389419450764471,0.6001216293726099,-1.1256618514373493,-1.8030205043877736,1.0985979321593553,0.8804836039089301,-1.9142592609205473,-0.02614475430849579,-0.641663655744631,-0.7788817274519446,-0.1125082130176277,-0.737778201811782,-0.13855351466994661,-0.3807676351321038,0.2882115176499754,0.1355869856957922,1.7825032628135418,-1.0067589907056758,-1.245359868343086,0.21140662930983933,-0.1161588588678389,0.22595181385781757,1.5037057022587337,0.42892963019471875,1.2778362540728934,1.0111361647191321,-0.3821350368351701,-0.5143685473784105,-2.0208654938270154,0.3578516358130838,1.3307989360898187,0.8101498654648868,0.6118569380174764,-1.2860617952855795,-0.3189193938149976,-1.34344071891231,0.5007657323863799,0.6114490127087635,0.011929552682848605,-1.6932274716461868,0.9906232519689205,2.0739373937046364,-1.5713089547625363,-1.029395740569076,-2.8259343445555785,0.4638524521053548,-1.1310037254069902,-1.5022279540078136,-0.8225624043593392,2.2002484821431763,0.3514455864994584,-0.019286924128912933,-0.30022333772543913,2.0513558007590933,0.9992580434926359,1.2285191451342738,0.032133828183671304,0.4382125597508423,0.21086408233048237,-0.41537284105174854,-1.1938038296751212,0.13538028993226736,-2.043591946930136,0.6653712653905207,-0.6803170647308184,-1.5051327098162801,-1.3378086674439125,-1.2082691379306811,1.0913385158887128,-0.021542398600844583,0.8517893786745931,0.04774875281670139,-0.292817834504713,0.017709534300361676,-1.295796237707354,-0.31476321837689347,0.12567196552674875,-1.7340799531502005,0.6388886537948884,0.4046798263538599,1.022762850353998,-0.886535457995829,0.9063204633617238,0.037800814459063616,1.2157875579418744,0.3637124265555965,-0.48817493151318925,0.15859393730200672,-1.256281182591085,0.23832829915555676,-0.9004205723075785,0.19441767263781956,-0.06177990224981833,-0.8415910585753528,1.2100796041734478,0.17503811861986762,0.232633378683575,0.6104361749840261,1.0084820510687285,2.1423171420450653,-1.553698793765513,-0.5579891312882239,0.560174154373609,0.7971571709537402,-0.21103649710570094,-0.0778301877473263,1.9965306118552464,-0.06763795539099905,0.33115532518378277,-1.7993740083797267,1.553974480744187,0.29139525448799614,0.5167932436182038,1.192023725125207,-0.5316154751695209,-2.014137288065989,0.6302477360698403,-1.950231046005826,-0.16926571202081006,-0.8367472421894947,-0.13935981452094554,-0.5635710758263942,0.2859881015310583,-0.42124001805283456,1.9150529717445464,0.4142236420800566,-0.9116411743602448,0.0587255974349854,-0.8089996544495799,0.34666757713794144,0.6900126834815916,-2.0411523721714637,-0.6676515298201553,1.6530285725782672,-0.014479275983354672,1.052858370486371,-0.22734178985461245,-0.19403178631293644,1.183114338260749,1.3589168935231009,-0.37782693811292845,-1.7122772531681318,0.1063633320365209,1.3256119795115089,-0.5773950200511083,0.41359920768776387,0.14068961761848606,0.7583351758469816,1.2127707108437171,-0.15987125299589297,0.7670574252615563,-0.08085496172566801,-1.3418546319137108,1.5329748835912738,-1.3209352418934464,0.06473554945756382,1.7349980168367298,-0.37069817227333673,-0.8830982984736716,-1.2761502760610455,0.5412081662921154,0.26599002233425617,-0.7534221016799326,0.8478736498818394,0.4441459174271493,-1.5186106680501015,0.7614873320628217,0.3502344289525434,-0.24588246842627165,-0.48255986544273266,-0.09475083152116455,0.7625436035319141,-1.1718706523255755,1.1889849966214667,-0.12282506156325232,0.28686255690759277,-1.1035176978681949,0.4360364414542194,-0.3006546874955961,-0.08400142897586693,-0.8626732144606182,-1.02175749427143,0.10611691400980737,-0.1928265849332229,-0.21427513328756884,-0.07204091352516673,2.106212072922412,0.41707519802192133,-0.04882907193067532,0.8158787162584907,-1.2462298121727764,0.7173030220262151,-0.06420061020042202,0.44604987715037986,-0.8008834853187901,-0.2879465071361558,-0.6102092585608049,0.28400896495470296,1.6936286717979527,-0.315343105079735,-0.8937852380559475,-0.6558352254775266,0.8386842619205748,1.194747552960922,1.0849813688004382,-0.5363637995656667,0.2672756192388185,-0.16248764419056985,-0.20858151877913148,0.2570546426054376,-0.31618238491843126,0.6274971298505222,0.8762247698429951,0.9966277033315181,-0.05591479974796676,-1.6179905578848146,1.039797453155236,-1.5937597572283615,-1.1585249489177265,0.28258215384514856,1.367257476683843,-0.07435599415609727,-1.0890458139618429,0.04645183026325165,-1.0325706190945039,0.7416909652155954,-0.46348193738723165,1.1506734893297075,-1.955063802217237,-0.523228857014746,-0.08177271547983922,-0.35911260306091924,1.6179807254632657,-0.7427057124329064,0.08772372221364451,0.15249090140319455,-0.9345185667218925,-0.7658825889818357,-0.22754930600503412,-0.7507555975462852,-0.05876802371375823,0.11707890426928806,0.0835444236918251,0.3898375271030583,1.5182793823782017,-0.6451040452511629,-1.1716041641642088,-1.123051567165402,1.2350153433387225,-0.09544579555732141,0.5202735673818852,0.6074979753395222,-0.24892966399026203,-0.1861533344934531,1.6808474970922815,0.6189914905807163,1.0835387991808936,-0.32683635947750184,-2.746528478678663,0.5379333420247125,-0.8742910947963649,-0.6606458292161553,-0.22810383640102116,0.4676711012209712,0.41808080351472465,0.7026151618756208,0.1407809025168648,1.4099153281367716,0.2714633966150652,0.06770749663047894,0.476742029270775,0.8001636636098609,0.032493004302440114,0.515424126680935,-1.0099521592629932,0.8509237883479123,0.3858842102013077,-0.43161558339698497,1.246720041976388,-0.08947322381512286,-0.566339672824844,0.4139362070065522,-0.9241727469555076,0.39721001227330394,0.9272056198862899,-0.746615837207332,-1.668026332743816,-0.3561097101531257,-0.991396309648743,-0.3076647673683589,-0.19913000022109217,0.9743234791656505,0.09548717642963879,-1.6436651950559105,-0.41773196690257586,0.734092903490045,0.9622558465796711,0.8063902925011152,0.6190699929018524,-0.29217038463599027,1.186273816401051,-2.072836941771628,1.538971674703249,1.0284752309084038,-0.5988295487646295,-1.0841399654855652,2.264793656131163,2.2981695495799643,0.4221856431025017,1.3250865606380349,0.3887782616746532,-0.08983235493872231,-0.7248847754946631,-0.5942673572769931,1.7403270458042557,-0.8432544264264895,0.06220704245305585,1.336363328054845,-0.7621942772869411,-1.020797763276135,1.9396769101440043,-0.37816960556753704,-0.9595093442656248,0.7613121408669836,-1.8862512334775534,-1.1172069394982402,0.6140803516049256,-0.8811014899566412,1.2962065131737848,1.612294176475062,1.4814005065183347,-0.7363529430805391,-1.096126044140327,0.8209792857265032,-2.2796342198559727,-0.9392833883319032,0.8632072845186717,0.8999301663339836,1.0337934741735693,0.19996507702675193,-0.07844040365954277,0.8696045710795671,0.8221610359340783,-0.5083182109426171,-0.0884990401445882,1.3618563130521373,0.1643319050805376,1.0640313393766265,-0.19837884503316564,0.23744598445854517,0.6947805406169882,0.35261213690385,1.340009669286942,0.157417252856025,0.8149398876057541,-1.1155405560846399,0.2639453471371093,0.5899832931991537,0.6102723467403205,1.3857594062640342,0.5807540325442213,1.3069262972951716,-0.23415779765580608,-0.004052496861789431,0.13633213354843454,1.479596036705286,-1.1239627266632037,-0.5044521870097313,-0.4020636157649184,-0.08406226339242766,-0.4321086424147146,0.7004256711740676,0.35824614492920687,0.8520875165222579,0.6542713397192149,0.7562529362716245,-0.767215607048367,0.9996143690350837,-1.434531239206746,0.20845609099484477,0.14880674300716085,1.4913604254290291,0.5149535276806549,-0.6915178756617614,2.1272693267618066,-1.0864263918343664,2.1365714056985285,0.7644801339784478,0.3196184757898731,-0.19567827266517135,-0.2534164630594432,-0.050922869058029556,-0.17149536700360377,-1.088741576916076,-0.7106778253853644,-0.1640139303905295,1.387304681022724,-0.9122116305916703,0.5136111661826885,1.8867040394193542,0.6470210792520744,0.1879881573745453,0.43380920536691037,0.7051835646591755,0.44710541203870385,0.6283281795096847,0.8483253107615416,-2.243474812191356,-0.3275082640127931,-0.6157438770799326,0.7437348278613636,0.6298811118530423,-0.9921215471531607,-0.2671674514460236,-3.183281053178562,-0.595377996967136,-0.12035411578024469,2.605367876362887,-0.48283986513376903,1.2406750242934035,2.015224955805973,-0.6564225782834565,-1.0688644151760167,0.14302461147403614,-0.032420124215853045,-0.5188626251889972,-1.4560640217470477,-0.6940999894440976,-0.09699517704635033,0.3877199068690211,-0.8049417398545128,-1.6150945308162694,-0.8637892906931185,-1.6608035685455012,-0.6629971290340718,-0.9808664825461829,0.33993815276584005,-0.7872364981493009,-0.6502460970024807,0.27313550060187747,-0.9523468678376291,0.4768287482060683,-0.8244276115877373,-0.9146367555824806,1.2402155169988665,0.07668217464505296,-1.3661532573052115,-0.6194890659134257,-0.9843919675500981,0.5789179579479532,-0.11452817755148642,0.3209819188606757,-0.04961868076504318,-0.8518083707908543,-0.03312506800481242,-0.16618886239903274,-0.11485405109049811,1.8101363865012667,-1.2141961075991492,-1.1438018284708897,0.9266564018135888,0.17407424243014247,-0.6931849852417672,0.07425743518884272,0.3308339577130513,0.0985144040019197,-0.6167116278863043,0.2992445415228036,-0.05856172722183239,0.34537060885477233,-1.6802047719763515,0.7052903032979805,0.541689058951823,-0.37651659134881715,0.6304755512575537,0.60125844228671,-0.6310623328643629,0.8360771170749355,-2.15141329715727,1.0897890651911661,-2.048118104807187,-0.8187327381987876,-2.481393222814301,0.44204969539311073,-0.4846124258478599,-0.2679481391626265,-0.4272085563848904,0.05381276347595594,-1.7410076920608204,-0.24174092542029135,-0.9306927470094438,-0.7894654066617066,0.43559301066190315,-0.2910677759535503,-1.4218878624900033,0.7937467510096546,0.5880933419743932,-0.6061952193918272,-0.9581553383103342,-0.23414697957122377,-1.548870283410912,-0.6423351120669585,2.342879045505251,1.3456256165318474,0.13680366808093958,-0.7968441231214926,-0.32248949874518695,0.59596792029335,1.1997043848979279,0.4653605765473058,-1.6951880955967815,-1.380664609783358,0.6637458934069062,-0.7690971806700388,1.1230800185290022,0.39209751298791373,1.906669646593438,-0.16281446584014048,2.079271326124499,-0.9399688644020546,-0.4379136236826954,0.3099320887177773,-0.21165669227890446,1.407643279945193,1.2975226803711872,0.46705424955133434,0.01075891923978053,-0.5103034257261838,-0.9668837414288589,0.8250155371653684,-0.9607417998471278,-0.2716037313077125,-0.390418596390162,1.886649566069006,0.39800835369291443,-0.15571142694052384,-0.3939317237789013,-0.3780705018280847,0.7257381402021194,0.07672322856648253,0.8292524824192934,-1.9944984427812544,-0.4927428148186869,-1.553115569244973,2.135608270993296,0.18847410306255952,0.19951438195047944,-0.6900459466474748,0.825664445232243,0.10404066278457239,-0.6983749033656582,1.2432109533215823,-0.322942489046542,0.3930308270507272,-1.2030306025638648,0.8206405037131249,-1.2757585266545441,-0.3765090815375085,-0.5231897366211574,-0.24694214492264283,0.7672604727833289,-0.2856157075030049,-1.3703327467658548,1.910199468729081,-0.38138393198669357,-0.7594334165679021,-0.654884252677734,0.4632796069604155,1.306688950359088,-1.2968590546849736,-0.7091716696136755,1.2952391869186828,-0.9088977214042236,0.15007858406518143,-0.323154996101259,-0.6880902251107966,-0.6323366687120269,-0.1891787872419175,-2.366694336235419,0.9624821277148203,0.17932832901320978,-1.317032823034043,1.768568454191584,-0.8176061112624734,0.8731226260906811,0.10032811172740363,-0.9040976731993517,-1.1039127064254428,-1.51676245001533,0.6260601770399188,0.6825508422135579,-1.0229671121681627,-0.06857935248829848,0.22719625857614278,1.0604064588718873,0.10386623906176978,0.5100320768650632,0.8411772519383468,-1.7496690018601566,1.24235562095138,-0.5926584850820046,-0.32906407549629685,0.1055170380582346,1.8455449823420793,-0.31968320909031794,0.6498368954186704,0.5527544622199859,-0.15697869688470767,-0.08731485427695394,-0.13563020489429414,-2.1148523832956463,-0.4037347913436241,-0.08091428372934334,-0.6530585360565508,-1.4200359946703336,-0.05799958303706846,-0.20992914953523942,0.074435716146441,2.176985552768766,-1.1777026646479876,-0.3165540168153677,-0.3385732174432987,-0.9527972300544908,-0.1045614465357275,-1.8300928029994818,-1.6042940380501962,0.07737301356965443,1.0182927384202967,1.4604732066858088,-0.6021042205107252,-0.5633033012847709,0.3206269986048197,0.07223454173337937,0.7732479858521629,-1.0391985316697987,-0.27906301614186124,0.4112993285544178,0.7173799725820692,0.4313214775525359,2.3680497096495343,1.793941083563515,-0.14812213500565224,-2.0491717994935534,0.2697644168716043,-1.2495660484890696,-1.4113346920766867,0.11025349153960455,1.9048946729133387,-0.3385159109506426,0.8469666014724416,0.6926023179271439,0.11021043565233071,0.47890960020419304,1.309657214697459,-0.20384365343739616,1.895532357315267,-2.073115693977363,0.5106494754159683,-0.7042709170642077,0.5343701377666652,-0.8770264681393496,0.6847366495599545,-0.5204592559760369,-0.9581830192255313,-0.8428749201642609,-0.8104136763974853,0.40792674789280203,0.9088491377973497,0.8855940719113722,-0.237492072186255,-0.43922093839085324,-0.7799129641666117,0.32684610371991146,0.1981948670189923,-1.3005204554617913,-0.8019716279587379,1.1108150056755512,0.005470325835256038,0.8545551069170544,0.6853948947133116,0.6310941605987126,0.37518441912454586,0.1665686736558196,-1.6875125219756013,0.4790219204303793,-0.5280776440936151,-0.48159893952505095,0.8682549611106455,-0.6833383757367234,2.3019183877716807,1.5850251456141196,-2.3806690638592727,-0.7448927939530607,1.3280885978593666,-0.7850622845124972,-0.3065469722343237,-1.3434689662556076,-0.3057756514514138,-0.2088536144700465,-0.316042546800396,-0.3733176084202646,-0.46174099884980824,-0.878462784215515,0.3501959796531472,0.9909446532493118,1.1631406516118044,-1.2545952082335967,-0.05948424184526148,-3.0391191130084345,-2.1910311616623197,0.9663955269363123,-1.70404913673062,1.0355609322620822,0.9825199312338152,-0.6908150466345439,-0.1664552449107931,1.3711896954074885,-2.0329551255647402,-0.7993473416784772,-2.2002308094336964,-0.8713441544353071,-0.6634431685487496,-0.2044950012725201,1.2054895844671139,-1.081696138428982,-2.3301076626048745,-0.6036946142952367,0.17096198387280875,1.256892547631904,0.22566650182531311,0.9401964847464489,-0.1580870875358261,-1.0483525875999844,-1.5519504592564224,1.0223800753661374,-1.5311572202330719,0.1564128837548407,1.9885874807630806,1.0449563157204085,0.2637694861338943,1.2336333984049064,0.8034552753936433,0.24249827150081826,1.6760381210824928,-0.5523163276245556,-0.3629824007507164,1.5301716249040616,-1.3700626735883277,0.08273629735791084,-0.6066347214324086,-2.9155964819293505,0.28242743586607677,1.0970929486940304,-0.12515920556483956,1.205879142599637,-1.3032993401585495,-0.31260005341819475,-0.20439760270858043,-1.1159395079117502,-0.5724730331697865,-0.6623545884455909,-0.5320564186724255,-1.3636049747689003,0.7841639956672297,-0.7699862444688854,-1.13063701339064,-1.9306924087330901,-0.1268673796846943,1.2698799244227277,-1.4526047759897072,-0.3150833512072706,-0.8514301720337161,0.10089292370152789,-2.3381767759420615,0.25113533042088276,0.033980224219991764,1.15207877895382,-2.2363581521329294,1.3972280842464886,1.1304161535955835,-0.8001232327301195,-0.5573598517604869,0.46889931416157055,0.896434849562619,1.4164950120546995,-0.9835600658111613,-0.4062677878586993,-0.5354175271344164,1.080428168908217,-0.6256522747859324,0.22418681881315303,0.7382618777000355,0.04220155545887715,0.36798073497795936,1.1313978886668965,-0.27756670078746865,-0.052938816362396904,-0.4913631141772319,0.8705965598510707,-0.7014645164733854,-1.2020091435884717,1.0937746172835843,-0.37456359910948367,1.0985279724214003,-0.8789065837724992,-0.5264709282643611,-0.22530474130743172,-0.2040618404617786,-0.6310844769885817,-0.3268537587027933,1.0454126801475863,-0.47144088309820414,1.4348130909567172,1.6622783482857384,-0.3692248106787955,1.7868870103635521,2.1359741180983685,-0.12638714554811012,1.2543207558264309,-1.4849455250553045,-1.619553588337714,-1.4640070630580897,-0.04000779873266156,1.821987437053809,-1.2487311382228776,-1.1961068698211181,0.8700569716256448,-0.841844359231415,1.0885943951620118,-1.5148217035264495,-0.9437642348196694,1.3409691064307976,-2.1340255415131915,0.2288407061559132,1.651078008766201,-0.6332845904760575,1.409564893597826,0.23129504625301409,-0.579254746914187,-1.5050182115720763,0.7173038760528077,-0.19793331199917252,0.761482400757393,-0.7336021990418332,0.0028783439390506673,0.518630050224556,-0.3650313146616452,-0.6794856369376013,0.8960165749774031,-0.3163388310843921,-1.9630327591092451,1.5389766234501239,1.2563123971907144,-0.01397744984943619,-0.8540333069195954,-1.3947507974027302,-0.016536335697882,0.633336027041483,-1.1270426463764576,-1.4151203362902067,-0.1314673036279617,-0.8188340693252036,0.5509435735084539,-1.6215594990609161,0.2966546179852705,-1.432926921566416,0.6355959286147108,1.1081093379457874,0.5146243661144279,0.4309839897882408,0.20201619133345128,0.8024369520376848,-1.1000936641594323,1.4464230076417786,-0.2595896399975225,1.1874903029443757,-1.2390295319670976,0.20217540931450276,1.4759924771319186,-0.408939720563707,1.1358197692572312,-0.16344816395548786,1.12840849293105,-0.2113183024353313,-0.7550559739190468,0.4038330180309915,0.561277029815059,0.2815257819372396,-1.8049240556069435,0.2708101361236301,0.09790114929652906,-0.023556092932762097,-1.50973270579058,-0.3441821142291024,0.5992800558068571,-0.23917853078322776,1.1219039933666441,2.2523459458316637,1.4291796480224803,-0.40024244336661957,0.03508045864114802,0.8915226001184495,0.10596055917039009,1.2651617918457032,-1.3619429132157164,0.19179562133271588,3.0269997049424315,0.26838736123380036,-0.8870196562639953,2.2545849926164676,-0.12045304168458014,-0.5886887566260753,-1.1109635633606387,2.6364216463457537,1.9034916406630937,-0.09325796213514702,0.4760283274244302,0.6457143875352747,0.028016838887795516,0.4905048525734966,1.575617071562335,0.30995770913788634,-0.9112548887813453,0.3868076558261628,-0.41802062923900357,1.513983749453155,1.2832802959637215,-0.7119570876161919,-0.13278145361816537,-1.1347866372845137,0.9814305358686229,1.021304520578187,0.7922567259940549,0.05649635372462433,0.3747699012914122,1.1378015832661756,1.7615617948781588,-1.2617484010495241,-0.874080480110983,0.9212744311107123,0.14118744590534396,-0.7347026230362292,0.962068435278862,0.6929859308681617,-0.7748202734519356,-0.05970501813440513,-0.008779481268183578,0.8882181843069624,-1.3506746749350098,0.2787850002108123,0.9755826991743769,-1.9885764158972936,1.002761469626874,-1.2908863875220509,0.09562900420834682,2.0602590714572653,1.3015878777789818,0.9828582850310443,-0.6414779324071881,-1.42842113607624,-0.8689469925427784,-1.145198815353618,-1.6372821465646186,-0.8897845805021964,0.5322038585598703,-0.6832630515305579,1.9368877783097986,0.5677230747351882,-0.9211902845785588,0.7100530887462752,0.7792065998413626,-0.001570578091847005,2.0532488124117574,0.255369063322517,1.3613317233551123,1.3635649876987734,0.04306263607891939,0.7211530079499896,-2.5345083022104546,0.19983408614218176,-1.370263807002296,0.18367645739116964,-1.5878870451232443,1.1487660030607547,0.5904069741245666,-1.9864892550898914,1.414773467650133,-0.35195270004446183,0.4096427992267601,-0.1168377212178861,-0.21891873386447472,-0.8678105445294371,-0.7878051289386097,-0.26380599680736605,-0.1556605856682242,0.5894691885167462,0.5549156571445781,-0.5542220939574709,-2.067606315681702,0.7474805145343721,1.0544926381091242,-0.1606191890472578,-0.28325697464664185,0.25864077390381174,-0.15960325589906643,-0.5022406682698597,-0.4834118373000143,-0.20160994639072524,0.5189080598802437,1.4456411096404473,0.5246666431853659,-0.22754431460155292,-1.3659364032353007,0.6891723703310003,-1.2954733758980432,-0.2509866137421112,-1.2081150968882737,-0.3380111499811564,-0.059897716322757,-0.7153249354503014,0.019749112425719202,-2.250468299945205,-1.7258820301543571,0.8052545731276896,1.0021814688003394,-2.0944213019227784,-0.9353735908736248,-0.6492485725298378,-0.563565013156918,1.4959264123048313,-0.6076623255467909,0.1325391328624687,-1.4910991848268556,-0.22405652854270103,-0.15586750124351892,-0.29664025257270044,0.7290746103882983,1.5088332467692083,-0.30382699281233216,0.6836637087334891,-1.5693100535992406,-0.261535042721804,-0.28850114171789193,0.8890641460938881,-0.8002361672808564,-0.4989551129767417,1.3560723011855482,1.7011848531730138,1.3524030016595647,0.6593238504615404,0.21398471219225912,-1.7213577944391416,-0.05242868731600012,1.4501750402883378,-0.618230118660167,1.6172195706071681,0.3746723022551937,-0.11516544983948727,-0.5702983140101405,0.2527287935861453,-0.338893054833635,0.01355666352522715,0.40090525610916394,-1.200934970969755,0.4070032150706553,-0.37487581857310764,-0.842894497000719,-0.9688254377913483,-0.4023225008349533,0.02625486329407867,0.37611610459129896,-0.1448561624595794,-0.35277706329424774,1.2397690447723164,0.503528926977814,-0.9152159239762914,-1.8901106928852611,1.5010212245027703,0.1848252043227218,-0.3601324442671554,-0.6412507120599724,-2.548594644641093,-2.2823424719093985,0.08845151091647115,-0.5039283232737558,-0.3158627470894829,0.5829592050757171,-0.7260454095222127,0.27470177268163387,-1.4025346195658728,0.28926877521679145,-0.05917375042559612,-0.47207656099734957,-0.5762201002566366,1.2697229381816608,2.0048604700987736,-0.9426764334202016,0.08722040888171956,-0.19092813652972493,-0.6488855122779627,0.5617758702256925,0.5321676050037609,-0.039774351820401344,0.15099277138634465,-1.7693704767040555,-0.6147166714136815,0.0035741279146524097,0.2641501922606289,1.0818953639687068,-0.4557759135848837,-0.7558049758760926,1.923010690613858,-3.006495734126108,0.9353547648110077,-1.044388491353274,-0.43327454140018673,1.0491810555373855,-0.3828013082089826,1.1127140881178494,0.6107837283345585,0.5510088555936916,-0.4442207460130681,0.2073072073099458,0.8966566485469262,-0.17375103321653643,-1.6219631417364544,-1.1344872976748561,0.27324527624547373,0.7931383886422098,2.206785631497149,-0.24051944686242627,-0.6251977286867683,0.91133148613376,0.8824996071341593,1.230324671414734,-1.1683799326676638,0.7320700896364918,1.8687782869431453,0.012818346925945145,0.27181665887422324,-0.8041059295552937,0.1430697163989487,-0.5209089865738081,0.5168479692174326,0.01618527531071901,0.2716800572326671,-0.6191596232324985,1.5365371661093858,-0.8673173011079505,-1.7847768652639389,-0.14160481839531092,-0.685925336513884,-0.7665106295998241,0.8347722526823294,-0.6671264464877612,0.231315665874429,0.9354919734180519,0.27212052393913294,-1.1747347593490844,-0.5727107297258005,2.477948005327528,-0.21409990516158275,1.0032824941366412,-0.08234720705944003,0.5694861834066487,0.7339193105790542,-0.9054075545345718,0.49388075389115205,1.1823978287153103,-1.346598819281667,0.8969443847143901,-1.3323467302861611,-0.06349759022704289,0.20963595884788241,0.22234652184163817,-1.186370754946956,0.6979574326181897,-0.09821995897682374,0.6965550962778665,0.10372492169400745,0.7107111733121203,-1.2571100004353275,-0.12492136811531722,-1.8400770077467545,-3.0658966915103507,0.8046172032117761,-1.6185715560681477,0.5226964147073219,1.5599003403159462,1.5604038660115032,0.3632671083503143,-0.12504311024614628,-0.08956023329538335,0.6218757860649962,1.4569794449688913,1.106666037595757,0.656204347469944,-0.1640268189061345,0.004096428574397174,-0.933210817041293,-0.5035097891648801,-0.8668682899530089,-0.5711252937587662,-0.920706732180878,1.4274935992049889,1.0045007791927383,0.3659635655965567,-1.1202937071464076,1.0966672478377377,0.4719213442882523,-0.05621186502355258,0.8160620335438168,-0.9931665644558125,-0.2612413411509084,-0.3432548254397375,0.35494104459142645,0.06557399652640444,0.8293561381020405,-1.470441383131879,-2.4812167580500386,-1.1396257316769471,-0.3734571094310154,0.1705997280960893,-1.0654679797903424,0.2857470948342463,1.5923671893294178,-0.45171513266434127,-1.1837323823482329,-0.7840169932635651,1.2958646497578932,-1.1641569610793092,0.18722090734727234,-0.038171465942018624,0.5980710088328495,0.5037415688507614,0.6373119238434992,3.2787496765025086,0.3775365114108153,1.0532045434242203,0.2015805751012273,-0.2852423925879201,-1.8050431213177283,0.1630864227666845,-0.0415142210574154,1.758909293330845,-0.5175360360999814,-1.946190031336045,-0.33459102595958173,1.1640566684242666,-0.18136070453123374,-0.22215059985461943,1.377255161515904,-0.8074404996744542,-0.6379218301480527,-0.8756337973210873,0.6850106135784038,2.3714577750475456,1.4567777926398024,0.23769434595269673,-0.04707147769225242,-0.22231802777250534,1.6195394956399862,0.07851085959302943,-0.738670608299654,-1.0675890435640027,-0.7679085422257262,-0.3346953219984309,-0.6885166954337887,0.07180399129325504,-0.5898585303986416,-0.13201572043310245,0.6905440723272974,-1.5815891111422684,-0.5463522829351118,0.39803167596190325,-0.10692757528132389,1.388516848772761,-1.1130852474342707,0.38542442951769895,-0.9200264080839975,0.05227050945565644,1.315304734196549,-1.8626716657518787,-0.3373788955411017,-0.45428019014592386,1.2873441510022863,-0.2341616172321876,0.27145516216747867,-0.6368469803552058,-0.37665364314071076,-1.194296518177329,3.229155670969172,1.7362506978812617,1.1119666731761566,0.10978876670313299,-0.7274641818057738,-1.8685305640812793,0.007471506097789403,-0.5817054090067905,0.32281286907327694,-1.3205006009964757,0.7234985642412863,-0.9536074190548172,-0.7164135980603598,0.8405014868644751,0.844975987705999,-0.20331223996586428,1.2839865551341534,-1.1771827482531854,-1.447226788441457,-1.3875056407647819,0.19134238821991897,0.3832496617488363,-0.9388820627081983,1.053954330819576,0.6722441685212964,0.10214443545972653,-0.5162954685497946,-0.07737179259792051,-0.5627675427268692,-0.3704710103936691,0.8151248454295965,-0.8777155058597287,-0.0785352052920697,-0.616147665068686,0.5619691209319682,-0.7921940469270566,-0.18374093349423998,-1.148651355708907,-1.7355972381820293,0.09025117794240574,-1.6362404791721592,0.4668319368788337,1.5822155122233004,-0.9439849445697562,-2.644652578701046,0.0947712272530734,-0.4405333288634353,0.8106126818558105,-1.169493036509117,-0.6746570389312944,-0.21629058897501496,-0.9131857000397803,-1.0856536805398997,-0.2923163577707127,-0.18948094102485996,-0.702984361048659,-2.002270366940186,-1.61852958803463,-0.8038537119249909,2.2092804882336354,-1.9703804704806405,-1.520633077341564,1.9289904191390252,0.44107653935683144,1.38804444366302,0.5411420865092874,1.0329660266596943,0.6532175721109881,-1.1501085994610671,-0.10515743221369629,0.4057397076556018,1.0536203166817326,0.33799120531925125,-0.6798915295206629,1.4168457667939096,-0.5349741957280484,1.382859335141997,-0.20117411433118212,0.32054415308781226,0.02121712578653839,1.5077721631461034,1.6798554589844474,1.629503897036251,-0.37631313710816583,-0.7206245611689555,0.9632835714371593,-1.2093726606086799,-0.6876941652316959,0.3693776143420392,-0.6738792854904069,1.0135544749608085,0.655636575061505,0.9945927576751237,0.26192807630570675,-0.4075067890077936,1.3929514258966789,0.5635074682046907,0.7295459513746628,0.6938905486810654,-1.655401955935314,-0.7260988276755315,-0.5889154236142842,1.83294201446359,-0.7987513287196796,-0.6889177882829636,0.9590783095913017,0.4515453914444032,-1.1905936055805681,-0.7257851922764978,0.40188517364988113,1.0001567080293603,0.8468240517991387,0.6504347886334211,1.2236111641206993,-1.1592430064497106,0.5801994508051588,0.312562084287929,1.628176068612937,-0.5442133311680297,1.1417939603744935,-0.07672370984175417,1.0606143629554088,0.08562419448585605,-0.9150563220020457,0.29451146250102783,-1.0057265127357893,0.9862380886791727,-1.9184394839640118,-0.6076527221921973,0.027524802843638712,0.03331093327831292,-0.7253685106579891,0.6883115430311894,-0.03295416327582702,-1.6423061179675715,0.33232669673871124,0.7957454423951017,-1.8291461939590237,-0.6278471601577629,0.12613198982056414,1.7562506815241459,1.0769139788779438,-0.4599559713414767,-0.015878530880900823,0.8327935633337548,0.15090692677170978,-1.1320355016506212,0.28426748378003486,-1.1393341198636722,-0.14034730992295297,-0.921392399861929,1.4206407133220613,1.0490159482778696,-0.07192816880053438,-0.533947935892591,-0.24015699432199325,-0.07506589882159713,-0.2005774359014693,1.1376933856488136,0.42446764968544504,-0.2741472137263356,0.1276909427160384,-0.14610851345538084,-0.09200571538298126,-1.4478576691222234,1.247660347196232,-1.08822343764137,0.6880962190939869,0.9656740421653095,-0.8562973110201991,0.08478417639474473,0.36976123568632346,-0.8353066469099404,-1.2426253712982525,0.9587997712681289,-0.2488532094981178,1.044816826819749,-0.13541447703415152,-0.09713182889311227,1.3571183397684594,0.6680568944064489,-0.8348795594867517,-1.1573519548483262,-0.3601269106328446,0.52955825908195,-1.5493778702310081,-0.31505406872352804,2.019417739631698,0.06344878289505983,1.3116871602113278,-0.009241923456350528,-1.2343711412271725,-0.9352328916199345,-1.7795055478781874,-0.04519448739173388,-0.5479751720131972,0.39006593696284797,0.9215562359916218,-0.17963999607833606,-0.22890393036767584,-1.7679427323116481,0.14496751096131752,-0.31666254424515783,-0.20598787378441077,1.6226465681259974,0.4369228716564002,-1.435684550629463,-0.168456126170111,-0.19018315529913388,1.5144714037596936,-1.479296535366806,1.2131173347498074,-1.401152569937984,0.8439952434152413,-0.8276342228413086,-1.5752201223575715,-0.6170278985829744,0.2092973755947931,-1.2761559474041513,0.6832032692752875,0.23677669258051268,0.053231195645645095,0.14355938686178918,0.44568453285849263,-0.09762098215715674,1.4538802748338893,-0.3851631209945934,-0.4658161606453064,-2.4860973776654034,0.8887047113517931,0.011784805729214679,-2.2960218382179494,-1.1672017237850556,0.3890495704278289,-0.00553601696788423,2.675087031615501,0.7306381579707487,1.6366504661049615,0.6707647372136528,0.03215782297325335,1.3018074595272517,1.7295749185694058,0.021552378489288784,2.555127570655924,1.487521164069488,-0.07920009502382276,0.19467484113643044,-0.5050397749892196,0.2966957857532845,0.12109552667138906,-0.290002298839358,-1.053236049324285,0.7002258715083369,-0.23147996639020516,0.5526783948417812,0.808680559601409,1.1744519470227075,-0.0015503098319404258,1.4940113248655462,0.17798435610321492,-0.07580287724684101,-0.41024364392035134,-0.2563589239818998,-1.65844498672147,-0.25618632394107904,-0.9471142412042655,-0.9651344985907743,0.08126563493264148,0.7900794457811127,-0.8407110149664296,0.4924595642137411,0.09654725616127097,0.05252790645129202,0.30767189392675814,0.7788412668051135,0.5264514854200983,-1.2976261817100216,-0.4333638054098886,1.2948318669935241,-0.08151813152411026,-0.9760184553371493,-0.02827910063166647,-0.4673689223573845,-0.760261399279667,-1.0411848357999567,0.1663444603899137,-2.346888756472207,-0.02847324323274254,-0.8523721381011631,-1.4696137453547289,1.2563833731576615,-0.5203924349593759,-0.7356152290458391,0.37456518714164266,-0.47097233259381643,-0.8598831339605016,1.3259717942195088,-0.6787091284428809,-0.18142992958210988,1.6810963629066968,-0.45068044212028513,0.0668876364508075,-1.0402313540828683,-1.7411433263714018,-1.7331466089448369,1.9497899663283025,-0.9472459707167521,-0.35591550182183557,1.8763632276165731,-1.3200397786508944,0.44461458587637304,-0.9287020435414275,0.888866181143776,-0.0426383733500637,0.7862344677137275,0.31481670652707083,0.7518499465289863,1.3282591769110639,-0.8754780848163908,0.05953179222433888,0.09430218295132738,0.7522935156637417,1.2833604872203863,-0.8227691909642554,0.03184346486427868,1.4334612148679546,1.5217927990653823,0.9616942578661857,0.021802343485263997,0.8841138794706308,0.45750085785691874,-0.24143491462334712,-0.4396163482348455,0.6013756617667492,1.2572062554558892,0.9987681634312946,0.6440855201367967,0.26546336033534496,0.016393599500704945,-0.5807401961540636,-0.9063942703083316,0.7700329704770333,-0.6078964087390528,-0.13928974951307954,-1.036786670383481,0.0941207428120686,-0.0735219740573187,-0.8473461514318217,-0.48365410560707955,-1.4364156788391917,0.1318348508491585,0.9707413533767035,-1.0387026296797484,-0.9543973420624131,0.0666261800794819,0.24596716463608026,-0.5024442266982677,0.9380281264415924,0.6819616054392419,-1.1752390926199792,1.9477366836663597,0.8195121319001121,0.001135562830815721,-0.6690113107206387,-0.9219432844416051,-1.012838249680511,-0.880355623802894,1.415711284296237,0.005896299654397794,-0.7591221529863885,-0.9417549473808557,-0.9196064783245107,-0.20133793887997906,-1.346558836412898,-0.16352804655801942,-0.4336843185666187,-0.4024529130658883,0.6218049359204767,0.3381019782964202,-0.4558030662994518,0.012978585317515823,-1.0801577844847405,0.6809237882655755,0.21867153163191796,1.7756569760357612,1.018471491496227,-1.3987381706016337,-1.7494207533770432,-1.4173460743098811,-0.15546414082756588,1.454684593440234,-1.2775864160841868,-0.8039381113554759,0.4306223767505242,-0.09996419267699783,-0.46666874151720844,0.2591722258615009,0.4561136889301077,0.35421351402203327,-0.01426514092923757,-0.7328881679967776,1.0002450241949337,-0.619374304907353,0.6569043646382806,0.3111901697246836,-1.0455825421736453,-1.0919039542689102,0.014631247415040164,0.5978506922018911,1.0328702909830478,-1.4139477511229697,-0.15010357641426236,-1.0181616627784813,0.47771067781701493,-2.6240713611512594,-0.5566844406913652,-0.2246822876081767,0.21239804213921884,-1.2756364688788968,0.7846606802274109,0.6354024271186104,0.37960034959824146,-0.683395081646167,0.0164674992376671,0.07520176601286796,-0.17613821017582726,-1.1426471349360219,-0.14580978714294238,2.018353116270696,1.0546989558179445,1.6880773517873628,0.8501509148649313,1.818776222745819,-1.771197776017633,-0.3324371162990463,1.1719170455679173,0.1426819843499597,-1.2296300793610606,-0.4825974761699445,0.4015204192958226,-0.41708946227788346,-0.8778250010063974,0.21722567770001994,0.2920548053456227,0.5839388494437266,-0.656991318700893,0.8360026805327411,-1.3284351184203238,0.5528966977941026,-0.7285717936290395,0.8644441785165373,2.3355891873804944,0.6081061089974968,0.4924122146288808,3.4413122327156778,-0.12483522160386508,-0.8152284076994922,0.036734994976237355,-1.3982057462951476,-0.10364383243123959,2.100185534694218,-2.5618794727606673,-0.5301218005127485,-0.3003244482926441,0.45004243671241323,-0.9480883281280268,0.2344744962838577,-0.43629050215568266,0.030348080756696698,-1.7091752277212713,-1.7720071536399054,-1.1437564729653509,-1.0901325918739209,0.9544432906691729,-1.0395544513254276,-1.1062396486135835,0.11982747712614952,-0.612159410119507,-1.7930213883190227,1.012331240593823,-0.27727035618143325,-0.117514204549301,2.31266855877334,-0.3422061601775202,1.1493526773235334,0.9747381537150921,0.7252193544251491,0.24455484610223027,-0.09988720201827636,1.0936826835258104,0.07381717900786045,-1.2575380052781973,0.3235863424628953,-0.18756277634071825,0.13140498657378327,1.5971943660352548,0.11584949615083728,-1.3247644098127698,0.4052777181647733,0.24109612747805367,-1.0990008368037338,1.6263290027849795,-0.29987343797883437,1.115437301962255,-0.25038881444252015,-0.18051403965649712,-1.2272485314601802,1.5345152508660054,-1.0825033536181279,-0.5949254595797718,-1.3819971559333268,-0.6050124050338285,-0.2835873206003022,0.9027804781125625,1.0374463898818467,1.4782287044282398,-0.23470749491795723,-1.0333184041124153,-0.3094022210585918,-0.8413598516760853,0.9514082118280645,1.4454140800769089,-0.6270886267447903,-1.8216568807563347,1.893734222339582,0.4650213299613563,0.509196913769898,-0.6184657799995084,0.01001239882216355,0.9111097157331041,-1.6122077109540183,0.5635486747923523,0.16602702143198322,1.2116537031502481,0.42311343380904876,-0.28470273030961324,0.6739400447486551,-1.4806661278890463,-0.19490203595641195,-2.365903335214886,-1.2546931608642673,1.0170109801730565,-0.2314658805082532,-1.272420249432452,2.2746165861814416,-1.7328409189172431,1.3544993428429588,-0.877920560572515,-0.904328070802866,-0.33925129147484634,2.055560122641245,-1.1285342052619416,0.469686240135475,0.06469247773923689,1.234397237323326,0.17816949813670005,-1.4353590275877142,-0.5529781894154809,-0.707290113677302,-1.337409989223037,1.83360457028842,-0.5216180395127025,-0.08891645590393563,0.5466331710799253,0.6554679328869124,0.7257725267495159,0.7138168074023488,0.5672989573756373,0.15855231919054302,0.41520041191772566,0.996563666577459,-0.045297788864106424,-0.27552382451387125,1.34877902112448,1.1455378466015669,-0.6624742259215118,0.5620113126790528,0.3157841366115219,0.6829200547364751,-2.2008602768816905,1.4244928970397492,0.43186603010877506,-0.6109009619596235,0.42753370847819017,-2.0586283794005524,2.1642350707029068,0.7412240973160683,1.5297076690146432,0.6021751160291045,1.131598098662786,-0.35982779670292353,-1.0720997991321501,0.8515151839705573,-1.189331133593788,0.4541691932994952,1.7999286452023222,-0.5822530984997681,1.0942618250082494,-2.0059380682607935,0.5386108627925463,-0.33306803924695677,-0.9670080470971972,-0.3687221312292887,-0.16154305918910847,-0.06990058578053453,0.16890949236400316,-0.8222201428423408,-0.619042109480509,-0.5327164760353168,-0.10227699142567856,0.11182578100383345,0.8291481957553223,-0.18811750262755,-0.22121026096397245,0.5790145460227,-0.9145885822480537,0.18430557613970763,-0.2177222945610087,-0.4821074815318657,1.7606846199368726,-0.8310481399587454,-1.4981379199641316,0.16222742372944257,-1.0793567873217975,-0.5089065089238547,-0.9767348165354431,0.9508377684152292,0.276562770550196,-1.192396308907343,0.528153563414308,-0.652387741579858,0.4212839593036476,0.24821511623476666,2.0236188684178864,-1.5084026865353128,-1.6869970487896808,0.7511231952134974,0.5591079746249809,0.17511497993579925,0.30087837404194373,1.5271625249282177,-0.9211057713018105,-1.9337729313764762,0.9890908930339942,-0.8678890385887221,-1.122013652474984,-0.41240896157041923,0.9762304592104032,0.14153879480378542,0.3239845588805662,-0.93209811400624,-0.6877182829146066,-0.14239681018859807,-0.6670764208177506,-0.6052867965500895,1.0130804249798813,-1.1265715218068104,0.09851250452613336,-0.16220557841948816,0.2674182581257127,-0.038928140382630164,-1.0784803131054705,0.6815091114962258,-0.325759332809022,2.1163836881412026,-1.8329313954325939,1.1077257959399693,-1.1306729405571703,0.6510379904459014,-0.3082099321831522,-1.8211649162365822,-1.5471512747383014,0.9410097365563639,-0.7388199836172157,0.6095848843410984,0.5514253425352337,0.7261080636968636,1.6333198183659485,-0.7650777898435321,0.7244311807180098,-0.7209114109796915,-1.5974984253471238,0.0849029342053949,-1.1791677363586377,0.5033867254729426,-0.20028092230215305,0.9856352994727023,2.190323076979315,-0.6904846945519871,-0.39240927958889177,-0.3153999412061352,0.5359812212875309,0.5745238710633287,0.07445451255780836,-0.5950508998821435,0.12427797264679225,-0.3502397947048251,-0.5811983663257722,-1.6339935133312953,-1.1573874888456375,0.10394318551990783,0.6692717561385555,0.8365933630296649,-1.0634024876735029,0.7803329528155043,0.39872564657957943,-0.24345989206494645,-1.582711952613099,0.31040445613793743,-0.46905685942847514,0.6956262104540881,0.311228444325856,-2.0727386524396394,-1.6565008900061662,0.108009201150567,-0.6712817466484502,-0.8391470522997233,0.20672984009163062,0.14373202998499798,-1.7884398281668392,0.18407492244118304,1.3200247554263707,-0.46857945568387466,0.9792236898405796,-0.48021567906527357,0.7765183675192001,-1.1477744121132238,0.7321988821238516,0.5319796834065937,0.4668248954074563,-1.0415005652268015,0.5523162854945818,0.25297177685683697,-0.3836922952490883,-0.06704295380275596,0.06814624816920965,-0.5948358787288582,-0.38125837002389623,-0.003065921391111081,0.6420898026755189,-0.5259299235405206,-1.0119396971673507,-0.2591384948637769,-1.0113891650814,-1.740049007739561,0.5964074037117197,-0.3473859175935405,-0.4536913469437982,-0.7124201902693987,-1.239435065753441,1.7012059954550507,-0.031576662731283296,0.7673739934310718,-0.16622194426893458,-1.7252793357193215,-0.7622879651598554,0.7087872659908352,0.46622919839176774,-0.22490440350181976,-0.4334517986093484,0.7089716627435774,0.3096065118043446,-0.41748978417088506,0.7640184648832044,-1.9171599639609989,0.8064924629953818,0.43104980586622454,1.1297003587499062,-0.2518268219454682,-0.5784237346279336,0.14196713489005197,-0.7774425359465423,-1.974415071877923,-1.0616633039972723,0.3584601208424989,0.9788922090336036,1.3620301786428253,0.017137562009614308,1.5546543599680438,-0.7824958817276914,-2.0322397497974527,-0.4739856110301088,-1.5443355944880033,-0.5917546194276946,0.8288208631541097,-1.4642453052032738,-0.24040215812799004,-0.7850801272117565,1.3244489781391233,0.5880605545640188,-0.32376457216807936,0.742743026582371,-1.7508601316231391,1.2335989684068338,-1.2139778376190593,0.054550364755982184,-0.03838663423068225,-0.3376073537760871,-1.4052755355434927,0.4420525317057143,0.1453125283367391,0.4565296638495706,-2.1121333192120972,-1.7740456175825396,-1.3582446660987828,0.5763360466790926,0.622811295278838,-0.20370117373656596,0.8920069208887428,0.5152594864289632,0.660582523718239,0.7560334906736295,1.4120242225389572,-0.27592243232477937,0.674829637220203,-1.015107323339354,0.9012302090681907,-1.5245924808984057,-0.9124035775327891,-1.0293565835505523,-0.03768309090077523,0.6498308192097115,0.1437913116868855,0.23709366621275282,-0.1253110523570904,0.14184332739507172,-0.7505981535281515,-0.24850427641731246,-0.36780859899252866,0.19292707888074032,-0.40527243658737144,0.1336523641692897,-1.7775391827484308,-1.24048076885386,1.031574482394189,1.125702288698527,0.1158202651698538,0.3249782075771657,-0.25798912742125146,1.1375857532149678,1.7419651577750999,0.14039039148982052,-1.062655807127203,-0.15976194392687706,-0.46590618263511857,-2.3632395986533306,0.22938282179973907,0.6147583225188924,1.329227834663788,0.5136612648155408,1.4241512132628862,-0.8715418875927607,-0.6187040283128161,-0.4535179724136087,-1.581082640030859,-0.6291925726667871,-1.380955168496275,0.19460269198134708,-1.3467213476101996,0.12832896941413785,-0.4494972160304734,-0.09641829371973402,-0.0003879700152436309,0.6069317981824945,-0.11180884952671767,-0.5920668198121928,-0.34381303993500667,0.1733322836963426,-1.9276383070974863,0.6394950508684843,-0.90965436186943,-2.0488930802981207,0.05552480837291992,0.003807432838463635,-0.40995631427274687,-1.1192496132532248,0.055080363014258435,1.99090434255319,1.663954659705913,0.1917765717286717,-0.25919575646789744,-0.5072251575120243,-0.8302959657421405,1.0970442683354273,-1.1284809961431987,-0.9638684012291483,0.011622800459908642,-1.5960140558537301,-0.9629786476880914,-0.25937615884988197,0.8770906959087689,1.9855281501975925,1.2287089221211458,0.5636693738888207,1.5816390099591107,1.6783493661232833,-1.4100784230305752,0.20015260068583934,-0.9949487512760063,-1.0065967610401716,-1.490402266369885,-0.31271803689773064,-0.2526522220797263,-0.6766220304478829,-1.1364881041846273,-0.24258201847706595,-0.8550648179645788,0.9510924692758959,1.0005437664307262,-0.9115803619262234,-0.6279507665209442,-1.001319204960092,-0.8996045853739031,-0.9845793436180797,0.8051338485883704,-0.5891548238325404,-0.717744937791464,-0.48711152522966733,1.0423264615471945,0.9847313306768053,1.1236047955624346,0.28877111907228464,-1.9169523207895622,-0.03095450038404425,0.48942837687426993,-1.1180617061475928,1.075892392027104,-2.2641048471478515,0.2729100648148,0.3329611370041461,0.23687681222406312,1.8238882955741353,-0.1324483127871402,1.6420993760135318,0.47089970509681606,0.1824726563447671,-0.8145403529008756,-0.17911693639840015,-0.4255852047973493,-1.03359243165688,0.17760894376978134,0.5448464443439182,2.8797140278304445,0.22610508805292065,0.3564814368181087,1.1070603136753618,-1.7088544531508616,0.7757750022998893,-0.023396055071161024,-0.586421779192849,0.3242256060572406,1.5260276627379774,-0.3644440390699621,-0.33722622325038165,0.3846784262927105,-0.07210044213447062,-0.6610527648213472,-0.8459684281034061,-0.9284971191038991,0.5574666277171454,-0.7230909712766661,-0.32341772944540753,-1.1690945370173793,-0.05278423658696365,-0.5654049441869327,2.0683714184946336,-0.26854702969479843,0.2444266422607838,-1.5343211595802186,-0.30219556172820383,-0.47884964998885504,-0.5535402727508182,0.24457865796065842,-1.0287390717709872,0.19840143595435877,-0.6227954461491689,-0.7468675846788467,-0.1428019653425209,-0.5458970427247538,-0.07841139834818903,0.4988731423541581,-0.6245344113910098,-1.2692064096709843,0.10331723150248472,0.3218235926118969,0.7921682995958266,1.7648779256515899,-1.0424279482674865,1.1108652527981262,1.1449624879429223,-1.314211224056451,-0.6672936310278521,0.2972054589539963,0.31619510321727456,1.4598530850226104,1.1108092325126728,-0.06479191926628312,0.30782329662549895,-1.1945950213863066,0.12252027125499251,0.5819130643135698,-1.765587189807037,-1.066307496760853,0.32840741375494464,0.49498917530287323,0.7313507740293382,-0.6716620393935099,0.09058437133159485,-1.1894860082635337,-0.009781394158833832,1.1459312873754934,-0.08010782237834434,-0.3797805961105036,-0.21574376401171733,0.3878479332336033,0.7569711100179138,-0.6175885526193303,0.03654380346265479,-0.6609340554128381,0.03714757065010978,0.9781389960555376,-1.1833332807177734,-0.03777929362866587,0.22453730924064852,0.5861980570521348,1.6300370614127324,1.8087124715176446,0.44546036926049526,0.6793709851984556,2.4015809394995817,1.8567674807877823,-0.30039476549756683,-1.4599397063136048,0.2399067458958444,1.3484658946864114,0.7657940258776763,-0.13223467350522664,-0.3724934471777209,0.10448654552163365,1.4714437274456997,-0.791747999056622,-0.6839179732916386,-0.5525105556738922,0.5116395171229612,0.2746927921018264,2.226684839026524,1.1253455224973972,1.3208066819926336,1.320193257276229,-0.09496837876253414,0.4498863121820695,0.7247446179453267,1.7844719378312588,-0.6930253744741162,0.6646527915511873,-0.32632311811601716,-0.7596681003313606,0.2011675678426665,-0.34347020306449355,0.5275201528868869,1.717450798063909,1.878899184324424,1.0141659769316012,0.31008842993603425,-1.138646383564297,-0.29023044365780115,1.5186193940237303,0.8634991829399469,0.4958569230618729,-1.466931731883325,0.7010233353545012,0.19732791967656002,2.78212639929177,1.0198420019600396,0.0856313389051638,0.48601209512908067,0.7762591109698038,0.37200228057611895,-1.1290471561692956,1.2027692421142746,-1.7082788415630543,1.8228791703063298,0.12614193168356033,-1.188796915652877,1.2387490979111477,0.0015364238201136641,-1.7851496999915268,1.433597453485847,-0.34014177886683467,-1.186435632381226,1.8586148252934813,-0.45455950859403726,0.5153537615308428,0.37459421449223407,-0.3271819043409924,-0.16809149037872667,2.3632372044634935,0.0608114729058277,1.1450997105064988,-0.3235141108446264,1.0366249985322706,0.05424885202203714,-1.8807464613742275,-0.14701811603871823,-0.14135813948711418,0.275504660059375,-0.19875515735171387,-0.8089484384514846,-0.8926779279080084,-0.17103588058210561,1.9986501181797207,-0.7215460150183649,0.22328300372954943,0.3071351734035827,-0.48327426533259715,-0.3510183753002693,1.3563002051077013,1.2517949206736707,-0.6832147622358087,-1.9119324393241224,-1.2987336831602796,0.36115743518467514,0.5436250777766648,-1.039071937916169,0.05587412368810546,1.02208523517868,-1.300307045614064,0.1968631894063669,-0.7086227116586539,0.7876370288602623,-0.7454589109720958,1.1540364684389854,-1.3465272706581821,-1.6196175713767256,-0.21868844822174716,-0.4123864622035453,-0.7168558643965427,0.009772667549142097,0.3241154015514264,0.8780070781078915,0.5793704481668044,1.4184675273134497,-0.7280153580435597,0.6225432316160668,0.08507406784380185,-2.0449881438970596,-0.17026536172092116,-0.2611710420077283,-0.4326467048503771,0.14208257588526255,0.23350590948790934,-0.8133499114812783,-1.0071859148395483,-1.3175573486193557,-1.7398852948381178,-0.3196527319744247,0.9809591855063525,0.1156903906320118,-0.5203610863342706,0.6494495293069115,0.9072173717399272,-0.0663067837494746,-0.3343849961500035,0.7522002641646383,-0.3806684642134545,-0.5999992014912667,0.7241069186722897,-1.1630425036357042,1.1683882149950924,-0.591032274863506,-0.06266778668815676,0.7281169901766764,0.44099484867364264,0.9434326548364268,-0.4446621325456765,0.721974787125645,-0.7660929172921936,-0.9949525199760572,-0.5679591066024765,-0.449061512786351,-0.07209658862015299,-0.4508157904323525,0.17866465396776293,0.15191897349741004,2.057323405678815,1.084930986157517,-0.26861779402802255,-0.42094672877168904,1.3723829470421196,0.5525278907058891,0.397183868755434,-1.482320476123365,-0.3960692048231794,-0.1356012044658825,-0.3685804197789128,-1.2030932540507886,1.2477418660514226,-2.632507462552946,-0.0154645698553945,-0.7998801970164654,0.1878934469427305,-0.16983901264421583,-1.9811692261548084,2.0861672367693678,0.7717879811389995,1.1846932443760054,-0.5211031147079773,1.3186233930183087,0.24968369849267597,-0.8053640762630555,0.6514946813823841,1.2256580744103365,0.7120630118237667,0.09897919208954123,0.7552373988902212,0.2781716067392359,-0.24130602537806642,-2.3654060253086238,-0.0573660258861588,-0.19275349117864587,-0.11200306075392875,1.3054724496996826,1.8094844697800316,-0.5937987737075593,0.4295596541198482,0.6363528128344519,-0.30055840999995953,0.27143128340601413,-1.6300006778243865,0.1523936595619016,-0.18492337643661316,-0.5406167381418562,1.8284665605200046,-2.1382361141068196,-1.9068111590448382,1.718600830776262,0.8209533731497626,-0.022279798428349897,-0.8730131835535454,-0.10844083378118893,-1.7098501039269922,-0.45703226804732366,0.11658202409837429,0.6588863310033563,0.015529579197288685,1.0695753822632466,0.3599330540943834,0.42526491897412727,0.6553245478571269,-0.016129458309267233,-0.4611825903525787,-0.008564535048951178,0.7155891782735292,0.40046556634006125,-0.47599766002792443,-0.15453527396516736,-0.2931747341856257,0.31789068169898016,1.6532721688709648,0.359990597878744,1.4516809361425163,2.464298581615359,1.327781632448672,0.8731389986250454,0.6130638487882436,1.1100058513168503,-0.41495715585664994,-0.6602089568359358,-0.3708721936114079,1.2425181046050293,-1.271230321814245,-0.22778974350849343,-2.5266044984837306,0.978656110131998,0.05900965804955864,1.595643097340082,0.1824412800684663,-0.15830645925668085,-1.2167139039976607,0.3513150308154926,-1.954986015814599,-0.733140339154108,0.2215163340102966,-1.599430082821179,2.186911304060268,-0.042877687407901384,-0.6497036303582849,-1.5504244252413288,-1.0285868765142867,0.7211673619737995,-0.5780721975638909,1.5352216029854033,-1.15462373734758,0.9506925949436816,-0.10201470766483466,-0.7118593416602844,-0.5528006764650688,0.6462841716901574,0.16863810414692484,-1.7101018728425434,-0.7690295011304922,-0.48913372972528885,1.306304014234877,0.42816120392633183,-1.6795712336110296,0.17555013914087372,2.001387498560599,0.9457790619487372,-0.8463854301209662,-0.12019381490264615,-1.7865277317781998,-0.4584251600662837,-0.7843520554590072,0.612022933019318,0.15728940301951974,-0.39418666865370927,-1.308530451735758,-1.5309462339689903,-1.8983485608916304,-1.47440336705807,1.0192857177912726,-0.7348039437373398,-0.49967740226870705,1.265061120294753,-0.4644582712928427,-1.8426287756892779,-1.0406374445624234,0.11213602981527633,0.10078049411031212,1.1061589686166022,1.2702899447128821,-0.8462155808606405,0.7903437081006153,0.24143888812867642,-0.5001867394527911,-0.14177000613051424,-0.9195122769765611,1.000226895255296,-0.49773962561529633,-0.19015684870084926,-0.14080056228783439,0.2665573260824688,0.10971715779754683,1.3288455030134376,1.2203685169218021,-0.39780274273497757,0.03239231477586366,1.0853350263427184,-1.274404234660819,0.20015847131056502,0.078799804651644,-1.3556906045864403,0.7477477719067086,-0.09253025501998739,0.8587139147601859,0.49623858123965325,-1.094675534185484,-1.0360493188540085,1.1647473679234228,-0.8026270148694219,0.5908414442118556,0.7802464110184432,-1.0975591499818766,0.03282047867113359,-0.6214756682453054,-0.18890177473585326,-0.9446963932760442,-2.619721915782947,-0.09452872663284587,-0.042626373353793254,-0.3501652831270316,1.5902810140797403,-0.2645737977641611,0.9970439830536033,1.0946081023802463,-0.3237489798840551,-0.9045470186472944,0.0827580119618441,-0.9033072254074138,0.5546160611486141,0.12197448892921035,-0.07896252702218333,-0.6050412863720874,1.248103485815707,-1.5082030045161783,0.12949200452444729,0.18817430983810246,-0.47035926547403895,0.9398548593616762,0.1267619652532644,0.5190824584868124,-0.3081163849330175,-0.9491222704062096,0.11875305859136934,0.9109981737877838,-0.05278725721793716,-0.2736633539596234,-0.28800915052461346,-0.5564680916796745,1.0147035614402535,-0.08263550856481047,-0.9370036918259624,0.7755084177621758,1.0459876096348637,0.08898902786001432,-0.8813652934416157,-1.2967490960574921,-1.2586542923216963,-0.6542065183900144,-1.0089378860516127,0.44057832003603276,0.6957900231227717,1.1029043022273513,-1.247548316659055,0.9489058909114709,0.4168256278686855,-0.11810081819280152,-0.22569506868829203,3.521580006986913,-0.17651350326389656,0.5066761030300515,0.1395941462216639,-0.9332821289722236,-1.7612673116738264,0.38519766723855864,-0.44035392952440533,1.386372344070396,-0.40427282280205723,1.2342633565260726,0.29950760231421253,0.9731009741622408,-0.5926136599709451,0.015685684213257174,-0.7400871943928513,0.9836014555173491,0.22213486802419583,1.0953374841203456,0.8126227180779477,0.1871635878613558,0.27277998737060155,0.28357509701745665,-0.027475638586566473,2.938617145017927,-2.349689261954136,1.6111139487133133,-1.956173630106875,-0.5099256678716411,0.9694632667079408,1.0336924302068362,0.9365941141298342,1.611805057540774,-0.39037785237060235,-2.0120922809842843,-0.4946140319282116,0.7755048618988547,-0.37467066196676957,-0.6191927495801972,-0.1276069436050076,-2.2879203009388696,-1.1346567085588066,-1.4770523085193048,1.3079635206207805,0.18930245437704452,-0.6229946188253129,-0.11966099477761173,-1.3531768304345047,2.5279365531120437,-1.73894754198837,-0.42204596837050257,1.1914577663256005,1.0808207334580051,1.0891092942168863,1.8379940861224284,0.7515975691973773,-0.7737623913691328,0.843463384722823,0.8159128964733631,-1.4794923775891913,-1.6510820466824156,0.34545953388239464,-0.03296129382757852,-0.18864738554599086,0.08174129766574617,0.7097140418159926,0.11230584186020592,-0.36951222778871856,0.31848656109590695,0.8237418330944837,0.7185177397654127,0.4125350294192044,-0.41841175007459375,0.2845483703417323,1.3845325783163986,0.7809159982108315,0.5100440980323029,-1.4074493158814638,0.6853759515454994,1.2036567390379607,-0.5674983124618773,0.14588290493251108,-0.269077468803554,0.5214072731704297,-0.35197040777991634,0.6138469286289774,-0.19445139247599377,1.404085203681059,1.0469198814862766,0.2843062332175073,-1.9860404691728344,0.6382293526095528,-0.04982208551927419,0.45965666613182454,-1.185326517939118,1.1045532133654574,0.8119644665290947,0.6150001907141699,-0.45616441541627184,-0.27659338770082537,-2.1633441459386535,0.20950010479553416,-0.45229598727813586,-0.2964039977931058,-0.9833070185614973,-0.5299951057022049,-0.11905148307019728,1.9609673617301702,1.5635920140433806,1.7654158754579772,-0.046950356153160906,-0.1385238581508609,-0.09724237864156102,-0.2197495255664518,0.9098269583942258,-0.4267312462159128,-0.2061250198850417,-0.9661805801995912,-2.3628699105846453,0.016001711794120126,0.996044748004263,0.0907717769324728,-0.2996013257709618,-0.8371307358384144,-2.0268685761633267,0.2309446530369704,-0.03351595293210373,-1.1220738340792569,0.5700955447394417,0.4688955444061451,-1.510137807525294,0.24767897968110314,1.2703576851543468,-1.9115090673057011,0.26474363515951105,-0.6226777076836159,-0.7795198353507161,0.648288304604566,-0.4487227942205373,1.134838056765944,-2.269782270822424,0.22545256236498573,-1.2209490923984854,1.1351198159659623,0.4585159492392596,1.285667626095302,1.5419905326631456,-0.5027288711607123,1.286254473214994,-0.5186003433323858,0.9466461783796432,0.6662638421212862,-0.5656723169294932,0.28720333386569763,-0.5073909398852239,1.2532577013240416,0.6083195515983124,-0.3392266416218586,1.019614413817221,-2.480503432094522,-0.40684399233423846,-0.8081566257780131,0.26819338789847724,-1.0346556678646155,1.5659093467174912,0.054481983013116714,-0.7247187128065445,1.9266683769671107,-0.21680656354458244,0.9571634173725144,0.7983122231551749,0.9966771344598105,-0.602237182918696,1.174351291435488,-0.4840551812928107,-0.39782894899502497,1.3936653127448317,2.2470610801919615,-0.380704664651249,1.2710047103998725,-1.0711427226571868,-0.8540680533081921,-0.05374309053111668,-2.684502357180425,-1.215134028129485,-0.6031938344390151,0.021838292437323995,-1.4201017294302076,0.5154373877951895,-0.546215618120665,-0.9637966526562161,-1.0762158798993355,0.7986891366914738,0.03631746967918466,0.05467854132011007,-0.046835284379001654,0.7945993614590305,0.4390738377674992,1.2383025591375745,-0.4972227177193313,0.5802232959898406,-0.635493715787329,0.28164611881377744,0.7925685573183654,-0.30226756196763954,0.6172698307067531,-0.8994681559149239,1.3286169153364757,-2.395208156736272,0.0577807781871202,-0.6764823719468949,2.008863805114459,-1.4040816761271633,0.8592528602985063,-0.7127518376318014,0.9150747098189479,0.2958951932513653,-0.38685298959273096,-0.42965493279532946,0.02659462239393902,-0.31085606357183787,-0.6893198371028999,0.6578493218857924,-0.6781020602628867,-1.3488006035012545,0.3963147147450519,0.40457054461354497,0.3390509659140723,0.10541083122505271,-0.9790062229494897,1.5418812193366636,-0.4297124907682947,1.4957421725404496,-0.7655798859599428,-0.29949823267005926,-0.4006613369233275,0.16311620101600327,1.757999361999119,0.26025572790784407,0.2954550258912901,0.8034442098009559,2.857233577983487,0.5138029483785587,-0.2569179618490413,-0.22135861256718922,-0.105622755380953,2.1520130515569305,0.1138320433132236,0.18903330703444948,2.7812342066697013,0.7606098500248873,-2.1079555970998793,0.37905490397548175,-0.09598487326607921,-0.07393272230866403,-1.8680328288236092,-0.28575002530553095,0.11349545613966044,0.5148385516541526,1.2685976048421215,0.6996628338412979,0.3680188605633573,1.142362409633326,0.6259386794077302,1.277817376862668,-0.035553148728812385,-0.5875493032189636,-0.5224445360098462,0.3180249727304863,-0.5004477634275006,-0.7537744405711002,1.1695076203834665,0.4058835317640603,2.457652756248422,-0.6183616563441292,0.2944293233680421,0.8090897574613434,0.5207701576830898,-0.30566113433621844,1.2291478550018073,0.4742019863745189,-1.4658229290031857,1.3899297492620717,0.4191478261524655,-0.7845153459837318,0.3519778117453066,-0.07490637852959535,-0.9103188539634398,0.6949320757232084,-0.8957210473255324,0.7622301461385875,-1.6518714640070125,1.8524642935144018,-0.02498971407154427,0.12795367458911847,1.2213318432032847,1.043609912162511,-0.053541562219833354,-0.3932373901948175,1.3536729911752265,2.090627856000998,-2.287773905537498,0.5881859244754378,0.2929851373194678,-0.6302133819414515,-0.8949197293448664,-2.1175540031886664,0.5881905101031588,-1.036136114315532,0.42717573914366275,-0.40004599547004455,1.4856032315898462,-0.5804001987487621,0.37905460349109255,0.18941790268971162,-0.8639901965421696,1.1278658111725677,0.41383820642876257,-0.7739557580612121,1.287716423978254,-1.6016632769896335,0.9068427104765446,0.391748040630068,-0.15703400764858366,-0.3691566048187579,-0.020602295247979702,-1.1363170012209283,-1.3918339020184294,0.9947537123970166,-0.3527469687663084,0.6933659264520886,-1.094355387618684,-1.286124146984255,1.029631259999484,-0.8497518969886027,1.8576776452809893,-0.48063065180487063,-0.035157320928020985,0.5369331847956945,-0.38465842155471547,0.014434886966707123,-0.4738716557225952,-2.1128812057698827,0.08754316626531206,1.0287170048854943,0.12942142418356134,-0.06921009526084405,-0.19449129194272277,-2.0536002743883826,-0.9280035347478406,0.6102488530400748,-0.8617075070861652,1.2663933692872031,0.7820798192934881,-1.7554114373609702,0.833266611609823,-0.585976360238995,0.6495037961142447,1.2476457003192631,-1.3342251096081157,0.4654649413670141,-0.5539382530080789,-0.808419157395435,0.4099462015307436,1.5752352728402377,-0.08055334944183466,1.1531938771358683,-0.7916929304894562,0.09890676707812374,-0.9685818587184828,-1.579050979185425,-1.0777093998269105,0.909041037691368,-0.45780306816332006,0.18886375170626593,-0.7338881029544345,0.49773456796717525,0.8492864752172244,-0.20553097507006007,-0.8275243864523774,-0.36577838338474844,0.07338300419123346,0.08120573320989034,0.9118465997213474,-0.16857702681564377,-0.706861592953065,0.5583326440983624,-0.020289711928450468,0.11629150411910014,-0.623637376050772,-0.6569825639165717,-0.7342567488668941,-1.1231477994902859,1.0188792882585211,0.4883952435481738,0.3035563384759194,0.5257683371337022,-0.16746622198485572,-1.7094461619038401,0.5147130512083153,-1.262910010714558,0.1817882026767721,0.6520817168132292,-1.2724246775161583,1.0580668061774938,0.5929007603737396,0.7131469514420337,0.749545797360396,-1.5824740871492027,-0.5643003828954553,0.05149718653117187,0.7033938853751497,1.9860093882349898,2.1331879469660553,-0.10798560773210794,-0.5058517160676516,0.7208170821061076,-0.15613270274964733,0.8264944817243706,0.5138069803927433,0.7019947826968728,-0.12652630150881786,1.1613961637373102,-0.0679705230021399,-0.6407245554266882,-2.278900454088098,-1.3108729629817808,1.3611822007826722,0.6906320653747088,0.7785685755043154,-2.237408940448848,-0.6435289988429238,0.007916727562060038,0.4477643885642535,0.9887551063769164,-0.5295040314461668,-0.8527136476328805,0.36447607069120247,0.41125956166206834,0.09866090076245168,-0.9374528981867213,0.24301297608757547,0.6887557681152563,-0.6031735684137786,-0.2945012526141772,1.4579801767930793,-1.0021520654721139,0.5441892791757736,-0.9363559033307778,0.621662447048543,0.7685836958029696,-0.7805568060303215,-0.5250956644499053,-1.594161473657166,0.7722045671627916,-0.3753155702765084,0.43566925137130114,0.45072792616051877,-1.152974694635738,-0.8054056077653747,0.5282180519719419,0.47738613303414423,1.4024578208287832,0.6791933734224831,-0.21291897411800906,-1.7796556402586399,-0.9472571032232643,0.4463691334674471,-0.036306677603310356,1.2715401865829632,0.9840525958124496,-2.053866728173823,0.30310441037026725,0.8569590097039914,-0.4687364224882456,0.4495261345055456,0.3354249481672688,-1.189039925222713,1.393722097888912,0.5695434680446968,-0.364811266879359,0.7742266600586946,0.8949410355146539,-1.644825026844507,0.5225901681158557,-0.4042708242704313,0.27434114396999315,0.16889745086108238,-0.2735026038278565,-1.4617861755157977,0.39379178059345743,1.1690005490455018,0.8157252706162471,-0.7022368452201704,-1.3857992253965754,-1.9064871886340522,1.8271972351734813,-0.6306222651196082,-0.15779634937377437,-1.560292973245763,0.0676700973847691,0.7121464434885687,-0.21206332398056632,-0.06714182088385093,0.6709021498519556,-1.0044693384643681,0.6065692325868233,1.65472678779346,-0.5099898372962169,-0.708815975297974,0.37327685749541,0.6549101330023815,-0.43647464212003295,-1.151139689151716,-0.4744166720037597,-0.8098825392352824,-1.7482298993004293,0.49625284522421825,-1.1427094652288499,0.5564588773475415,1.3692543250468039,0.8584670037713674,1.2643344382131332,1.082423800050221,0.5008802276131069,-0.37017734319895906,-1.0900935493436745,0.6648126303653937,-0.874088461946494,-0.7742745890539093,-1.0350226903337938,-1.0149012721585369,0.43119342493065377,1.4619814120609556,-0.7699604434309234,-0.4098215166919436,-0.5573571080820954,-0.4328788044811413,-1.2632521619740646,0.04443290514700218,1.683655821414856,-0.6116914417051267,-1.5210533038388345,-2.0453316910134154,-1.5170908561727827,-0.9859442976784117,-1.6632877307618974,-0.8146954761968298,-0.24598018820874512,0.15705097539132853,-0.6205315420832422,-0.336061680838165,0.274883621793252,0.025679215006668286,1.0796840115991615,-0.4158470831167569,-0.5100774845930626,0.9807889466077454,1.3490279385094115,-0.8256883925674801,-0.8273439286150868,-1.004952280102935,0.1647476857276528,-0.597865026143022,-0.4809513524068715,0.9177151456404284,-1.0280754537686099,2.9682331577971452,-0.8558710609499948,-0.36353596857562936,1.769179510930155,-0.09132251013457039,0.8363996093447934,-1.7140010573321478,1.8169394045843013,-0.8896918359943301,0.07860098150347423,0.33060752131397536,0.41792492853598356,1.015440255431222,-0.17961352707853495,-0.11877633784867436,-0.18335544406861654,0.5474087591033677,0.24772489408115125,0.11929836076250952,-0.23048419146447055,1.2766513854213877,1.0866286353620511,0.7758321024071724,-0.10740264620471747,0.8892128204314538,0.5081196138014192,1.3685220457229685,0.8183651173298585,0.4679950805986667,-1.399210294775751,0.3579262910894072,0.9081176532541329,1.144697261433143,1.8984672651113126,0.2645858909139539,-0.2506034450082823,0.06615976735148266,2.9016821972125544,-0.1706513660484828,0.26242905870759237,1.1647748315305335,-0.31393441248393716,1.5750395455348474,2.0692765834509115,0.025457757035481025,3.0809512783959496,0.7745854438587171,0.24824233490371933,0.047621493611959366,-1.8452614168167139,-0.6764572045840914,-1.8003226564908177,-0.47018682528841527,0.03089153390874311,-1.0310756706352364,0.6460289158618102,-0.5725256628527541,-0.39211656707018544,1.5220259717586548,-1.4381382073037048,-1.6315098993080577,1.496619970539633,-1.5993471275644116,-0.2905069371667296,0.7930632391516786,0.17337839199999536,0.11549449746994424,-1.4834307420778556,-0.5754798581992079,-0.0838427746126755,1.2050165054217579,-0.6297020860705962,-0.8690365963103609,0.4215063112476165,-0.6398363929884138,1.8510703585913426,1.0047392080972855,-1.1537563600197087,1.0382437860898606,1.005460212485887,0.8312067405914072,-0.6970188975038409,2.1088221357163723,0.8260947926475188,-0.007743989664373219,0.46780055573445806,1.163525939981268,-0.7411784505988082,1.1094412740872324,0.9326538126835047,-1.3341818265758594,0.7158929135268547,0.15847143398618405,-1.067336490156714,-1.0917840246589687,0.4933907825554322,0.9415591675202485,0.5334835456779665,0.11435988596980666,0.14242167408271564,0.34235900393315855,-0.4775770722103832,1.6478574668313257,-0.14580079500764345,3.5170368414014233,1.5189071181230207,-0.5193538332355929,-0.203608529797028,-0.7300611186215074,-0.5292040184342317,1.3037304830496275,0.40954060084360216,-0.3955770238511478,-0.5469360420112059,-0.14475289632001198,-1.4189107525481468,0.3670236058034786,-1.4043041449899365,1.2181960809635062,-0.44465467831694755,-0.22941083512222962,1.0756926731695404,0.36933483709871806,0.6321665123136083,-0.026392130069165635,0.5521021861384205,-1.2825678449222828,-1.293501123648707,1.1130565636681686,-1.5027467877126084,-0.5919662881506311,0.4448907546884104,-0.018755561498030756,3.473116395809901,-0.6641712244355764,-0.30318528180210685,1.470148332972727,-1.6388546861022841,-0.7382514179865445,-1.316478978474975,0.45490634327563123,0.1565344867926911,-1.285786684996136,0.10324851587911911,-0.10753660726967404,-1.0208011334545182,0.13028123735219702,0.6462296192843228,1.4718584411721114,1.182332094621783,0.9039460503567767,0.5558926566286452,-1.2604984310166203,0.33127528883778345,0.5211130372342604,0.02976493086890385,0.8475467464884346,0.8117140892078976,-1.064395438081552,-0.32963018739525307,-0.1392048486469079,-1.0626480930768234,0.3909711783395929,-1.0857079771563878,0.32327779851135474,-1.4540746562451055,-0.9714171677560597,-0.02797183789684187,1.9391478438386005,0.8056093444709688,0.7949157577154141,-1.0585957428781072,-0.9433893944007533,-0.9800825456486363,0.29798162557245067,-0.5179376816526065,1.2152191171583853,-1.4576321356563418,-0.9307199034827591,0.3482382644865572,0.7146433180890617,0.4339909172727463,-1.3860751041104038,0.30348858374637094,-0.7727965911925304,0.33942574492292527,0.8081833791077634,0.7488819092953576,-0.9145904284044526,-0.015792638105469624,-0.9320918386173533,0.1420445142997273,-1.8747158911672104,0.5083289705395925,0.3433323340687381,2.080150790849581,-0.40177906424619453,-0.425757074563397,-0.4225970513563523,-2.420019890261035,0.23358240765516364,-0.2493405242671337,0.37056792292293017,0.4813614765456636,-0.4072594201689817,0.9772007858105585,0.5577098590822586,0.4517352982545323,-0.6975029721575196,-0.7330625356607249,-0.5478760138435025,2.1768610672303805,-0.6725967475723931,0.015284973657862971,1.0395223530712723,-0.9338424684082758,-0.11199390516685602,2.0116229407084796,0.1401105326035465,-1.4254491839041945,-1.100976889110342,1.169121227164753,-1.1614634944284032,0.8710431040802576,-1.8491219301343276,0.5481371090529853,1.3237385326237743,0.229575689994842,0.14102967760634583,0.48837400440722983,0.6572105541808972,-0.8048632004768904,0.1385777791035492,0.7148815748386101,-2.1887163062009294,-0.47264312866514663,-0.2434475914050908,-1.23264896865157,-0.7038843967191233,1.8622335746221363,0.7519489263822969,1.1361630462288284,-0.5091973242969453,-0.431984272658505,-0.3782279427435454,0.41161573182892114,-2.5603475132563767,-1.4542046209759127,-0.959028389527625,0.49365872686302004,0.09721728255586062,1.9557187706502053,0.4233563987657467,1.6417157046715394,-0.545493531678194,-1.936157172377878,1.9842610462919172,2.215818448285158,-0.16956415018943052,0.30774292669286013,0.6607138682553502,0.290572709049511,0.726595049752672,-1.7532746409433317,-0.2821655170594071,-0.33505025207124906,-1.0447303988518624,-0.41211787525828025,-0.21281079328446909,2.1070496102190064,-1.5563960116020787,-2.9758592794025085,0.5401338283260176,0.9620017132522435,-0.049314916635785556,-1.0808673248567697,0.5018919925462739,0.008945531868419716,0.7568040450216521,0.18176214649826877,0.4693278385126727,-0.3522057291303051,0.8584999728263594,-0.8878729926860325,-1.8189509896671545,-3.152935494040151,2.5607046424432167,-0.6799115543619803,0.6501482123925507,1.4934410582576787,0.5992179903424848,1.7591078957406967,-0.17995860104933137,-0.6100027521898345,0.24023154738143299,0.41509740283241975,0.06820436355751587,0.500794557287617,2.313952064814494,-2.4036269489664477,1.0155796575935065,-1.577530609005152,-0.8242820943697684,0.44315276532606673,-0.6778656595741145,-1.9857853224645665,1.3828887168896664,0.5667077217703455,0.23044989715954786,1.417507413877302,-0.5221359074112447,-0.5669749439808833,0.4254908876820925,0.19655647850794744,0.11617672282016542,0.4344917585262818,-0.08420937154224994,0.7258526818761752,-0.17081534454817332,0.7815703139268663,0.6161684253874957,-0.9638754586931975,-0.5458397077071225,1.352940847411303,-0.30019393905084973,0.27259802945818346,-0.35450211579365976,-0.34613165028248727,-0.15347413318355285,-0.9792139397748566,0.5537892912650523,-1.742367257905743,2.6200321953850763,-0.03126149623222763,0.34534832039224217,-1.4887165295567677,0.2456788615384939,-2.429007925407535,-0.5592156944095502,0.37825104094875234,0.0014278824549291197,-0.2586984616973561,1.1880988313969563,1.3574269698509949,-0.33763208565176367,-0.47055356772484336,0.13871071556167938,-0.24816539680767546,-0.45198123057172207,0.9308381542006394,0.2326823687566339,0.3715321639629356,-0.9500877206930943,-0.6816731309551978,-0.1680347527660491,0.547774605740038,-0.19587540037060505,1.0386975715383182,-0.11040965093101195,1.4718111946159842,0.40031506534588374,-0.5223613661505061,-0.2895367097860976,-0.1045812354455764,-0.20770522029617863,-1.4250427653800792,0.0663856447545716,0.34423649674717266,0.8526609319672828,0.8168056492804635,-0.07853141817075399,-0.5394662885268247,-0.020975187138669894,-0.07547461009784392,0.3895510221048327,-1.833826751217193,0.5485920542781932,-1.477406575773389,0.9366154208776105,-0.14148639695788204,1.1327949243898396,-0.08090317142217861,0.6356801232071063,-1.26670866982258,-0.5601840187557604,1.1399183640739898,-0.14447733584769304,-1.6820171145538116,0.3378567524962567,-0.27712925774270863,-0.11245518695650333,0.21417336804349135,-0.43015371674093666,1.9604615529643736,-0.886430151872249,-0.3373574440786784,0.1886220339620991,0.5610973777166329,-1.5538436628641188,-0.9932526564197103,-1.6216867363223846,0.8126786034063758,0.46006731106440246,0.7990884332544058,-0.2704368462538407,-0.19418864789980192,-0.7234271483985689,0.647984164724255,-0.17117167662170335,0.25518130574378045,0.5780000826570837,-1.635972893735968,-0.16040923352856323,-0.10000362436620044,0.21051068514233762,0.8204174057356279,-0.8001992535250189,0.07750872845374926,-0.8081608583000683,0.4761434381799514,-0.29315170410297686,1.0900062125785746,1.3142550109784623,0.8453297425149001,-0.5759746499777119,0.854899427609632,-0.23791223069263992,0.747669703483721,0.9620259397715943,1.8973745365133814,0.8372082101410713,-0.2417421236411958,-0.8647770279918436,-0.3721790111797774,-1.3540711125760643,0.4941425006409335,-0.28353753515460156,-0.1309324779851924,-1.5878958409491688,0.9215115294383447,0.9759558481630156,0.28774593297590595,0.6363960033674648,-0.887292042118147,0.8706914065055396,0.6184953010710255,0.29882877935127455,0.8665827856747047,0.5968904125761466,1.2457457812269357,0.8031422169581568,-0.5142674534125323,0.6910563054825791,0.9723503712587527,1.3615732968232097,0.6533766879187972,-1.0838621611082748,-0.9961237055431245,1.7287928465138709,0.43893423952021,1.2937959065332871,1.311132977156712,-1.3091956800437627,0.9996748116583546,0.8941725727585169,-1.9213317051415724,0.005311293231470303,-0.5160028061590494,-0.24474246611477454,1.1033396761449341,-1.3011123851537656,-0.03304428584140587,0.6364943531853429,-0.4419686857467914,-0.632596392079576,1.2520297930918718,0.5642447284785909,0.7480745940657826,-0.7116981354444755,-0.9300786416172416,0.5230243860998581,-0.9499472800569048,0.6524260979407772,-0.3168276050862554,0.804553303591607,-0.5314105697985249,-0.32172454259615335,-0.47719616221935535,0.3007867855425723,2.718529716784138,-0.20138074857900445,-0.2448799100285627,0.17419484031401442,0.7746371633925175,0.16712141353177928,-0.8183378686835383,-1.4091506863713477,0.7987141597945858,-0.15411243511947742,-1.3038271567321589,-0.2622209871548306,-0.5428811351945092,-0.08457294630376325,-0.6496156082298494,0.4624114965969782,-0.5157581110555524,0.9987029564721773,0.7804545829833482,-1.1383977381301758,0.2741697260035613,0.2110492011820721,-0.6524008546449083,0.9365084945885663,0.5038400528421917,0.19818106604536498,0.6087468938279076,-0.294843512585606,1.9070321908676378,0.7271101768241466,-0.5889517012254252,-1.141097204181563,1.838369172847566,0.20336100589787093,-0.0025002452973343415,0.21023541698656223,-0.9848806467815977,0.10738445171782418,0.12785347292097612,-0.445251072818485,0.7968289308567333,-0.9605344385605268,0.3120891372430618,1.7868322703806618,-1.4692269019669644,0.5135589467392138,-0.9546399318622587,1.4724977272330875,0.6528297727646413,-0.7944071094298593,-0.1634408022001817,-1.620446265304128,-0.07213364327667701,2.296692547373433,0.2447851131191192,-0.543680409920527,-0.5968299298412081,0.19689291034821574,0.07598598970623745,0.06235533197184029,0.8488528294398952,-0.32243919285591366,0.6193989067396803,0.05291005462677272,-0.18553043676652112,1.7401669462241176,-0.21088688726210944,0.9569190113452365,-0.8576332099502625,0.10929163944609824,0.628557110396153,1.0248852785553124,1.34451526238922,0.8915695390867397,0.2926464533147108,-0.5525807126280508,1.0492037034194774,1.7346386423351228,0.014372036869226924,-0.27174826639901634,-0.4353918373461008,0.47314435725608045,0.8519639922395468,-1.7957504792949188,0.08087165291348931,0.962225404847701,-0.10177322166241219,1.2385466204855404,0.17189505376584363,-0.13340974086667054,0.6521807451903839,0.5480809045686977,-1.067298697287323,1.5580579539782615,1.7374730035882924,-0.6710026755387746,-0.8151913930331587,0.3498977417069437,-0.3986006032963035,1.45128414921359,-1.8085111299344487,-0.13367283652847486,1.6067863874922839,-0.32724113118904785,1.7290475384356,1.5063984060368585,-1.9843920571123217,-0.6314392208840083,1.3612516832175041,1.3151434091297562,1.2665061158973854,0.2183872917886978,-0.36517926691560454,-0.9818479870154971,-0.3588926223733222,-1.5085050515040435,0.4038585934522007,1.333483397838727,-0.23784165236596716,0.3359194503592441,1.1314782573847117,0.8320368092730251,0.9781904835474156,-1.0069621957972819,-0.06924599919586273,0.39090893042087627,-1.9641547085302862,2.4243847386841257,-0.16027454182120257,0.19229164554159572,0.045946280688843946,0.9110966875253577,-0.2662166559552301,-2.3628620192409455,0.5970561847461934,0.42881630502527396,0.6753974360756324,1.1854563719636007,0.6597890401672327,0.6976570477232159,2.5715814540868123,-1.8543506888683825,-0.8098872373365238,0.6693017628147868,0.37870571694397864,-0.36522357083587914,0.7449611716096544,-0.24605829569622192,0.3898469907577938,1.5406900705071036,1.7253602195375037,1.7943489916121127,0.796225713169987,0.18509737170761906,0.17925966979381502,0.37290163173847585,0.23726209154444342,-0.9018021231635451,1.66102305703378,-1.3186581481015685,0.27974284646050884,-0.41069720911926993,0.44197248563925245,-0.9562763034128531,0.7882341963132955,-0.9513467139791013,-0.009556603395280765,-2.0431981928057126,0.48155580311756907,-1.2882328780791734,0.3309945923559914,-1.317916984902523,1.0986767083597695,0.8999554486721466,0.6672785507016494,1.1296496125350513,0.6081993392314371,2.214240938697428,0.23172071784101678,-0.12839308241867664,-0.34433677136148855,1.0805482834643003,2.5296135457472007,-0.2091634500043457,0.02247165489823043,0.08849116049511609,0.27008820768635816,1.9956407896471293,0.10154151576415611,-1.9773821925408976,-0.5450126244126415,-0.011339350796433882,0.28303995033349694,-0.5404056620878662,0.766868868021035,0.8769004200103214,-1.5328299917837875,1.1288492760371218,-1.1971386256581422,-0.028903959230969136,0.9315299282710605,-0.2829658375687682,-0.9762662453538133,0.5066167055278564,-2.988111649819725,-0.16509267773181616,0.3685988035435397,1.2780275190393364,-0.41330154206494274,3.03347249049247,0.05129606831800815,-0.5615123440441053,0.6416910538034428,0.3484539979286584,1.7270520413706747,0.06322130915332033,0.5640747888186141,0.32003848668732354,-1.0877330474654163,0.931813072135792,1.2292736254586378,-1.137022547807729,-0.11527852882672537,0.7142159739990299,-1.0287209706061549,2.2694016622480526,1.83771153913388,1.2240344736765825,1.408560838638526,-0.6440757822302372,-0.18112846585354755,-0.6448623652113185,-0.17701343061217195,-0.9756095106868561,-0.10953084085215743,0.00448196542863088,0.40974053461907417,-0.08962499861868037,0.46253507973498675,0.7221480111022411,2.184037190201861,-0.21932470827713801,-0.623790231716381,0.5981258687128919,1.194260547527707,-0.06664361635456716,-0.48869613596174055,0.833093589096905,-0.23280572758404997,-0.35221093618029103,0.690760099637669,2.253733456466875,0.03910310001885962,0.9233215473935809,1.679891899669312,0.33628561959811737,0.8520604708296986,0.42040966942226476,0.530496947040548,-1.1094483731977023,0.8262938060601376,-0.3689699880331765,-0.2725098602021496,-1.0423279150103022,-0.5003973988633236,0.8979372175469056,-1.710298852968454,1.0611197990879089,-0.5235846912407376,-0.17241532583220637,1.5645923594164608,0.07384817621013572,-0.7882615008410881,0.6051943735736912,-0.5510891259607585,-0.7000939813007724,0.6828875491367016,-0.018300531847696807,0.27892594252502695,0.6524461850629207,0.16275190685706373,0.7397947411137595,-1.1530289675048266,-0.9810624307308093,-0.5714497876820012,0.8660671277852233,0.5530480912911258,0.4214666377768805,-2.784569153924511,0.06173226302626308,1.3701951784437199,-1.2438722385312988,0.9202808615830775,0.895925603599624,0.741423031682283,0.12045817274130359,-0.09227307068879277,0.12543431724527276,1.9405238197730146,-0.36024844009842183,-1.9733157074927279,0.6562047252580532,-0.36316693754321794,-1.0317674838271746,0.5960590536300899,-2.0668377324734593,-0.26891614614056114,-0.1762921230052387,2.5843002678100344,-0.03914205304914889,-0.7869575114417264,0.3492022870859988,-0.6410979751959021,1.2624764964511561,-0.25224736905316797,1.00835817640337,-0.2067711138576864,-0.6280439710584755,0.6508293670853083,0.1526973542751106,-1.522534844242501,-1.3915542840756092,-1.4780164515636853,0.7212507581972732,-0.763747662739117,1.1831997579719036,0.6643127707330498,-0.2601860398442637,-0.5364361899344613,-0.6905759377652189,1.4280623870963118,0.6998150407784399,-0.72608876631625,-0.4579653905378677,0.3158830528665457,0.6930582034228657,-1.214641929979782,0.43130201002178387,-0.6720919419011695,-0.659144766780057,-0.14007714214861802,-0.17874072101153698,0.42983742349821147,-0.4456633004564855,-1.2719336964480714,0.08475298790573921,-0.8269423052197166,-2.036840292243496,1.3910353861681934,0.3471546720737188,0.8407139319813928,-0.7309665914745063,-1.541440084468716,0.21441124483909432,-0.4594282134827811,-0.5452880912638857,1.0806959042611517,0.5345179993660776,-1.2888198715386534,1.0996729384633084,-0.8472624563502348,1.535118372976881,0.45697891911328753,1.3469087377261952,0.08990253041223448,0.8647550077489329,-0.5440446774173876,-0.15733995136195525,0.5891166278062777,1.8917939263938106,0.5450874831097517,