{"layers":[{"biases":[0.22583974082269098,-0.15624619173057175,-0.2049875335687169,-0.27857779157624235,-0.2064684984905556,-0.2126214063260289,-0.16071511140909728,-0.5622445854408213,-0.015475299552324255,-0.469952880582563,-0.07953534921326155,-0.30332750665320185,-0.32543917739608913,-0.30688730239564815,-0.03993513656795182,-0.18924060476653554,0.025079446190735787,-0.2327913210738264,-0.4863057763663987,-0.042665872618349046,-0.3046532953653691,-0.30424872489238464,-0.17604119528247975,-0.22255722572448056,-0.2989171728090501,-0.3787389448418092,-0.06503324606734451,-0.7023284091199699,-0.18056409873473506,-0.3156619469893974,-0.2122074575122855,-0.14633017265989628,-0.2120656575136466,-0.34670302339003245,-0.014397008349021178,-0.28107763428005317,-0.532816098074342,-0.26709403798861053,-0.08268969822103231,-0.506387608874871,-0.17230896287467848,-0.1925202727094442,-0.028269832282919717,-0.41827363033391485,-0.2123771469728981,-0.5895971815837056,-0.2552308646257036,-0.5686617174540174,-0.2900737983578767,-0.21349406744043523,-0.31326527734894183,-0.4154840129574617,-0.014060796737894635,-0.43951120833444374,-0.2459916243043362,-0.0778706433702939,-0.17916117818018176,-0.47943940362079307,-0.15978717662855593,0.06750810744750024,-0.36182880644559984,-0.3627277868876675,-0.12717614941568545,-0.16610367025324033],"weights":[1.0150964290641917,0.21904150638107422,-0.3147456849707426,0.624785736100396,-1.6377626612888372,0.33252753909453825,-0.1457482328657969,-0.6859302796736014,-0.40113766343131035,-0.3139404336208506,1.3784776720833707,1.2872299790782622,0.40433977786994224,-1.069803256477858,0.6808588486040781,1.0031148996382786,-0.24485190448965924,1.5461962811853815,1.6325100794752843,0.8138012345295154,0.322893008762506,0.3146773355707107,-0.011824633229406054,-0.5930486741206475,0.96940067216329,1.353150825753768,0.104607064080279,-1.6669497031714362,1.0576465714364685,0.4241602829630522,-1.153357777285814,0.633175150255773,0.33886742724809715,0.5778565654415829,1.2117205207517014,2.0838971490560794,0.5738681565561508,-0.6034631230418984,0.7364034826791906,0.4263552612975216,-0.2531132555846071,-0.8869802309089246,-0.46008824349684724,0.3380130831199468,-0.6793356013343343,-0.3789629568918147,0.6701254488215451,-0.5192623318270956,1.224219497329707,0.254871045288206,-0.11233602527914088,-0.7832584453472062,0.9511593967037083,0.6202590849920089,0.31796042116818424,1.1237388908462707,0.05417143078511314,0.7832461201381544,0.4729127338837487,-0.9002860698679683,0.4782356018093116,0.41460730698018006,-0.19120663814282474,-1.6795426207685162,-1.1206537853211538,0.16379623752133626,1.2899232939282146,0.00478301208796844,-0.45157569723245433,-0.7805948357750666,1.24946908633263,1.120441039167053,-0.09020999671008481,0.5929396838927802,0.5533047093728335,-0.7241656367085627,-0.3094813513195636,-0.8023500656296393,0.9333991308331065,-0.9498533896318336,1.3884411018327338,0.3703513637959889,-0.2706902874082902,0.6074728290472787,-1.4028852266306417,1.1002686752248036,-2.0926545597710438,-0.04714437464124145,2.6662231514697456,-0.7223970731114843,-0.44287384068780034,0.07907467523534971,-0.9269507973499476,0.8582444315415193,-0.6620727097303558,1.0465711861026241,0.006588355269480653,-1.0353641084601,0.18119803632025727,0.9539806650214052,-0.3898029557667412,0.7159821532189001,1.1030035709020118,0.9961639065542838,0.4981051434701871,-0.012568914452072533,-0.5331464729782205,0.24372199771032166,-2.072346982422794,-0.850680482726988,1.613978058017706,-1.845205337277585,-0.1616773934833694,-0.6938072280752393,0.3354023160564148,0.0013917409270680595,0.5315550806586431,-1.0231757740028233,-1.480546863865314,1.510913914025838,-0.14046549971330682,-0.25012675414195346,-0.9889766904870064,1.2750632103090682,0.46366104080473114,-0.8268654860550972,-1.6497898234728352,0.41673877656085956,-0.6542793649640543,-1.4838314503969245,0.46997759765030234,-0.31666810979413906,-0.07881113318336773,-1.8559097689451738,0.19728170273216664,0.2819522279145331,-1.6860612760977218,-1.271237332561492,-0.352685787381934,0.5387931147520957,1.9015903755283694,0.7609065249644792,0.4679943789054355,0.31540803221091024,0.19282360936019186,-0.03470672687522472,0.14770721388424382,-1.2184276279699389,1.5877445166699813,0.9828574015106761,-2.1879840178373953,-0.7155869827658988,0.37340956862493907,0.6376136346225094,-1.2170903187596318,0.6699940747395341,1.6229662844603279,-0.34337489928352255,0.030258585526866028,0.3219029816791027,-0.4977990191126858,-1.0965101457915405,-0.7844427756298052,0.7168598108202012,-0.6110499856422906,-1.570993308027023,-0.6197651679195771,0.8433848002931185,-0.5791051742747382,-0.3846799298115841,-0.4917293676833779,-0.9966865874749056,-0.006291892532963652,-0.2522675368435147,0.027383533114760328,0.014203872662163329,1.3798427362394947,0.09502451853542881,0.163524927900043,1.448349127611049,0.14035185265902284,-0.8141666729135444,0.1368322530540221,1.208988040182177,-1.2687439463648513,-0.1743865686698051,-1.183563789271353,-1.374238026355238,-1.605120596730238,-0.37333414863562225,0.6852853352918084,-1.4589564194000886,-0.7580690029605481,0.5042827036135347,1.7276646116481442,1.0258073457169903,2.8862937207555426,-0.7240543432593721,1.1869815004678412,0.08345519665575163,-1.2063793322862426,0.8451149058715983,0.09839975970290057,1.147851923142874,3.069538853691891,-0.8005671737871437,-1.4728551520821966,0.8237602348873604,0.8258430344376345,1.6276626817826547,-2.5995656069481288,-0.32717850197486215,-0.1059282557748179,-1.8811041115291658,1.272468934357373,-0.41253535092146737,0.23290017447127911,-0.5012199200927617,-1.6745634665933165,0.9633941913249372,0.9398423068009775,-0.19351394175177286,-1.1531960627374518,-0.7077953893270383,1.056066150165816,-1.2747692707072618,-1.250013821326462,-2.85299700754384,-1.4541330642451646,-1.1254482510864467,0.9752356674409854,1.7191673928525628,-0.6057884027375915,2.3187010535887964,-0.4906396680576993,1.8715240035933756,0.4968175675473022,0.19287550159265623,0.30205363985762407,-0.25079810690914256,1.483478061375905,-1.4244697298801596,0.5659355568527754,0.3702988180914378,0.7377088711741241,1.342707019507389,0.6772186067380884,0.5545861079529794,0.026022420745173004,0.3197454186113897,0.4786311056016414,-0.02461990135300094,0.9133669071900923,0.7140471432791634,0.17726724415797668,-0.42954752082507575,1.2117589603536474,-0.5415391828441822,0.74274342001922,-0.7477401663339828,-0.5206588613723464,-0.2721255540302464,-0.8656645552992389,-1.3953922802475283,1.0519612347979428,0.9520856842970445,-1.1318679549827206,-0.27757883037531805,-0.7267383503443132,-0.5883663420494818,-0.30260703809505535,1.0709727800820263,-1.2312720205381626,0.6620332998423722,0.44410116838366215,1.953413029591582,1.2954230093531642,1.0450471324930248,0.05110526557203297,-0.10585377367338908,0.5257545001930357,0.626674365616004,-1.1942805514387076,0.6308041309964156,0.585498088521587,-0.14257811871976628,0.21563795073593342,-0.36366067914981126,0.972454711084196,-1.821170226837849,0.5992809661865586,0.5919852945029518,1.113219177948399,-0.22855858265066473,-0.6183805445540604,-0.7826106375268242,0.45539852515039464,0.09732776025791315,-1.1122503263030514,1.0918076640284347,0.2710047384235046,-1.5965889271510643,-1.2506375053307852,0.7839047053401674,0.0416216742152733,0.8569554808395994,-3.7268779573042314,0.4302725088772306,-0.819220309576846,-0.1593274981604186,1.2927063608868188,-0.13595072475399378,-1.3915713492134802,-0.2991611460304321,-0.7867433585982498,-0.20793498815683667,0.7276961676677705,-0.6082424509665827,-2.5276988566825462,0.5250886810524135,-0.019406456219391265,1.1312095856121864,0.4907439468119513,-0.19775566361909255,-0.6719122461930416,-0.8438640868461179,0.7462217375105888,0.08647451382701306,1.4151935404211726,0.4730830939549599,-0.5531812885791776,-0.0034278543634941347,1.4835728769852405,1.0520049981994157,1.4728891355416684,-0.14175512156113537,-0.9447245897837059,0.42098276472074647,-0.457435359231512,-1.3575339361445045,1.5396084795369032,0.7315293615019482,-0.5354929829611228,-1.032720507178618,1.4344545687432455,-0.31436175449009296,0.40398117588291277,0.8295795674636397,0.5456661315462261,1.2521223179185468,-1.277189200750899,-0.8259029118147276,0.3134840537476577,0.2915871377579441,-0.7701709032873788,-0.8129684019242347,-0.16438473860191907,0.8157161403068734,0.4495098001591197,0.20760436028545223,-0.8449529691595751,-0.8075675127029878,-0.5111975688766195,-0.30925303665078496,0.9599996226616936,0.49127260176751614,1.8136503743566865,0.4236389776990469,0.9071895108884686,-1.828990305293542,0.031654426619064785,-0.964803632960182,0.2692923062583593,-0.0027094038727756443,-0.7952663095814451,-0.0177570480882122,2.0932158312248066,-0.7141088168568325,0.6880673489086736,-0.804224290010094,0.19065903072092,-0.7359993864052515,0.5753592508155867,-0.2219557091238229,0.6289697083571103,-0.9055524617173586,-0.016023510026208644,-0.8242410120249354,0.6919899352608712,-1.145020308698965,0.47450987295333463,-0.37922331393259506,-0.23571934539224668,0.011203326217742194,-0.9797638528865873,0.0057288925810613095,1.6659445918328353,2.009516569782982,-1.9295591056451566,-0.0535132642404963,1.7426146532558728,-0.9150978656569797,0.33202183465933427,1.047165980852063,-0.3956822646552094,-0.7783024802315164,-0.6531320358717826,0.622293482379412,-1.5009987626875636,-0.4347788570751929,0.5259046948193036,-0.2012082613208984,0.12441425095639563,-1.0976820841604826,-0.20293502775238212,1.2386452056935648,0.2377558248025283,-0.826833644277202,-0.47948478487513824,-2.76441806494231,0.10457933355133146,-0.041851694507019595,-0.20629964512634352,-0.920687045809823,-0.7410389308295618,1.7406676587314538,0.8511248710131423,0.19099162475517495,-1.1207932700957919,-0.33938041980105627,0.5111261621896207,-0.4141986593229268,0.48298716194324054,2.521464108510358,0.0322795287768292,0.23761239627248404,-1.01783500436523,1.1574546079216907,-0.8828369500593639,-0.7722378627795708,0.23443889394072498,0.01987357815373907,-0.6686330996869342,-0.3316338767431097,0.2968729059364284,-1.0807922982779923,-0.8108054602349742,-0.8039484522634787,0.15943713428532605,-0.756231381745505,-2.156038966182924,0.04823606876064226,1.5974321015726594,0.5002158640761042,-0.09429464031863101,-0.030683736662984365,0.654320375211638,-1.1998745203746872,-0.056429700077468614,0.8282373539447365,-0.26784957148761046,0.425191807142697,-1.032053953150725,-1.2207502901077723,-1.9249986685404923,1.194701316411804,0.9287359282716536,2.8274380503502172,-0.33566980406983293,-0.9146600280117392,-2.328739887775212,0.8888368280278153,0.8734891483043328,2.2024098322101313,-0.38648378100396563,1.3383190697957739,0.4963132236711389,-0.04907472784968031,-0.2397325004589506,-1.4543728262345375,0.10565335843465526,-1.0105162688287388,-1.2712219032662386,0.2786123486375485,0.5706304899642218,0.16859504539721493,-0.01592030951978913,0.4675565837499775,-1.4987441778684798,-0.4147550559197396,1.1138234555971893,-2.244727551236994,-0.6679261862873711,0.014698832331071542,0.9782209953805627,0.5784251838375744,-0.9234589530054972,0.5189506086625245,1.1915657512026714,-2.5278054370189538,0.0467450888086353,-0.45227841113223394,-1.425353025041865,3.0877971278342344,-1.95892545588086,0.5338833436202667,-0.0694632530489244,0.08970574192145149,-1.041477824612502,-0.9648669157860995,-0.18169734735965765,0.26971103304101407,-0.7641908152850482,0.6465714473335424,-0.04168497202041479,-0.3531342567952063,-1.3537917351049127,0.027566748741106765,-0.04805438262018052,-0.6701944964560848,-2.3126648806894625,0.9645771029124461,-0.4588099464135115,-2.0497399523396647,-0.7742753685999517,-1.3563049224666406,-0.642465462752571,-0.10904477613777307,-0.5646685286364571,-0.10116070037820735,-0.11714341665317682,1.7277182616999383,1.3718836880422147,0.0031439717914447606,0.036384854966195715,0.2861360032879943,1.618052690851785,-1.2790244907923531,-0.467665034705171,-0.7961385459774669,-0.17465343190949228,1.1817539632088003,-2.784041064870642,1.7589614960438122,-0.8605736160405131,-1.36522442068762,1.027490214996843,-0.737934556908933,1.3604427680682265,0.2674798852067998,-0.840415731089035,1.3840986197130836,-0.21246414406496406,-0.6909947625699131,2.0357501745604747,-0.19669413349501091,-1.0300545765729026,-0.39820762430964896,-0.4535293343800177,-0.19377784127596168,-0.8129514044116241,0.6208499434589063,-1.58437510601154,-0.33313302410915585,0.8874816145502513,0.8116169834873564,1.044203444502727,-0.9286813641942552,2.9030722647850746,-1.0294470971536351,0.8782103107578121,0.5959412740925747,-1.6835921689977673,0.8258311954223627,0.05370507033330563,0.6873699949688862,0.844693597861446,1.265405301310741,0.11819059959928528,0.3852964577991186,0.14623244670986768,0.08197326873388447,-0.044635386120960595,-1.3516539035987447,1.3812777848348514,1.1962564661985808,-0.47434929654555646,0.2811305028625777,0.22741946191553788,-0.5114154947787986,0.8913573380279969,0.3391127814197768,-0.8971431570899264,0.2752552538585809,-0.8244313327192537,-0.8010030039278103,-0.5462091211311622,-1.6258131063714973,1.1527880302519786,-1.0361760783056433,-0.41793415742375073,1.06121960797798,-0.029050153641582106,-1.9941746088970973,-0.3127564999276836,-0.9114790967590266,-0.40965274501526,-0.7520659318832027,-1.2132891090746296,0.8293771809668156,-0.9409184110061396,-0.24025070018575181,0.010732352995147429,0.4618708956868277,-0.12900177590257542,0.4800174420977922,-1.103069768997238,0.597085342995672,-1.739843940134164,-0.14193873454688485,-1.3327531995190873,0.8320337047934853,0.4974309922178387,0.380458035721767,0.04913094683308204,0.026672319780552702,0.34095120791945155,-1.231064628669812,-0.3812802357920201,-1.8630561539203698,0.746102172220293,0.6009525277900599,-0.07050438169021626,1.6400920476824843,0.5561947466596795,-1.0131021019349837,0.4528462248615836,0.009155506636798524,0.24585765664661283,0.7172709677375471,1.1311977011855376,-0.21047979686071033,0.024616281181026375,0.33565815252443437,-0.41747373084686873,0.39548437445857826,-0.9962714336300735,0.13319393836583177,0.5295376819829908,-0.10410106073182535,0.19552069917281317,-0.7507453379787057,-0.2997534903097167,-1.6239844638939074,-1.514057223799779,0.5558671062099226,-0.16978968282688017,-0.6404385796503396,-0.4014470111768858,-0.059079026285437916,1.195380613022029,-0.22630720768224555,0.19264639631886027,-0.00900797037334323,-0.39524869164023835,0.15534750004187026,-0.25641862685951605,-2.033881486438457,1.1115474120482298,0.6656793881328232,0.9578141898138011,-0.6220240208012517,-0.7005828824798619,-0.9461784107595825,0.5795675266573378,1.245236881269664,0.8646316650107466,-0.029592089728492987,-2.2437161474837155,2.0557748540423915,1.3618040823556339,-0.35979453507215725,1.7373521944239514,0.6794146517109888,-0.08690751288651215,0.7039965793681014,-0.2780346730165435,-0.5162513351573481,0.18090586803094133,1.8648681506100422,-1.5090376767971667,0.794969383297688,0.8077094052075334,0.23272157099141724,-0.3955398338724506,-2.3966547809124137,0.48114550714685334,-0.17618560618250823,0.2647110071523426,-0.686121923230599,1.3172026390461318,-0.12405050154976308,0.8367870496010371,1.1401048530412141,-0.7392494098448964,0.8057586705226013,1.6468776058908914,1.918564073495791,-0.6520651004719541,0.10272495862208945,0.6796582700836153,0.7404978538298399,-0.7557372640949181,0.5182373136225257,-0.465997685781847,-1.247006082471196,0.35608522183659447,-0.8548337286081512,-0.6140225505720666,-1.4054513188203566,-0.4954715864055809,-1.9586196943044742,0.2744462085086765,-0.02047291833702734,0.27659295486253116,0.23366486467709544,0.5761035989800946,-0.1258269681039044,1.0662816207480612,1.7041453441452377,-0.30681289226319847,-0.36901350881941136,-0.2738742218934035,-1.7037608833113427,0.13506336515849798,0.7841089918385921,-0.6599647299749678,-0.019142769400919135,-0.1942924281267762,-0.23238978996995324,0.4660800713199659,-0.048017006470634914,1.0533265997862844,-0.5134277252969511,-0.04348836222044164,1.7408779833819679,-0.68172197573351,0.06508620199541898,-0.3249822765924134,-1.1209796593134393,-1.2934323775559613,-0.6633717605406112,-0.4251768750241456,0.6615683281954027,-1.709048951204701,-1.1769945049844202,0.7358318894443306,0.46268427964490666,-0.9263678013722633,1.3028309104779972,0.013399240836535571,0.747678319002778,-0.4717716016101008,-1.263909559145416,-0.7603491728184445,1.5704131884216934,-1.0760588024588562,-0.6406246664605516,0.7748937790782211,-1.756420281493978,-0.8404818949342592,0.25804181276107674,0.5016567121474707,0.04299275631832483,-0.41175221618863794,-0.4139213855623292,-0.8121326832795305,-0.485716112755835,-0.2627190923698294,0.3522925559783742,0.19674111360473936,-0.2937815537721224,0.014698672540833374,-0.5532370225313334,0.7727926529955623,-0.8237505626194112,0.9555808394041791,-0.19210115137522937,-0.2853737645095616,-0.7665588776492807,-0.1987261269251153,-0.8409067792960886,1.6975894446333135,0.5176901518998668,-1.2808245398185811,-1.5285978212120532,-1.076159704429912,-0.008427617156526845,1.1117560130079636,-0.5238889748005413,-1.0036066876304428,1.130955745111534,0.24335227689044195,0.40360110871652444,-0.18864255257694465,-0.000634825339999203,-0.06421254937964757,0.5830953212246239,0.864891694245032,-0.5940729887450584,-0.34787921020880475,-1.1389360064435154,2.2525798859085406,-0.9150567955268216,0.18375290536974162,-1.079713868176493,-0.11269978036456686,1.0467328726609553,-0.4291661969147364,-0.7212240616620081,-0.4600963256787836,0.5145637275785027,0.6276964770384696,-1.3998287489253447,0.8758014789265858,2.2387645876509144,-0.6491553468165917,1.4713722102038806,1.7022996694759016,-2.3945552426941625,0.14333055546953313,-1.6581525486339879,-0.37470890258168355,0.03472294176825644,-1.989362555205043,0.15831760839311998,-0.41071881346308536,0.45268321501481473,0.8086600035579122,-1.5284522591257823,-2.028996685284989,-0.5640823281387471,0.5722209841435736,-0.9382228924830549,0.5343363560879882,-1.2932001115352563,0.2180158494038654,2.330377721971914,0.8304328891200706,0.2950519964138916,-1.5083098947070956,-2.0318424296998896,-2.187912968733781,1.3172028136044822,1.9230556444102087,1.2212773509655734,0.48685465985055554,-1.045411201050385,0.62363220719209,-1.5973363647727103,1.2084916552608314,-0.40933835468089985,0.40760032442109767,1.3998847217931938,-0.4648416807182874,-0.7668694712295476,1.0102240677604695,-1.152353107110922,-0.5784856875042201,-1.0490037168505018,1.2438747258074832,-1.2068159501129785,-0.88441886189537,-1.3449423493363812,-0.21418614262302493,-0.6927412307385362,0.046111878703677875,1.8976985398991981,0.9298101275538181,0.5996914528936872,0.7865594752966828,-0.17163038707171718,1.2621563855609352,0.09609421805896082,-2.1920218868945143,0.0415499680917585,0.9749816281104161,-1.0124529002099616,1.885957965126075,0.9058385366049937,-1.4397016982842477,-1.3614322217421266,-1.1320888857292637,-0.9354552667746152,0.6610859963341664,0.46749669207776817,-0.8653287603631423,-0.504137745325095,-1.6413700869162717,-1.1217560025636186,0.3039530509263928,1.2348175242796318,-0.6249947768429687,-0.799428828132607,0.649507207436177,-0.22733103039328886,1.6399629029308307,0.20040591251870718,-1.1515691024110122,1.4361766511708804,1.101027910172096,-2.0388154850305362,-0.7758299662984891,-1.2980010713464438,-1.0338313736790683,-1.4266146010954102,-0.34354655326569306,1.6440244110407498,1.2041076268528441,0.9270479900706782,1.403931283156722,0.012939027148701744,1.597348792132184,-0.5612814009930134,-0.6619472418357251,-1.3026399016921317,0.8208762544888167,-0.2304594486854749,-0.2970249148952116,-0.2723983718339924,-0.6999472592908096,-1.1462975203577308,-0.8851453123700471,0.2660437920131223,0.3216762892398346,-0.16327964537054107,0.19399828637077018,-0.47538163473944156,-1.1817595110024617,0.09860914731527205,-0.9730036831548299,-0.3905390567308462,1.1823821809345874,0.6018493841022386,-2.056950573936421,-1.5325871622138976,-1.4800408161433312,1.1505974484218242,-0.5562593481650545,0.5560465027800982,-0.5625171004719859,1.4485959075418984,-1.0842530767067537,-0.8203500524742464,0.904804177264567,-0.08114116869341363,0.36714559362826793,0.6143690479886781,-1.363536087652594,-1.8562657048100994,0.11817121945009072,0.15129933677686158,0.6049689660342322,1.09613820674247,-1.4562760534104837,-0.7148653953324555,-1.0582910305177806,-0.2064038515570812,-0.44855995643191454,-0.5401906241995905,0.1990006410306672,-0.7387545671249247,1.8438521479116097,-0.2109915433023085,0.8280683792692521,-0.565842826157414,0.2951192462721315,-0.4647278540961026,0.4394907882799906,1.3699288822215383,-0.49371634614259413,0.33696432934338966,-0.6252052364189645,-0.5639700644741159,-0.03144696285003163,1.8419680522403654,0.37356635597494464,-0.46989800988821884,-1.3648956736987938,1.6231122667413949,1.5282344122176128,-0.30982187121728433,1.796785145469315,1.7514606549210208,0.10812372496189175,-0.02745224544280313,-0.9528086792470326,0.8074218071711654,-1.9891976312466308,-0.6153590715251832,0.03322170395625286,-0.39655195175374724,1.068717464214378,0.757699438591734,-1.5668844825915667,-0.8808893934575044,-0.3589057077797529,-1.085925992614459,0.2409477921172922,1.1577507712978277,-0.3556298776154812,-1.3359023567415516,-0.7363883952878407,-0.5290658685339438,-1.4057317448920468,0.6025257250657786,0.9790294577782492,-0.3783368867462191,-0.33094871170478646,1.377141603753379,-1.8019552390264892,1.062736741430542,-0.30512005474320075,-0.22734414492246627,0.6802601383802696,2.652687195197288,1.4397437270041333,-0.28447724252063356,1.260525794554861,1.7329027048614287,0.03269877394509471,1.3598714946722283,1.2731316240476631,1.0751750339071127,0.7609243603845308,-0.08019565024696634,-0.5904370803103457,1.69104373363271,-0.003577731547716161,0.18164098766785217,1.095185082181025,0.15143794758034684,-0.025676967942132485,-1.4645377267302335,-0.5203990629535584,-0.5853857095943926,-0.23548020967143923,0.8199890309212573,-0.8402947659392472,-2.432234419548913,-0.24748813021758703,0.16554052177362258,-0.05420415462297997,-1.4579351378937428,0.29408473150452735,0.43556680053241337,-2.653831650623756,1.0528598716485469,0.32938290802943904,-0.6969068809576923,0.6864138779488821,-0.5219885959023538,0.8238689822960009,1.5247273349793766,0.009494743636320432,0.3555983864075777,0.6545576824380063,1.3924303906560729,1.1380002062855021,0.3271838197470124,-0.04159059888882759,0.44831847340334363,0.717126531414027,-0.2492300121190714,-0.6734651729465047,0.9547876795521959,0.014184513916058154,1.1583893901522446,1.0401084865922972,-1.3869555745358542,-0.8426073757255469,0.5599754649552421,-1.2525498930177672,-0.6571802775049007,0.6970061045961108,-0.5318302159726717,0.3703763474896498,1.1301101857957032,1.2431645194543153,0.4594622016593695,0.029638029628435415,-1.7943609174531907,0.4486689114357271,-0.09881608528579182,-0.8026268421876467,-0.9819271249620929,-0.34283195439099434,-0.2549690132471415,-0.8855968352511759,-0.1041154622627203,-0.8507134680171395,0.548395902778096,-0.8274643881470012,2.337869344532048,0.801782717379389,-1.118850618365766,0.7553491038002376,0.6627810157118844,0.20689641831027353,0.5648161221968244,1.0485515872419435,0.020591550500798982,-0.3123657797506151,-0.7931167873382636,-1.9829065179769527,-1.0421790552234933,-0.19142244939036923,0.16063109309721224,-0.3726732045685107,0.45046284928171165,-0.8947845737644374,0.960191681023205,2.9576003130643373,-0.7672470014346586,0.539669853883122,0.09744462643024765,0.1552978440851375,2.1924972270552603,0.19375279986361024,0.9569956067663152,1.0346516244644381,0.8224330052278626,-0.6174541843910487,-0.748834023215716,-0.026559294440295225,-0.3645484372586104,0.3002668397700767,0.8578185910111432,-1.701707393623931,0.008335763136020488,-0.2493687754328854,1.2263674627956138,0.6720473090906423,-2.347410430545494,-0.2138085280425111,-0.4221186401334306,0.7372943278503289,0.24391022716087818,0.5880548844679794,2.0169593491654014,0.027967012588418914,0.6364193943568266,-0.11927924533787627,1.5835862009234014,0.21856075092626515,-0.3549316913104158,0.8116841391114844,-1.223617945452122,-0.07652003332044394,-1.3227964441691162,-0.4430335659450506,-0.1453673676193625,1.4212249469630405,0.4758834180322721,-0.5470044634142496,-1.0684650046135953,0.1785208523880437,0.5275823943394555,-0.24010020162797274,-1.9096046955860095,1.9861840635175514,0.4928808413351125,-0.32188707305323666,-0.8248718865143826,0.4234233802095566,0.22965760444494648,-0.02988146631102132,-0.6434495643178222,-0.20955281182228613,-0.5293571710071865,0.7759110612764261,-0.05495265212353921,-0.2045989622540196,-1.3893034186845175,-0.7335375157804727,-0.9319806571247966,-1.4688428453248599,0.49231763332705997,-1.0869124867307043,-1.5940906202396612,-0.3114023239420526,-1.1498608199600464,-1.287326979911715,0.818499092809493,-0.8001569903984359,-0.7925291826300176,0.853823053311974,0.6067947562325728,-0.4436761680245034,0.9212569956550716,-0.15796775516038994,-1.468455271036331,-1.4440547308526435,0.7319709024361197,1.5356318670696967,-1.5461693581880984,0.5369528526688964,-0.010442522501819939,0.2285713398520381,1.8590857697931162,-1.2124323225305504,-1.8390992294669277,0.035238928576365125,-0.9464826703888178,1.023936470095927,-0.6244596362859159,1.2809708415851726,1.0292701264234587,-0.9352491431729425,-0.23058729208578338,-1.5867307956710774,-0.10412809893209639,-0.09567765982660208,-1.4369495827242096,0.17202254200590905,-1.2264775491759645,0.25533670582299933,-0.4972483958149269,-0.324415724904699,0.6254156370358164,0.33934622004022913,2.919006661542282,-0.3527007886053255,1.3338037310262472,0.3703172777631902,-2.119679900448959,0.42488907348714877,-0.34059265327152377,-2.3784745957411495,-1.987097352436849,-1.1017590060316922,1.920071563817731,1.4754024724202932,0.8461038577997044,-1.0341598770318376,-1.3576238021937963,-0.6975317417254308,-0.3004906962170375,-0.6362420526317871,-0.3984092981037382,0.12074144282832788,-1.0945482709665708,1.8102890788724537,-1.7886255805296267,0.0831340390410613,-0.06517860475693886,-0.6830373679802152,0.09876499534227515,-0.8198241966414677,-2.088384319192255,-0.1605781921464276,1.1216430039027876,1.2939733851797655,-0.6479616068817101,0.23657829248461923,-1.0479075764202257,0.5377745566810428,0.6641337582137712,1.9224371500464863,-0.4515935332108438,-0.2610740842208297,1.1616514965329194,0.334292449858623,0.08522136513506721,-1.2128542243623566,0.6274135036973966,-0.1964728854443722,-1.8034800338377033,0.20945421431169925,0.7266159590512601,-0.637056382450858,1.1668399380324872,-1.9389015320120224,0.7693543046660916,0.3080661173098765,0.054885371237711776,0.02068117519414706,0.6483624138221932,-1.4487302727818883,0.42138014437062615,-0.8252323102620996,-2.0722581650192646,-1.6759598609141613,-0.5834131631828171,-0.4805852335242042,1.8115044363306525,0.5026071585404973,-1.3620567752782375,-0.48842852065577896,-0.26976478513343843,1.806974243803562,0.19717815430520436,-0.17786432871294486,-1.2326371841750325,0.02966328129017834,1.2919141760558968,0.8052401806789498,-1.1917928030631726,-0.6293595480969614,0.13191907155245555,-0.35273794021032534,0.4659829019244469,1.7785074065512736,0.684942763324997,0.5546708911578451,-0.7183453180353534,1.9614208838908034,0.3516293663742216,0.7025248814281392,-1.2118314944006625,0.1324752294197466,1.702176728185726,-1.6390581979115444,-1.0258115453391794,-0.5412882402918996,0.22415709951618448,-0.48795243748526623,-0.41262439692121006,1.226067968801196,-1.075451664108442,-1.7147787921391255,-0.3983050214590813,0.20718387386743536,0.838402629584278,-0.8309031609551663,0.9004045675288299,-1.2903950680656764,-0.0018451871919186035,-0.4017642240755024,0.8501954406954408,2.958677971805584,1.1326060987886375,0.07824745678944789,1.0957421610790006,-0.6133139119893481,0.8505926363547217,0.04154619167870755,-0.022192445681980436,-1.6920676054780732,-0.6025203362167839,0.2520676015749756,0.7005939487746735,0.5521695276415655,-0.7655367462350131,0.46316333217431416,-0.42113959948980123,-0.8631678001418673,-0.6696667224027699,0.13972103353507756,0.06689790086557955,0.17879621367626924,-0.5861999039782654,-0.9819822293364635,0.26595310151388574,-0.09064266444762584,0.5266124191048108,0.4526721659890301,0.48372642648858766,-0.6829858203217051,0.5639248277464731,-1.5634864248314906,-1.003850274558943,0.21651050327696544,-1.069484906958497,-1.5639183591525727,-1.1509447669884123,0.22926159439641447,-1.730925723940668,0.621597532868892,0.1283947910624893,1.2937301531764225,0.6910053126738068,-0.42433044030449807,-2.790459233082219,-1.308210679626688,-0.9124780982215667,0.2901872250963736,0.6758925696611712,-0.15885669606849329,1.3591920024971937,1.1723898619663697,-1.4779932880318707,-1.6715354576223547,0.5256451140389474,0.531062612893711,0.09831767794328654,0.8961028356825229,1.045449885629023,-0.3530930541266207,1.1413400725278178,-0.23110961716965953,0.48969394535645816,1.4196396562642148,-1.5804673453739435,0.5658876511480952,0.41697420787826595,0.6293365939327654,2.2896917260698513,-0.8099481662853993,-0.5235095900504385,-1.2493900214830789,1.134569697128066,0.5117824641312004,-0.9555558650898293,0.9926214478392652,-0.23728985177228998,-2.4024781034635665,-0.9258475995664787,0.683660249986039,-1.848305147119214,0.7762268267996024,-0.14861903386732792,-0.15060411269739346,1.3722984715723743,-2.2030104531084556,-0.8222519558105224,2.1532860483567675,-0.10129011656124506,2.0100131827462024,0.17265726074456056,0.47494261475148686,0.37994275225931545,0.5554467627674561,2.5715981684978457,-1.1166052709664966,1.5537060877041444,0.7479993297255412,0.32975760457302306,-1.5703424041577283,0.25582929835104956,0.3115083121947239,-0.9026797877890691,2.226904186467407,-0.045852706592338685,0.3054236061804201,1.1208560057358903,-0.03283517939057313,-1.9656051369128023,-1.4705684456087256,-0.48639296290081657,-0.9698766740819958,0.6846521180608522,-0.8869561070730574,-1.4406367969418037,-0.7236148683008168,-1.74160024013873,-1.5921096879426488,0.5630329677738476,0.21205468511598027,-0.09664657574081628,-0.6014431888505464,0.5712708897530843,-0.376053928339991,0.9893324728286282,-0.21316753386653536,0.9179669270497803,-0.171754413600713,-1.8379549158893425,-0.0475704936652553,-1.255812840039508,0.040671720061786126,-0.8942821667882664,0.4495459337436994,-0.5945473077796155,1.0091513359966091,0.62727417157301,0.12654836078310164,-0.7232414566110863,-0.23345789703911715,-0.1793176960829851,0.3249783323081587,0.0533211708276971,0.17760798262062516,1.7032546077392405,0.015434664643021786,0.2967244492775865,-2.5796592974493633,-2.5990866360607128,-1.3088237155362266,0.6529700866183382,1.9094025785999726,-2.4242807623983103,0.3650470580234877,-0.36477707329751663,-0.7423521370727472,-1.153413230819728,-0.8947040902710587,-1.4671295721295312,1.507997961853317,1.3131046430872795,-0.5380873814339998,0.9964948395074498,-0.6039054815168791,0.7892395789758334,-2.051334283149289,0.6788656525359077,-1.3280575429123835,0.5077725621528901,-0.40330144530080186,-0.4476036388577405,-2.0860525787994497,-0.8883864916832818,-1.9179633237825748,-0.4209179051140178,-0.9516815414161618,0.40391197987655203,0.5431310012134685,-0.6812319662721094,0.5205262236778557,0.22112316839836182,-1.61043100623712,0.6194207539301306,0.41641350049478076,0.3324441765932619,1.7235782522232928,0.6405530549672562,0.7080326839278605,-0.4047877600547121,0.4429432762467998,0.061015485713829025,-0.5602399170459169,-0.4579290152870121,0.06121150327588604,0.284949362371956,0.07381998116477484,1.5075639148057338,1.1474087553281915,-1.0867407034732006,0.3429191531387914,-1.2107377581141292,1.2369323316856746,0.1791897502861967,-1.1194707282396061,0.21659133288339383,0.3052045414954025,0.3334227786854082,1.1522021570497702,0.6652138526101574,0.2882603941611923,0.14899938023359405,0.3958995148789435,0.29381307956498703,-0.2339900768429742,0.1303116664507082,-1.2932004054928203,0.34548002680388135,1.1760918678991825,0.20074208914883931,0.07360198675319359,0.19584093524955323,0.004109370307089314,-0.46819080877084984,0.8350462588284843,0.5614101923110316,-1.47984551716567,-0.19757086844433072,1.27037393338622,-0.12557085556829117,-0.5634363452506307,0.3466386751002399,0.5372194285324853,-0.4194634082673656,1.0628505010008147,-0.41935392589143555,0.5501189292328472,-0.644623607889974,-0.2539104130809292,-0.2427534195654423,0.3369247333710981,1.2411754949178466,-0.3357840941367975,0.5553108714281367,-0.4281445521299909,-0.0759547364674334,-0.5766593150243047,1.2839600268257376,-1.468895169592089,-1.500084381631991,-0.04065147842679745,1.388863153263599,0.5609919689008398,0.15115238040239246,0.27454498752575424,-1.2118382655725946,-1.3037139020482829,0.23537675392702387,-0.030244604165159308,-0.6319767737701069,1.053519371886971,0.7089647605623088,1.1501195906229056,-0.18999825866882844,1.1969880656542897,-0.9421086873749485,0.4843632632837701,-2.331041655368417,0.19277087394468154,-0.25064631166674606,-0.35337813656100076,0.9183591872071464,-0.27656028129423543,-2.6035968678710346,1.6707456518166515,-0.9138246321723474,-0.196938220529559,0.930808393869298,-1.7897520294427636,0.7177194074134892,-1.049196252422249,0.13626261364898828,1.5946528890214644,0.4875690612759822,0.5909638319778603,0.39795277959600694,-0.7231361655769966,0.7852276639836211,0.6450672939055401,0.6892678462858077,0.6652024328539433,0.6740597379072747,0.19645630643542844,-0.49928805656422914,-0.21409371912371483,-0.2623342168502765,0.3047091403033223,-0.15945162376638106,-0.33430606092379855,1.4020231048734286,-1.3824316798103393,-1.2103338109946826,-1.14793295124476,0.33010073529381695,1.2076367588804267,1.6789870083864593,0.6274633818939035,0.007869853919683329,0.7929678328792749,-0.15463324257721847,-2.0348297161475175,1.5312461769145198,-1.848655224618077,-0.7654759040866579,1.2856386767494878,1.0562576627086269,-0.33299995631991447,-1.2349885487050558,1.95173997021286,-0.16065648130663943,1.4296185908153483,0.7043325158647679,0.872717710683585,-0.8425111750100593,0.13768828026189942,0.10150428581236128,-0.3360723668326176,0.8758293130571072,-0.17483554776377394,-0.8914869486636414,0.7107772052734058,0.30987212596480596,-1.9268875127487821,-0.36760863028542995,0.45967935340171445,-1.7626359440865,0.484628883854122,-1.7694776607897924,0.8707535254627038,-0.11887715801150987,0.5412157019104153,-0.5512642525451282,-2.1878731372780003,-0.16134457982393105,-1.1475093654405637,0.4202199102852208,-0.37716577933928314,-0.19281101623801059,-0.06797793196257866,-2.0494043581978203,-0.1013374943618298,0.24663468803568186,0.7086224826032306,0.2468194467052,0.3842063727263606,-0.5180111031885084,-0.47836683886243786,0.28378332589468397,-1.8047222046903935,0.3362379069420947,1.4760480159378127,-0.1333208408801241,-0.21529048554119518,2.270480301980505,-0.4825089575091735,0.3320220073915998,-2.2337888010962192,-0.4683558071372673,-0.03772660728463622,-0.02960530306575184,-1.422497513403607,0.6710453749679334,0.9592957296678818,-0.9148577091545232,0.5283791043075353,-2.1388403900516497,0.7739297249071854,-0.5629979331882263,-0.35660545535120575,0.12339127819253028,-1.5546015031768163,-1.986108305248829,-0.02788356277720073,-1.2140537044950013,-0.08869962512508617,-0.25372281340107683,2.3927292079654716,0.23514895447005826,0.9356144192970504,-0.7912231257932594,1.0497300014193975,-0.4147799744671825,0.4195121765545192,-0.032427972576830895,1.5279536331217618,-0.14906307542947553,-0.17107704569836413,1.055237367332614,-0.4598431207137132,0.8352214447322949,-0.03326471017226112,0.006006037827630069,1.3529598796036932,0.9784887890032147,0.04727564194721902,0.5390193730563949,2.3718235707561837,-0.3527165865261456,-1.566396388141743,1.1976435505078278,0.32799455979838416,1.4907694036947796,0.0954944904044012,0.7525240062571441,-0.38152008347783,-1.6302971059151372,0.2797957241000751,0.7702653557105705,-0.28210141264388766,0.5601316363575776,0.3362374900959141,0.7707191592425279,-1.8323251502750777,0.0053990647975987,0.2502040859957799,0.1990615960235019,0.20618734235792505,-0.13428866277042928,-0.5737459254621355,-0.7106084645546473,0.7871738106382703,-0.7205749005493796,0.13222866527132487,-0.6251316080400583,-0.31118723115562213,0.5789076951670182,0.6533234140395007,0.2410037016078849,0.030893087768298723,0.11415830291319083,-0.04545549463124734,-0.1885824580410424,-1.0014470907413215,-0.7847306687274933,-1.5935072620263284,2.098939159821012,0.2651232254814422,2.126468392216184,-0.3271141213115431,0.09103947290935184,0.5194201280365929,-0.08910957514768097,0.8642648240384599,-0.4501631926538089,0.659377491314995,-0.6128964131544928,-0.5968518195356812,-1.2881924013106454,1.5026858495816218,-1.0027271340749329,0.08221081348328435,-0.4517382774539293,0.5844122083955821,0.4660815682800974,-1.4130773832472459,-0.2797361410261001,-1.2955653637027085,-0.6490998731237685,1.316861116301695,1.1349306046512877,0.5088889625067439,0.9931677700101647,0.044555142677900686,0.12192045399348898,-1.5432158822692608,-0.35571062190226815,-1.2116234155370043,-0.7520600457658023,-0.6543350960914842,0.04890967742985827,-1.7963487289012097,-0.5297811419979073,0.5124869814645003,-0.09961749093326061,-0.3559887485618058,0.37263194469983624,0.8821456637491909,0.03786354838115355,-0.33463760054791436,-1.9831337219660239,0.22643473821202276,0.6137923054428358,-0.741185576338068,-0.9811259512394982,-1.1818872187726972,0.41525428970609124,-0.7928904396204656,-2.085650625157539,-1.0550519259811324,-0.02776598843237565,-0.3385354390670585,0.5528197699509348,0.561394538165748,-0.022321820366543798,0.04560419430688227,-0.08509729776273887,-0.9333337194183888,-0.15916221953812154,-0.28899093916520374,-0.6254489960798629,-0.11019015510808398,0.40431723289812616,-0.1430219247012611,-1.4770644827918977,0.6153643866503757,0.788043149930283,1.0592276866839518,1.1946369274926838,-1.2107488175881451,-1.9861215837133532,1.5115841655814073,0.1736815753063891,-1.3787245038267044,0.20342699104253556,1.307460550431342,-0.22473767244760462,0.7147274512623121,-2.291965404382878,-0.6206236107616961,-1.3352150762652562,-1.5303173008568791,-1.330767526546627,-0.644324948206273,1.813617064860147,0.41142433706080334,-0.4109057518284308,1.5107253798416358,1.6405946372204683,-0.9774462559181158,0.4602639808831934,-0.5355755404442953,1.0871342463162856,1.0790258839768285,0.6485493476067399,0.07799261534616156,0.4323824731213442,-0.06212021450754913,0.7829588270334179,-1.6385149867860493,0.018233567215028144,-0.34071872506799006,-1.5203907527275466,0.29484074500812457,-1.6529158445092504,0.24873004585742933,-1.4398418124660088,0.257029535159267,2.2884170947871976,0.9663582146924425,0.5973594919105898,-0.9919578522004813,-0.8610359385051526,0.3227915829566421,-0.6330997568441353,0.9137055645944251,-2.0481884300911886,0.2063450125007794,-0.5224339929246501,-1.0876266879381964,-0.752485096445616,0.531932541368089,-1.1959989591539786,0.9260178826187194,-0.42219080647011037,0.16765095854157575,0.14554069553867463,-1.0179180003729404,1.5061697650215322,0.672928009942678,-0.5535509437327413,-1.2647341861576389,0.5013365003869448,0.3237080352898262,1.0581782994573805,-0.5702232505786413,-0.5709850486821968,-0.9238407225373033,-0.11828559804010252,-1.2941928574119788,0.596678151175618,-1.0027253638248372,-1.1269320463573675,-1.158348348529694,0.727234350457005,0.6938208978208739,-0.5488434933634753,-0.48480913664572484,0.7581303251637053,-0.22878858780913233,0.5191896911830461,-0.9222476457961457,-0.04645004820274162,3.598519905049233,-1.5433760493935975,-0.338455175005502,0.41477026905749964,1.0922517440658648,-0.0524342107357114,0.2538023139730297,0.6702695586521549,0.312360151083108,-0.12339152155758683,-0.7822116643411516,-1.2808086294690513,0.07969503269250679,0.12936839866649394,-1.7368830099267039,-0.29515470065494565,-1.9379454947947246,-0.5226226062744792,0.07688460513672021,0.0832014873285286,1.810954837876235,0.8056360094792793,0.125896758418338,0.026487777407598993,-0.008120033027692111,0.3249207230316859,0.2254757633189109,-0.1228930857161981,0.37457944831747375,-0.943505866476384,0.07969780016467531,0.9184990120186647,-0.1537815164653617,-0.15040071095744936,1.832962694780544,0.9331908920262717,-1.1056629301662577,-0.9521886624063188,-1.3943077699137933,-1.7818617054049564,-0.9106870079454588,-0.3411595586672098,1.2982007412126617,0.998066239630334,-0.48889768269166933,-0.5906715467979513,-0.1088488671866753,0.5962024811657111,-0.3153225043633248,0.9217450454208975,-0.25018544054840935,-1.9589895251470864,-0.39190403434919535,-0.06381254825096612,-0.17471177717469072,-1.5923432617388704,1.0470215482629073,0.6202137146929738,0.8009503692091327,-0.32505059657334257,-1.1465716688537748,0.9963652188451477,-0.5834432306594863,0.025100448338637258,0.09078282336545336,0.7543482803035256,-0.5375670089494434,-0.22223240885181555,-1.214394746274196,-0.2099583651650033,0.2405983546579887,0.9910042050006781,1.391638526500255,-0.524027988899731,-2.2409018963235017,-2.0550538006697647,-0.9846917320940626,-0.24714120102548917,-0.30073990306962806,-0.07872717885013192,0.7377778243795602,-1.1529342642772076,-0.5505686680748378,0.8564390803681946,-0.7662591888860948,0.36907344221411037,1.0178096717594085,0.6576762083863583,-1.3437574252777351,0.01331618809815058,0.7615764779920526,-0.9442677279890691,-0.0472386708484497,0.6415307062355192,-0.3291974266594715,-1.5325765282823585,-0.6815649960442216,-0.9261046773141625,-1.012705520300885,0.12039385081054714,-0.25645947423181265,-0.1190137753865025,-0.23478894532941624,-1.174341293266051,1.793603004691347,0.9464955594399095,-0.6958232461319729,2.6909347133104733,1.8026199994210168,-0.5401840318696267,-0.3421804942915345,0.7989002851719041,0.05586269712656681,0.1491970126001196,-0.61499086338421,0.24546823392322714,-0.4686347476329678,0.1729761619672736,-1.1436548439006284,-1.1318573889003094,0.1556592218575519,0.2644724431465763,1.1659743484261575,-0.29207217423013604,-0.19716442316638355,-0.18453983870309337,0.5009850443951577,1.5677122021786547,1.8562146056892166,0.142688183588219,0.30348378933011255,-0.47556769982143654,0.49109378717724644,1.2636987904358454,0.8867706575327847,-0.32020968613164197,1.3428838023848853,-0.42385677218465095,-0.312241744863152,0.516940891787501,1.1752426008648051,0.2161617286261232,-1.362710436477634,-0.5034842159000135,-0.019855137125667277,0.14979155724668272,-0.8174458401126106,0.4754568082855054,-0.9350685662372618,1.9188631295094083,-0.8727965701518857,-1.2294132736828736,-1.0061617039281063,-2.2384922395988394,0.3332885495960473,0.459511674438005,0.8449010702159863,0.07733307787113285,-0.4949466125001146,-1.2635401775433677,0.46344598330274683,0.04575494094889402,1.2726987927985278,-1.5364569016245393,2.0958805569072085,-1.0642709383333737,0.5003336950850544,-0.7490869173103204,0.356481644371414,1.9757862524585632,0.7348917164260796,0.8132736580614564,-0.6091786578250424,0.40620376028985605,-0.8151514062755452,0.7126222752487003,0.28419486918943293,-0.4750444858008603,-1.6809956935032582,-0.1961840502918925,-1.0701341332670726,0.5513735231788032,0.8154812903420844,1.5240903310118834,0.09066907598751243,0.44533793460205406,2.239986451971939,1.5256679056693736,-1.0705484796309193,0.2913025100777105,-2.0566559284411396,-1.0470485449859397,-1.6609259079160634,1.3151032542687646,1.0074859623512886,-0.8374756186683348,-3.188470710217673,-1.3423730035676171,0.2561616752142683,0.32802747508438346,-1.7605441723044244,1.1467097938023978,-0.9491184797655224,1.096848974599377,2.1433952912460894,0.4991339618894748,0.23673368255870267,0.9448734798688468,1.2145994608932458,0.35525255761986013,-1.4526891128324975,-2.0591097252872324,-0.6742812625658594,-0.28788558461369795,-0.9442407540620239,-0.47548067834544483,-0.5847103101103098,2.990416479203656,2.1961948472671464,-2.4337579037418036,-0.77823765061889,0.9124218029688387,-0.7097393809245646,0.5898137313841694,0.6553397406427974,0.7732431291608554,1.3672358343026265,0.962752789676097,-0.20610721746175387,-1.674702510034836,0.021770322909890904,-1.0389233609721789,0.6599964227904517,-0.4279991593195805,0.3195794999233978,0.873549321809622,0.44188574455659785,-0.06495736756527393,-0.34966912556112045,-1.7299026046762382,0.20748485479740822,1.0311050077348785,1.6370179644080154,-0.4565466148060133,0.3925556431469846,0.38024429368854457,-0.025437423712800004,-0.27788645922246,-1.5594762989945243,0.8967314794856028,1.2078903812023707,-0.8596613436400304,-1.3890517944184713,0.09627360575783414,-0.48088805954813946,-0.38942368400282235,-0.46787506849738997,-0.7923843047413,0.18180065035751053,1.0896878262763474,-0.21588343145360156,0.35071631031639056,0.3051698432988478,-0.22388480546276845,0.16549439282831788,-0.5600564632245767,1.5524758414548283,-0.49765866979851336,-0.574065947354222,0.9529032617045992,-0.9338278757420488,1.2192278051684098,2.2100343543842365,1.218988456897102,-2.227061460511316,1.3040197630134345,-0.5828976817318766,0.22560212436961272,-1.0550181396122427,0.6685327141551815,0.18241373150615714,0.3214643947709175,1.608940964861076,0.18565830179019807,0.5300746733233055,0.12374423229440788,-1.4311589218486647,-0.597328214134415,-1.3899431302174465,-0.7810680536479365,0.5294542161954516,-0.9392682560563087,-1.1503711030409713,-1.3940971516586673,-0.682365297865349,-0.35992913195452436,-0.2779693407926229,1.4182360001013563,0.1490551345753517,1.162497316016043,0.1503938316980861,0.44488423954821,-1.3464651137634587,0.6993959415510442,0.3332353372589278,-0.8992704167529436,-2.0561869277852862,0.24082137189413852,0.4153152914633281,1.064416604751366,-0.6436037785751161,-1.2459200337002905,0.6134279879606429,-0.296769302359506,0.026382983737543383,-0.5287953766118257,-1.5784875144362152,-0.7496601879325238,0.0643950311226628,-0.18218512469522885,0.3978516693297312,0.1744645195942766,-0.42352728913504956,1.3037946620192022,-0.9661078545716906,-0.30040964187232655,0.23199061168633203,-1.6305930775557542,1.3497770679708498,-0.31685334799999326,0.08268405250667418,-0.9748926770003178,-1.8812430025679556,0.34933743745424,2.1974277540173173,0.751028718048755,0.978896585339361,0.02133068268590498,-1.0602147791206136,0.5860873313065662,-1.5273713074053257,-0.04708899798438401,-1.4341178717997716,-0.42433627514667493,0.8435618534001553,1.384022406920538,0.5335085837449908,-0.1668943394379068,0.31195427545192783,0.11756359349119033,1.7046546301652614,-0.7486192589756693,0.009985058293434046,-1.1433365589238806,1.4920877102945482,-0.8645095520418371,0.4928335922444044,0.9652898260959061,-0.8911171680848042,-0.35722810436864794,-1.0737257198753802,-0.168383438469672,-0.33446074212295945,-0.4909721834757301,0.40469830704513277,0.4944676564180601,-0.4874790260371437,0.25209876482499594,-0.06966225657530978,-0.06223193498373019,-0.013249039097378238,1.5411161931594062,-0.24671389609456237,-0.11133552589959979,-1.4642960002480176,0.3142610528650738,-1.653164142114877,-1.0711134264625348,1.7273138748508268,1.1009776379897287,-0.1513130858907816,0.09558063655606021,-1.3083359337191485,-0.4922603146191234,-1.6696649575519245,-0.33186488147734167,-0.3104667302227639,-0.631855114072064,0.9605882051232233,0.3951033608872113,-0.6167563630879267,-1.5776736500831872,0.7399598514076033,-2.6671325410030513,-1.2647149336107864,0.06625672023317254,-0.10548049893164178,0.7963708872154447,-0.3546135460386852,-3.07006636593534,1.011710339400024,-0.21012282728971574,-0.11334364573364258,-0.8345223920484397,1.95964901064093,-1.5137900010561178,-0.5694741519265313,0.6210741409474011,-0.06738883747497947,1.1161540907719614,-1.413352155687932,-1.3240766109136812,0.6239228833265451,-0.7946570849943644,0.6383125882778364,-0.43965464835061,-0.03691679227902253,1.9207333609626178,0.999374595199251,-0.7910081073709533,0.4792412438751726,0.8704598582104386,-0.5987700379358235,0.047083053803521936,0.33970205351195026,-0.44852722878009205,-0.7325156351152571,0.03329235666688796,-0.09238752347789929,0.3750346004778214,-0.460503803169587,0.3252894337649745,0.5043594897031791,-0.947929122785395,-1.2175748782511684,0.3671813257742355,-0.12440396704617585,0.5221941566659943,-0.47925713315607255,0.15854780945355468,-0.9972828288930656,-0.8547891193871344,-0.044228723428796586,0.03516122758610044,-0.532778800184589,0.578332525214818,0.38834825060823464,0.40599551502673437,-0.5193440611492107,1.4922208291332704,0.14019616835235385,-0.8936284396436474,-1.1408999580224903,0.6597837262445211,1.009446885096597,-1.3376169433475351,-0.31899207716542993,0.3529986005062196,-0.7837616158534256,1.3179883395147312,-0.7298187613489067,-1.0574518146071281,0.5106347998262162,0.8079195870383402,-1.0541968460768285,-2.308937894025497,-0.6976589414822228,0.7044486420456055,-1.1261911122828752,0.31711448275610876,-0.26746634033112937,-1.4977749321058407,0.07045054743301199,-1.0642752716038157,0.3534602009589268,-0.3136945817194808,1.1097848760651614,-0.5418093221530554,-0.9220946698058612,-0.41624911023992345,-0.7041347249589445,-0.5659885471088443,-0.20445872135746126,-0.09337077312180596,0.7977622442159811,-1.480116418117933,0.6184568492702347,-1.066905863055651,-0.3128784823867929,-1.027672021221056,0.20314759026305826,0.8332851448549923,0.4978025452807424,-0.9907746947644567,0.9244121113850707,0.7248389792479534,0.96360346339376,-0.9427155345216127,0.5887802224258252,0.26113318723617446,0.8797914145061589,-0.4713369260603859,0.7270529754884185,-0.020715936997610658,-0.9613550213030174,-0.10380434583874512,0.5229379020175079,0.9946198638791367,-1.2761581055781728,1.2528108369412023,-0.907631740061119,0.39046663349668376,0.31810364032308014,-0.05061495885942096,0.6985286898165385,0.029281012513915895,0.023164964162393935,0.3653053613114793,-0.8210979231278732,-0.28664133321271174,1.0626175607058401,0.6377466443064581,0.501407863150772,1.1421722790208082,-0.44672063595751677,-2.149951239891303,-0.3657498878888408,-0.30571780569583074,-0.7975847576471568,0.3520018409373069,-0.6517495571801675,1.856599322178096,-1.1023781653718066,-1.2803033321408652,0.3680165030026218,-0.8834635823027859,-0.746886567968709,-0.203216597713366,0.2835197855543603,-1.4955925689649279,-1.1245232789139172,2.056979061996254,-0.9495918339259569,1.8396849998080353,-0.47001280430524994,0.042708038427700934,0.43789286562950375,-0.37358000304962624,-0.3822709684271073,0.4514360531952855,0.03878763778664739,-0.9665605593711768,-0.5334600702276815,1.2554981604874864,1.0694752560045968,0.9986738992886979,-0.5465680912024122,0.85607150831774,0.7266557214033897,-0.757358637056344,-0.19241438798733593,0.010848179501114738,0.790086727439016,-1.7577450028297326,-0.28034964466788226,0.5979795101296206,0.9366587487685409,0.1390628562509211,-0.1767115660419441,-0.9535224574734347,0.20753482595151365,0.8482033110829106,-0.9347170614603927,-0.4895952104633065,0.29564308232252684,-0.9875603015758984,-0.8367690297598617,-0.3592510758812432,-0.39122116890900416,-1.374303079669914,-0.9261539213676238,0.9726424036718678,-0.18296952941554667,0.9719573043188124,1.4981563077042184,1.153221130556279,1.3983744412651384,-0.7931440464533925,-0.2679162094058148,-0.01192013427785915,0.8391629600029742,-0.3009025265001046,1.526863653677348,0.7944651131383084,-0.2711599640884635,-1.0490227399135532,-0.5181418491098578,0.37597858170000303,0.8045233403209181,0.2528734417741672,-1.0268139095499593,-0.7980224054298127,-0.20633751584272633,-0.47812132841659305,0.4944387195382763,-0.94503968373542,-1.5937737929964353,0.143850745644131,0.04280439207908668,-0.23230031489413072,0.4347384764695107,0.6956905282488508,-0.7749154891924573,0.06342900243432924,1.1450538746879522,0.874649418599469,0.10915714875640213,-1.6494166212543884,-0.2043261862532896,1.2001259126307664,0.5490435984937423,0.42405737144297295,-0.6976197837628402,0.46971905983095275,0.30627380583095803,-0.5892190141934401,1.074617631673778,0.2638300876141874,0.2317744654269698,1.3909641063358076,0.20567700740270545,2.091633660825974,0.4046232217352093,-1.1208174739598002,-0.7133480286331714,1.8779281017100207,1.2886008568843739,-0.2958737515775698,-0.5160837916881154,2.3621129597299935,-0.4981517837581017,0.4029127739309139,2.642592348992823,0.5488522962872127,-0.7187412629381232,-0.9998184532882884,1.7681009969749402,-0.04352023531130006,0.021539222701959022,1.2597074069008678,-0.06057236251631952,-0.3053393032335202,2.021753111342648,0.9914218771431428,1.098499463950549,0.6001471428738571,-0.6111454283434337,1.885626174800384,0.25851789080566806,-1.1659236321514028,-1.2118680907927069,-0.928014939930088,0.6218621441129327,1.8678494616138681,-1.4916650336572825,0.46030446961158406,-1.1512482085290632,1.0657196959383546,0.24925330316147437,-1.5938010455051397,0.6285471683995575,0.5822271026701109,2.1145501854057516,-0.42475783623449925,-0.4019951155038259,0.3846712858405647,1.1282877709179207,-1.6544403153684928,1.0021162001473864,-0.2778482906069128,-0.035064463227051694,0.28520239091148664,-0.16464715595805357,-0.6583686411092137,0.3588963111487145,-0.45546459461544564,-0.1895232353607552,1.2123301930347639,-0.07749619643666678,0.029452443406865154,0.06700681450648659,0.19739779367899682,-0.3230018279336474,0.37791405367853387,-0.08605234231780783,-1.3283798191925875,1.091304151117375,-1.3083339707589785,0.6096040514692864,-0.13569381523831345,-0.916578787729861,-0.5410364688443213,-1.6119277171624578,-0.035747747203575576,-0.6601535495516091,1.3084960072644678,-0.3696147873840177,0.13249832236918468,-1.5740892349655702,-1.161756455511297,0.8202636619435686,2.210096953004696,1.347003648546363,0.2424175094618189,0.45544536980638334,1.0861341056547738,0.6143868676439627,1.5292161717034438,0.13918317860847432,-1.1352817949610532,0.7549339223556846,-0.9321671938773924,0.39838160895465924,-1.445356767651705,1.4963694878957021,0.39292773287587146,0.452360137362569,1.584975171869497,-2.1067820770078654,1.6070296461388416,-0.9713150236791426,-0.7226397982418954,-2.137253543977096,0.9069818409638709,-0.8746965515272221,-0.67519738178935,-1.443074141644177,-1.2030458162595024,0.342940145000492,-0.18688619699535416,0.04763774997827696,-0.5366174193471699,1.4076319010458362,0.11515373911592301,0.3448414264944414,0.8847577068340834,-1.5682982128999572,-0.6548933481645198,0.6264867443154184,-0.18280288531199895,-1.0970916197314586,-1.2844000230175716,-0.6316905581327175,-0.3511844396724998,0.4656681221432114,-0.038527998949321615,1.0053675706457157,1.1065956349809571,-0.44698229341657825,-1.9729696660148373,-0.13669526836175072,-2.4796199754717505,-0.3993606560747919,0.499767339828587,-0.14458571385968305,0.15227036001548924,-2.078087889075691,-0.6951590125061883,0.8265203373360753,0.338908724049173,1.0467492532630205,0.4783485350524928,0.16514158891400443,0.20784936000251092,0.14096567340203492,-0.19213230717069943,-1.487475945004718,2.5494680531022706,-0.33956863831456685,-0.0470493767694869,1.356029633348676,1.3342196660897672,-0.23574274945720197,-0.0400698989724242,-1.2225271199568153,-0.8203375171466777,1.9706098129294187,-0.29743448798326055,0.0032477372961439155,-0.0615751761463759,-0.27815326894929143,0.1542859356343764,0.7510567010038064,-0.2872202929024859,0.230832467430983,-1.2177032403874364,-0.6486725154979345,0.1774418096810851,0.5849967972198075,0.18868676341172275,1.6347623103506703,1.3390644334847837,-2.0853301877598724,0.25350036170296264,0.5848563111293883,-0.6597233856516519,0.2241101751589084,1.2192095509041232,1.5559754986540215,0.9854060573331925,0.12910810600683442,0.09909534893948346,-0.5210061593582475,-2.162007134385656,-0.8016533332027758,-0.255602139056824,0.6131966786399942,-1.5442832052174618,-0.13582664230397848,-1.1129603607989795,-0.9161712633732894,1.3199444997470295,-0.71692950104312,-1.3096754405896047,0.6046838605321198,1.1287807186313965,1.0825413869543892,0.028741443370502745,-1.5864238134247757,-0.9062776920399629,-1.0894607128613334,-0.9524034910360816,0.35563976933692787,0.9273805572204158,1.0752400573198828,0.09059707070075208,-0.41316794099542614,0.3639174319122686,-0.31670753031319054,-0.10459060623510048,-1.5727708708238128,0.03581938597815095,1.2918290260874072,1.569710940582161,1.5810514504733055,-0.5448577510291233,0.9529982841152383,-1.372799807547818,-1.1085671467367293,0.010402582883793891,-0.8869091865923879,0.27788284467529184,0.05638970036631757,0.48189253320520603,-0.44657836480649515,-2.2919841319452017,1.0009299191246062,-1.3181899913789525,-0.8336953087659001,-0.29316798351289813,0.9957868181899796,-0.054656822047364884,-0.5543492675885977,-0.07058134601152477,-0.09421514220054704,-0.8489237416457809,-0.39737252987263016,-0.008445921785817366,1.9269667917680584,-2.301247133994304,-1.0947507396161635,2.839441402536302,0.23704105628006455,-0.8931594797626223,0.12417939490954821,0.5152659181822125,1.8086713563852581,0.17766882707931864,-0.5861574830201879,0.7480928411004671,-1.1936752909273445,-0.12937575458739017,0.9105288141820272,0.18099904945824044,-0.6360400631441406,-0.3457799433030205,1.3377025482238465,0.5475117001946367,-1.325443379140591,-0.7418332930467034,0.7390524022119068,0.11045547901856795,0.23668918678667789,0.568126529618916,-0.382791763081874,0.8235191190743777,0.9345245432864464,1.4395465203625397,-0.30145740818667477,1.1316881980238127,1.1735758359985529,0.1267818728971499,1.31603754692467,-0.2153829974740257,2.185185233128713,-0.6335196734845004,-0.2210370963577531,-0.9029086879332391,1.214496041518836,1.0746002976195212,-0.26885717542973137,-0.04065671424392549,0.5686070816623633,-1.578745115519536,1.4199656658994715,0.6221743994682134,0.994603742703308,0.25587886641195595,-0.4385916710286661,-4.286177191972429,-1.0467322784779813,-1.0079453710731068,0.39504987511812995,-1.864721501378967,-0.18752218112767868,-1.0393376931034068,-0.8365923660221144,0.5118164084619408,-1.1351556770710707,-0.8776348185423266,-0.6397778007714485,-1.2122472148400774,-0.8086175465931217,1.8955445001956268,-0.46311109474704887,-1.298538396218692,-0.6766264461197911,-1.3833975813561834,1.2806166467941895,1.1419816704829246,0.7250594901061769,-1.7647954765647826,-0.42418213535351884,-0.5886976508060204,0.5510866506903525,0.7268170741546639,-2.3774786906792857,-0.10670799349186369,-0.31849434469528487,0.1525000705797646,-0.7407640459213564,-0.7553105448219054,0.7861204280556316,0.782764959539482,-0.4183526829263286,-1.2341187078608051,0.5531033558874437,-0.3280523782824643,-0.19524487081989572,0.30355664791863085,-0.14361521579774422,-2.288466203933744,-0.153467381641923,1.3052149899996368,-0.23996536925891976,-0.24611838430134486,-1.299340368098915,0.6742041280461892,-1.7580380016955548,0.5832947897793118,-0.27903105505875025,0.4557584249297944,-0.6995703291057142,-0.7499941852591396,-1.3249009658286153,-0.3442682260216945,-0.2622099315458473,0.32728706497258114,0.9050729363601189,-3.329044664325083,0.11076542341618172,0.23402885801261933,0.19607298161255765,-0.5514322388694334,-2.387767645591222,-0.3445858992744499,0.9297948753517992,0.42437252108956486,-0.7145079898408712,0.8811725132163424,-0.6046059305932205,-0.07254741170643966,-0.26688746662891566,-0.9057215838611452,-0.8252488942808685,0.7700481743577487,-0.9485960945468042,0.11113644306116044,0.11377790917004206,-1.7485315916090762,0.19738314740952276,0.317003466103954,-1.2482719187567972,-0.20246432307463827,-1.1567792904674254,-0.1309999268134014,-1.1989107804227388,0.2926318021662964,-0.27751342740367696,0.7823060607168466,-1.2211513120519295,-0.19007311515123748,-1.609198530799836,0.7417596668447415,0.41147863041140104,-1.3075795428356851,0.8206044168993878,1.0656543427238956,1.9493362331344322,-1.594813059333235,0.3499381582116713,0.14628545154263173,-1.850257919212218,1.1528246497744419,-1.6169121172514387,-0.3910466807210105,0.4622923666318078,0.3908670249519582,0.03821622967097769,-1.4357542418761695,-0.23288900646465635,0.5715995113674041,-0.08972049473745407,-0.5283057141470004,-1.175726567955075,-1.6713503590316183,-1.1771402156175512,0.7846300474744449,0.078966174047131,-0.27499661547351756,-0.0915228361977469,-1.7117871519850303,-0.42705254659653014,1.8438196453830757,-1.0152212424810698,-0.13630692908209077,-0.8248076723398946,-1.9270644743673604,-1.5291559696085795,-0.1867740202355865,-1.4613058736335336,1.7948532681931366,-0.40402523151759,0.2623470675563883,0.298023853498456,-0.44559651305645837,-0.41971905150026484,-0.2154416163368475,-0.35691985606522864,0.2781971554955542,0.6813698582335778,0.5773090696128215,0.46354887345032414,0.6795360732191231,-1.8719916887474224,-0.5749626206927383,-0.052164693600270644,0.04933938647066776,0.484244730169033,-1.8383431575872704,-0.4010999554795777,-0.5574894078711324,-0.44747959198252635,-0.36327707035979,-1.8660995090374715,0.39183926366029753,0.8494707559976786,-0.03177908024054857,0.46510958644142203,0.2307411414436048,0.4512994662055104,1.2272069385287583,0.2453107087863717,1.0978752843904738,0.40205647573748987,1.777209638299114,-0.015156017877826016,-1.900654512745906,-1.234950288100844,-0.4836762436318475,-1.3928542163559587,-1.4754702902557726,-0.9211780519502948,0.5918741631761613,0.325158955281179,-2.5787597396124644,0.8233794714855218,1.1414152039141543,0.23381831981295179,0.2937187827720633,1.5393757729631428,-1.8798610109714673,-0.2358143890302998,0.2583504348555554,0.7830539449845942,-0.23514525649467713,-1.7027143255943944,0.3381643603259693,0.23107825115166547,1.5883182024432632,-1.1744094306139248,-0.1333377159380738,-0.3841251313347298,0.7902699365970737,0.4189549463702373,-0.6898448845317672,-0.36281046287804974,-0.8711764835929985,-0.8043764389996123,0.10796828799962045,-1.9489008783069615,-0.2651346917765554,-0.1380051300281241,1.143728337466093,-0.19067105527920625,-1.154776164264518,-0.10864709301683387,-0.44915529427092993,1.0595800228210295,0.9659246563162426,0.05785810964933736,-0.03661231397205537,-0.6039439028244866,1.457667663687642,0.31603073478322286,-1.642439504668929,-0.23786954043607994,0.7114374639503958,-1.0974413597685642,1.074984626467376,0.8804061805633964,-0.33390222536618047,-0.1704993736670207,-0.01698215247469128,-0.7874630239882903,-0.8466658565229217,0.47868530175707447,-1.4029780598506667,-0.04788689267944882,0.8052792752285833,-1.6105234076024155,0.6021133969797905,-0.4608110965614334,-1.0111888025078402,-1.2992657922535666,0.33035449209588313,-0.6760000068016068,-1.2230262419311273,-0.705268907509918,1.1854122119576815,-1.489069188478779,1.7116471864629577,1.1799851186674768,-0.06585980837626702,-0.7733594805123567,1.0614368923565445,-0.1808547984045546,0.005693835040836373,0.02945214671065994,1.126883469847095,1.1456344171799506,-0.20325121191723505,-0.20374334838654123,-0.5091515077188004,0.8675432502541851,0.2978851389858516,0.8722377001119551,0.19311308285870749,-1.348516664543668,-0.9931274042301903,-0.0015943730554123321,0.37551616262266546,0.9949564787809135,0.13549301388059803,-0.27219913881460056,-0.39402266975109984,-1.6203373521350675,-0.7579300336434394,1.3239052292446722,-0.820636666932396,-0.6567420460404355,1.8249153452528646,0.09606887396047488,1.3746485713880938,0.18954666206803014,-0.645618111621337,0.5280975008793644,-0.8697947277510966,-0.1322069752941568,-0.8275068670317884,-1.0132821139758281,-0.22102892093913837,0.2982401353888731,-2.003206112074595,1.145648959254075,-1.9526782852629996,0.9376799695810694,-0.6359573090612793,1.6666603946549812,0.7001764316398791,-0.2897386438266837,-0.08435193891027769,-2.6759925879806525,0.4252444925264212,-0.958935387875723,-0.4402068841236522,1.4068764642769467,0.3890199982446741,-0.9289695999137358,0.8712494134460845,-0.8758719686499827,0.8617747777417248,-1.2465378269525165,-0.16456358833430074,2.49212877291531,1.4160060954076064,-0.43643174725823775,-1.2395722900317592,1.4028848606459756,-0.5322052050028007,-0.8160782795252394,-1.8199852144952884,-0.5382412012177621,-1.4557498691460862,0.248535363859539,0.14135866737466316,0.1886817523151365,1.001334886924836,1.0100727030142267,-0.8598912627206088,0.9716306417873667,-1.058550527711307,0.07718359236097178,-0.4184347586367405,0.1331721504503365,-1.4843889690780447,-0.3089388799235105,-0.28716891236632647,0.19987976132844265,0.054164826799799774,-0.3603304077257424,-0.15488315540692957,-0.7601068284777686,0.24188915698674213,1.14881558689493,-0.07507018273014704,-0.8422066225439139,-0.06318486080314734,0.4860974460318175,-1.5406395536912287,-1.609092770736546,-1.401460305093071,0.9922365121512379,-0.005058311367016367,-0.35571695761347394,0.8008473120300963,0.4341440950309042,0.10266129295459021,-0.21628129182298322,-0.8262492947113537,0.16250817543174328,-0.055802869668726364,-0.07085440027209028,1.4043338420381564,2.3403543193536582,0.6614810593572646,-0.9013731567006195,-0.7048286395351389,1.5196092675631978,1.5524384879657065,-0.5107966889859985,-0.332048724105808,0.13575252566746152,2.1558965895066007,0.9254965518910746,0.561049380558932,-0.4609071646201583,-0.2555792885991351,0.21225163523740623,-0.9749925823607709,-0.3510197305965481,0.09587011865681816,0.8472243877685129,-2.0069895621175866,0.6073068693061671,-1.045477918943458,-0.8149927046373425,0.527446278219884,-0.5026355089716888,0.7818923394178743,2.036440071847038,0.8802574868159055,0.4564947504964546,-1.697474629056245,0.3047592104732053,-0.2138875833048422,1.1451372196983878,-0.5222451320509065,1.0209480309198606,-1.100216652007569,-1.3618871401788206,0.34632214541272927,0.7345274499985999,0.9897348458301999,-0.3866301839598847,-0.9447810387832004,0.47020596882891985,-0.8197820282167149,1.25404306230658,-0.22025468962745157,-1.155043827827944,-0.23647746430035352,0.991580160739352,0.5174689302993691,-0.1143861214781088,-1.0228230857469502,0.43525865793138757,0.5252851002440694,0.41479861644507027,1.4292532203283919,0.36906997474129066,-1.782186886042108,0.9032069261129047,0.05114359401673443,0.11359676706147094,-0.31941589058692094,-0.09506284988921439,1.6567778343911763,-0.5494904216442107,-0.18549047979420774,0.837474442537669,0.5642134555729663,-1.5674803224583946,1.4968254905986187,-0.3662924989275592,-0.7495480913213777,-0.3683245518428935,-1.06878571904818,-0.6257133181795204,0.028192992135352927,0.08611263564941726,1.2457484434880837,-0.09436537094343375,0.29033621608138555,1.2477281377418,0.14746490965838704,0.040730977472594534,0.2204079615762296,0.383540616954662,-0.10978634716970057,-1.330283380829278,0.7894103791630436,1.027117170818415,-0.9765625708474327,-0.35069270708196537,0.254897599525736,-2.1189463289445776,0.5623562506768146,0.005911222714267663,0.40022204320542226,0.010188647301274415,-1.748225441966713,0.1919714666874862,-0.3246529466486591,1.4964713221124066,0.2219525851051995,-0.11555236320598296,-1.7010872050093035,1.8523314005075504,-1.9448193179797817,-0.4770003729567654,-1.2082909234205195,-0.08781820894236719,0.08602705318321535,-0.015300044944254744,2.967614870985969,-0.47242806171579815,-0.33909317067334954,0.3122969996658706,1.5131307373764271,-0.1455472460196194,0.7799867627400568,0.38984147834309335,-0.5152620744944766,0.16274746370899135,0.8077771543381926,-0.5552659870960136,-0.2923735007386051,-0.12437190356274157,-0.9641617536325581,-0.27821756905197426,0.7231607049771608,-0.7285422298567966,-0.4408808827758191,0.7676828605362501,0.22706735404623335,-0.5692859770001039,-1.3701402758922956,0.6443793095832346,-0.7699489970443628,0.5350538381337311,1.8760783288381802,0.21706602887678159,-0.42822483223703073,-0.3421800998408461,1.2041246071153262,0.5360837416500074,-0.35685603384093645,0.6112824680787264,-0.10568501051917824,-0.5915453083965337,1.1935393298622734,-0.23162103393705294,1.1279687529033278,-0.7556106810002429,0.6504415506897749,-0.4724890998900114,1.2969840618139543,-0.2726043232595373,0.6196608791998701,-1.882133780108382,-0.7044664120512901,-1.2977761716117913,-1.2297415511361849,0.3246480740255375,1.022324162234226,-0.8349984062404419,1.136395873026417,-0.08599944427433723,1.1154004142071972,-0.4081270043050046,-0.9599258090373219,-1.763865843634027,1.1442816545927446,1.4090585520064864,-0.16043512121210265,-0.8243585836909678,0.4779758861511508,1.663472262882677,-0.13669303298599786,0.26516808692279453,-0.6715617419988557,-0.735968415726797,1.1304553921786775,2.040079340277949,-0.7989328846099574,-0.6203239678361616,-0.9135323074496178,0.06905978804753893,0.1177879438751848,-0.9354202689121638,-0.4871381686070442,0.06553488352444929,-0.23630228989021274,2.190669604677962,0.8105819456385055,0.8404213903967699,-0.14391084132920318,0.41044220009191756,-0.9522431565737137,1.0540224977991528,0.1486712217703511,-0.9431105287357164,1.2242232108395639,-1.1630204930379213,0.7703490176692046,-0.5285412523432795,-0.07077700562100117,-1.2903960096758327,-1.8022833036564916,1.7344445723595485,1.4703098318945327,-0.07340042110587951,-1.0135915108217146,0.23234610171557019,-2.1340002239558897,-2.6582084594056616,-0.35148090782263786,-0.1807114418950139,0.374586085307211,0.21578517918896695,-0.7035145573513043,-1.9088879924890874,-1.220913315683771,1.303259445721256,1.5735972134060145,-1.759583361125477,-0.22805421672224943,-2.0768802216520177,-0.6299912388945511,-0.4043328060427709,-1.9257967836258407,-0.5946681947715848,-0.7909286256854189,-1.5229560425375193,1.7300368790063418,0.8468958906079738,-0.11758983129092138,0.11326084188891375,-1.4029746693169287,-0.42903685557767524,1.4342520235600744,0.7501889612094471,0.78049689582696,0.47170192545831596,-1.4184996512454346,-1.894802813879748,-0.660811574842279,1.679640075017601,-0.95534073513871,-1.503290428243393,-0.1407024050937102,-0.14186497525810562,-1.9900293814151728,2.2896806901065356,-1.3737115494848846,-0.8954759709303387,-0.08762447377917472,0.1160420568154654,-0.48950614904678147,0.41693091513182495,-0.6330793971628841,0.6252051597673836,0.8489910844313279,-0.10870691779769749,-0.9299423085738961,-1.3489156468866212,1.4672818748529597,-1.0382220578017736,0.1522324118828694,-1.0515443748539495,-0.8039048877026895,-0.819875224550616,-0.4426686876412074,-0.1471237166304496,-1.1304143694885307,0.5486102964479767,2.0116103963544893,0.5170517530918313,-0.6544908810944974,-0.8978233354254123,-0.15691704507519189,-0.3575525296729524,-0.5665188208858113,0.5234947796859656,-0.6629461745330385,-0.8748868957707725,2.5797022074033173,0.4441516947081875,0.27499444565443876,-0.455054807571537,-0.6839802485468778,-1.3406139318101264,-0.22685949107254555,-0.06450150064067114,-2.12050519256317,0.3211401407654784,0.5329306652490227,-1.3377292676731736,0.7746408779913644,1.070993228138428,0.4331857422682513,-1.3182662843362165,-1.1447241132137835,-0.7613719394746082,-0.5765440818882984,1.156586506133178,3.0689508139666777,1.182836594805097,-0.4861835125034318,-0.3864894686821838,0.7736747793058975,-1.6561261482247032,0.14125846256043756,-0.46464395461517033,0.9932900218439076,-1.1242907801355504,-1.208460859081406,-0.33844016953189343,-1.8532202696296285,-0.5959898555329601,0.29195651656606053,1.2655554313019293,-0.8161124372455151,0.5295700443537043,1.6788646711350268,0.03432125027123711,0.2768708655985745,0.9196065112088967,0.44257560588203954,1.1416357350541482,-0.22173724564131417,-1.3314656320905873,-0.9528263636034138,0.3128457226067042,-0.6788880323430161,0.13448384528459034,0.6921886464699472,-2.0483360366652157,1.3493700385246135,-0.8004265808141673,-0.23462818841559938,1.2019451256406484,0.5326054330370033,0.20712363649998786,2.75368008263228,-1.5966324150245843,0.8887696685518707,-0.9772480023328363,0.5360964305636657,-0.21679321935675688,-0.2677918983176197,1.051800113683207,-0.12147719207739048,-0.7423482115967919,-0.850671848033821,0.08039368493552831,-1.8142915945925522,0.5282277752552431,1.167765831424978,0.3923053559535639,-0.7922257165736803,-0.899001542570082,-0.005475818347176681,2.116705749148143,1.5033804914608686,0.9452230592380052,0.38626018041174426,0.8902276131349024,-1.4038355485638212,-0.6840082842552958,-0.44631702777509463,-1.2215720287534457,-1.2637185260245827,-2.582502818372754,-1.0640874991664324,-0.6099735226941303,1.781991441585363,-1.2327069983820453,0.4083968741485153,0.9878745841632676,0.49284631605730556,0.34997049321099954,-1.2341783227727463,1.0511447545604862,0.20728470229167173,1.1927462730844274,-0.7101362173329206,-1.2198562032671831,-0.17458828528797377,0.6326025749958655,0.05895617568556711,0.5270656383318197,1.1974496067189004,1.1588496137274091,0.39797302789284816,0.02260832264394559,-0.6807785138204113,1.1079736360366434,1.7556494682771362,-0.5560841118838391,0.626042906365154,-2.05723116004058,-0.24977316497152183,0.2717362787713495,-0.31263415660739174,1.9864852959510537,-0.8104103158187689,0.9674755994432291,-0.37879170008736934,-1.1420168563892752,0.39028468300487296,0.35721249856450477,-0.4834204275791973,0.236078625940917,-0.3380262870989315,-0.33408184255664647,0.0024947042695444865,-0.11831055006448192,0.18829805687316772,0.05230032682879855,-0.6244564617345965,-1.9830180060289921,-0.8313123242087171,1.5891917712448693,0.9529480523732852,-1.0327277496779477,-0.5582462074094078,-0.5485580284666983,-0.036764989708915424,-1.433560792800687,-0.9494242067347347,0.2416812641166831,1.228784403956868,1.519545823280819,0.08517853412385304,1.2119457662077833,0.2915358742293209,-0.17220489014491552,-0.7728138354230467,0.07896756463802826,-0.9033931414960634,2.091145504328404,-0.8227584123667226,0.6642182343251847,-0.568899089018448,1.4594977113142171,-0.9675104902332269,-0.047060310978795795,-0.22353522143002863,0.44265020381437026,-0.9540480273485015,-0.00034445070078094087,-0.017040684786494297,-0.8012260864451872,-1.045645550237606,0.7679070508177296,0.22146710200749875,-1.2363601926944283,-0.5699794202484901,-0.7703717026030362,-1.9731923671283644,1.2502349302530267,-0.16898351034264564,-0.4603035270541185,-0.8100288354227072,-1.7605845229694348,-2.219830180387173,0.8408620539905374,0.608244194020277,0.4986273600975581,-1.100030565429428,1.5420644299441182,-0.6443249225065982,-0.6357298588857881,2.8333673424949057,0.1342743373525882,0.5633515591885212,0.15779143167673082,-2.510098133105662,-2.576940747669881,-1.3294867051351098,1.0869481034375055,1.6272044902900231,-0.6616707758163423,0.8302296682531698,-1.220303885406969,1.014984880080594,-0.1579599990216589,0.14239302224837128,-0.8032834444821481,-3.673380343465613,-0.8457265593184339,-1.0089652055360985,-0.616790964660928,0.08583276889701941,0.3825576342735121,-0.050560708014328694,-0.08884302526430056,-1.7233297879155134,-1.6767244641644201,0.30863677332561046,-1.3313634328461452,-0.22909258979908362,0.19447079273517376,-0.4332567873431815,0.8598358569205782,-0.16042463472107682,0.10397036906542317,-1.5121434502812077,0.1686197595706717,-1.0095488664052052,1.1667230343962727,0.9280311249661873,-2.8372961925080222,-0.4574698223993702,-0.6132878237870977,0.6678438337169539,-1.560460921942007,-0.6624135906376833,1.1031711517877063,0.31840058791794956,0.803777820048685,0.1611497398613154,-0.4072944564923692,0.8454414010403638,0.4307868084272701,-0.04653764315345783,-1.638933870149583,0.2727421383813458,-0.24586251588746044,0.49785058572776925,-0.32965099704265133,0.14462913800723626,-0.2214011976206983,1.053546507654922,0.45777519584534315,-1.2027626366748516,0.07655646518929592,-0.40300458965269215,0.37107038383034946,0.023428004014737408,1.5084863578945849,-0.9543139147459858,-0.21908752553653926,-0.9731199496836359,-1.1569370642600343,1.582544565345406,0.6037585852944451,1.6866443957147046,0.223083705005611,-0.9037426563661283,0.020291134231296887,-1.7705086172648778,-0.6941699366719455,0.4609737114322072,-0.26217899081624857,-0.18011306871291607,1.2691310595911807,0.08891082364935425,0.16862596209627106,0.04213013155024763,0.04351469379539268,0.24608433730628007,0.7606388899451572,-1.6108247248161456,0.9048063787961356,-1.0976664389113826,-1.3388494236828405,0.5671682443390872,0.8816854433769458,0.47359775265550536,-1.1727196891027305,-2.038173755678075,-0.8050967187378709,-0.8151568264004914,-0.10976356169972566,-0.735183706305735,-2.7067298974707494,-0.3027795179586218,-0.3616091793759647,-0.20856395088482527,-0.5609671718558643,-0.3196611904873021,-0.38157012843245347,-1.09838473308347,-2.813147977497619,0.014989702169383784,-1.944063596854731,-1.4412961250957042,-0.15013262150555962,-1.0612896394633282,-1.4773224437864483,1.0731725206104634,-0.5565115490554563,-1.481051166793457,0.06201743001260473,2.120874356891116,0.8909040725822118,0.4186005256265512,-1.0085158119761564,-0.19436500630170594,0.8726387930889956,0.3322559613369356,-0.8132514135386069,0.15547513145290154,-0.5759473267603562,-0.620521764360522,0.48028347359244083,1.1479655513794969,1.053344570883995,-1.4479200733404172,1.001243207652271,0.24345100019422655,0.2729293167957063,-0.547868073456257,2.684062092600279,-0.36801650102188466,-0.03436772168904145,-0.4376731829585702,0.6541787543279637,-0.14438299504350074,-0.3755822906409649,0.5658669520096007,-2.9102398091646746,0.5067661739847621,-0.23781236192438002,-2.2080147872734153,0.03940736752992441,-0.049503325084231234,-0.8830569632556654,-2.6476139778765955,0.08561810670072562,1.405076000949608,0.5164866902622521,0.46542853326182987,0.7008357908741994,0.6885705176428277,0.6580266000400617,1.1021951473321476,-0.5552695298556533,0.059802920972056695,0.7733721914000412,0.7699169953217744,-0.27875603642018487,0.6327044797268486,2.979162991560996,0.2329924733028485,0.5579889822898276,-0.03415108432234977,-0.18356891677259995,-0.686583554925922,0.735960928007435,-0.6994169487541139,1.5679948395385124,1.1963093916492633,-1.292608733266024,-0.17889357638482037,-0.46010770056003725,-0.3152842809571899,-1.2808924538257447,-0.9367576032306968,0.004173657624428528,0.5215153676686973,-0.16951406533332714,0.29717571908360485,0.15237516214145244,0.011180022078735658,0.8131136245817495,1.08176653214719,-0.4983238326911848,0.5047523048861032,0.5292582490497372,-1.3048344443429862,-0.3080081577320288,1.3742192845266958,-0.5255621874144919,0.9852408774146207,-0.41709417580808256,-0.7344057019735233,0.1605282998008081,0.538727010047157,1.841180139349438,-0.7977027986452938,1.2958202005020794,-0.42092827041176845,0.4283372461300751,0.6805918200359105,-0.44117050592778057,0.7064620555724748,-0.5983636454541421,-0.40031945607126485,-1.1560732575110717,0.6998615861755846,-0.2763419928475167,0.7636281889955604,0.26787191038701413,0.7957330395013514,-1.0232104589033004,-1.5286142619861318,-0.06908396231143313,0.9777290206841311,0.5612769541266887,-1.074599952618055,-0.37907868881964984,0.15008409418220187,0.474840778186243,-0.135460485159208,1.2572245143394944,0.6221787780213281,-0.15730302481723532,0.15329769223929113,-0.6711493947767144,-0.6294047653729935,-1.1682657489687607,-1.0257873099290342,-0.921820303961672,0.6542310941065193,-2.1270776724524914,0.38980061660379717,-1.1847780343964305,-1.281944925901989,-1.344039079772002,1.1900027119643033,-1.4516021135007307,0.4658016140983824,-1.3426361742478943,-1.2866508348767762,-0.3157062740335862,0.5675993326630833,-2.5001920886407993,1.7056778289421335,1.0061271772370637,-1.2812076734864453,-1.0172767390007909,-1.450495854630666,-0.871837516645821,-0.4517544577012883,1.6782629950116468,0.15816207161479598,0.5834348778131325,0.5177166531208176,-0.021056288876896766,0.6894246533144648,1.6100809636243996,0.39746444472250164,0.6142459971432811,-0.4843614978339752,-0.16067054382044746,0.2228827399384972,-0.46064617129186664,0.09887536089866546,1.0890853784759946,-0.5619313107050327,-1.4135430925490933,-0.8731427661974417,-2.468308076531545,-0.028235838701607917,0.5890078601543873,-0.9501363739075028,0.23862161035333596,-1.1593349110649183,0.07175207204604103,-0.1568143601183624,-0.43419284527768687,-0.9908224075788689,-0.20080687249365037,0.9948820743448159,-0.3038225194886319,0.6586231067101397,-0.3713712840604017,-1.2248568674765987,-1.5614942196767527,-0.2016559865697912,1.0152713385661822,-1.5393593566058532,1.9221604298798298,-1.2829271120604775,-0.45986522573332056,0.7209842909519666,-0.8704804001329656,-0.23624876788423782,-0.48439314312913734,1.0637143137400753,-0.5033861028568981,0.539053532382578,-0.6806981072772663,-2.1394931605582426,-0.856527870898863,-1.0967668539445767,-1.0272263582928252,0.28673681271366286,0.5387814129703064,0.05447198247990908,-0.861336441376259,0.006676285393958702,1.553680773792843,-0.30646584835527235,-0.05112223502864197,0.5646223476265164,0.03606612001702795,-1.6727461734805873,-0.3190538826500841,1.8965020505453687,-0.822564766645534,2.0315525436795867,-0.1367116663980482,-0.25404391835688805,0.17879618849807927,0.17340450862192522,-1.391096435393765,0.47030130605753717,0.906135453498886,0.31937446935887787,-1.334284467918987,-0.18790234944657538,0.6884145463675403,-0.7871727828136393,0.1423522975300904,-1.0837818378427337,1.8517345526199758,0.36393887110066425,-0.27421081896978344,-1.2063984223191362,0.7550977225736234,-0.2151926561790903,-1.2582743233416804,-0.09914049441885515,0.4919873199754418,0.120395496768578,-0.16583530303496175,0.90967992550888,-0.4796776841051438,0.13536541401514812,0.5891335438074894,0.8772891894629332,-1.0081703497547587,0.05035446851286954,0.7839025641456444,1.2441251016525718,0.004487011223103111,-0.8564713600298693,-0.580350308444524,0.7062495804005069,-1.622219467251093,0.728711318494748,0.6897551777689657,-0.6303134714920822,0.30980176813206955,0.36775236076823314,0.6606293784926777,-1.2943505049761617,0.9185834999459854,-0.7082060203471728,2.263890295280739,1.2889566721562231,-0.044466421014325644,-2.5029322213203358,1.0794742717400838,0.9668696162506696,0.7796742270610397,-0.6750967157187252,-0.5221989063794222,0.5050047045748092,2.0739959618613466,0.04369736952776166,1.726480813663132,0.5577120789356743,0.03680552582802084,1.098187239192497,1.24417541161209,0.4287162579410101,0.11534102421488593,-0.07446904249763665,-0.517938356325751,-1.0123573780317339,-0.9206999813680476,-0.694482686646671,-0.17488468507087995,-0.2807474017747327,-2.3003538029056663,-0.14825965891123496,-1.667826995531816,-0.6501794463294523,-0.03628263838826595,-0.529973463550002,1.0991266558682031,-0.9295236938136614,0.38251272091809024,-0.7486928428894485,0.5202137335057992,-0.4329766820768681,0.11597684703260015,1.4455528652378933,0.6488678547419383,-0.9831980731330325,-1.024557122843799,1.137445628387208,0.19491469029567943,1.1944856125911392,0.001508952477845882,1.328579824102757,0.9027643335663657,-0.6331551675733591,-0.948488719187989,0.3778651153848782,-0.21773471713392367,0.41409931642987363,-0.2723569562614257,0.047392214428917355,-1.9060264943440324,-0.9626047035642908,1.3002080549029804,-0.7115997441492863,0.03850348521493546,-1.0161407406708796,-1.4797098430654705,0.3984656875499511,-1.0859824601798365,-0.4702345071272036,0.425514944008876,0.14090798746065003,0.4744591003286343,0.7697505873595504,-1.9113315069330037,-0.3706279573823379,-1.5489175135956317,-1.298049930501038,0.7505004223438235,0.8464866128210728,2.2778067226051095,0.5426136899903219,0.6392107945248208,-2.825781899418814,-0.11646897214000354,-0.2119980417745843,-2.2498194919641334,-1.1736515478305045,0.3311904637504991,-0.3417897456332222,1.2902532117953875,-0.921164931611676,0.4110848508691603,-0.6923175545179592,-1.0651077138274343,0.5739080356685999,-1.4174291740965308,-0.29214668489013546,-1.191436938440199,-0.8390033600165415,-1.2920928454358633,-0.1589254400782478,-0.2432056719675158,-1.281350684164854,0.8078856963559247,-0.08459820023425084,-2.1770308721809193,-0.7401836797197221,0.8379349864527197,0.4242187033367206,0.01127578564654837,-1.148463062255151,-1.0253905892743898,1.5352353377052481,-1.1825455531105387,-1.150912308724053,-0.4099062203518361,1.1147390425841788,-1.9844817316041268,1.80533797287134,0.9806362253508438,0.38967404621775126,-1.0064337351934523,0.7103086695625305,0.28673736909424596,-0.10806991339220705,0.302863380010858,-0.28488167308954526,-0.45718687414469045,-0.5589408458921797,-0.5403605462271891,0.13011448227335343,-0.8681717640540603,0.30824418801979264,0.7522976212780117,-1.1850288399283229,0.056258974049169345,0.10684004308864925,-0.6172942602707685,2.1908124744892126,0.07579499939575512,-0.19878948964781457,1.7913740293967868,0.17147184868893575,-1.3738966036502773,-0.44103663694618206,-0.7087049034483408,-1.3898128609128981,-0.2633151272479435,1.2970389371493276,-1.0600945391469627,0.5752999089374926,-1.3135899748902622,1.4850058659128147,0.6909588599923043,0.5364668597592839,0.06450913000674798,-2.383819193844761,-0.3811861342167529,0.44206000586257793,1.6294461527821376,-0.11619795921486391,0.07018313150521113,-1.6721172344420727,0.5422615032259938,-0.5630956961261162,0.21122080150048053,0.05032756957896765,-1.3582403366779594,0.3449273384513305,-0.32865063299070085,-0.9366222920069764,0.12026131197663227,0.6213444507896267,-1.5066160521210181,-0.49593657758765375,0.1097779901247711,-0.29207263883734447,-0.14735226175761273,0.09857772136253162,0.7781317421770053,-1.671679573004213,-0.715479832474386,0.06609727149838657,-0.812808131155718,0.3276550221777199,-1.287987505739578,-1.1379281674007458,0.7607618812496801,0.5299572038463797,1.3885891021731207,-0.9461194924967694,-1.5293421563174305,-0.4134024027556241,0.7158046030164492,0.3596342900777505,-0.5661497957392819,-2.500647442925486,-1.031745523414177,-0.31784038427375444,1.189681885435689,0.49723117151728136,0.0228761731080415,-0.8616054194408085,0.8583765684082291,-0.21474449444205448,0.7276362643597717,-1.0785817233514203,0.7218382461593758,0.4247495625627036,0.046556857765830094,-0.19861431244396344,0.9842454743048876,-0.057725479577837545,-0.4936633532704243,1.0295206737833396,-0.023533354056817453,1.4696797741424403,0.9910345251779017,-0.642520247023668,1.5196157192853064,2.5212700542491993,-0.1330319175103977,1.99792008949428,1.261570687314143,0.2664018445273464,-1.513656591693725,-3.0216141239102354,-0.8909531592982558,1.1422466555437936,-0.46037908670522176,-0.19638927022944067,0.14300827543896152,0.5063005988235516,-0.09687757257952366,-0.21562675157916314,-1.7831390107829064,-0.8865289138885631,-0.5475223260789304,1.732230313200836,0.7799430167254104,-0.17967180135441638,0.5486443932415828,-0.588751014457471,-0.36616166678557943,0.0748640690407474,-2.920561204073313,0.2231711986970412,0.616415780138776,-1.7369277826860174,-1.1284711673210595,0.26412272023408595,0.4787908502899445,0.5030099502150616,1.9056541947123817,0.7067404463006877,0.6199637390296945,2.243979981211556,1.4433869788050835,2.455031324189365,1.5806912911940754,0.10668001563350749,-0.4755160213340003,-1.3421651227467657,-0.5789713766116423,-1.2586927382962971,0.9552919439038298,0.30432128469680775,-1.0956395022477483,-0.7704185729757536,0.9400322650901727,-0.00540567647499101,1.8009328955818886,-2.2823050569052423,-0.19749025862155423,-1.4614038229170487,2.6067571349983876,-0.16640537853931545,-0.3076664955015022,-1.4408655365126368,-0.17420831407691842,0.2512262527558772,-1.5150303729755639,-0.32474877022552023,0.9446596186319826,1.4618540129862623,2.4930470202520123,-0.8148197038642528,0.6730938329435742,-0.5050347193349713,-1.5419836990390894,1.5742465610479743,1.1377088878795827,-0.2569742285316557,0.30342000926769763,0.46220285208422196,-0.2645358190682237,0.8381453939250149,-0.43140813685952845,0.8386661875419337,-0.031120715144526145,0.8866833895848384,-1.3452903950982575,0.26225738852285735,0.05353055875434136,1.3366279473236038,-0.6389925476169234,-0.3849640922467675,0.7757926059684332,-1.6348882721560498,0.5447407621535925,-0.7401838479187811,0.0075554612920765325,-0.10519179047922482,-0.18961060255548104,-1.10980674942105,0.8238173902238595,-0.5504016353927297,0.9600533897267102,0.5225372499282649,-0.030512223471666433,1.147347915142627,0.6596804231684203,0.7404883965785591,0.9566143472877884,-0.6422932006376075,-0.04250638041877639,3.1113889259346075,1.6513249043869929,-1.941589458732295,0.20536622052769485,-0.9307615849860283,0.8338896579187212,0.5027931709421158,-1.012363489800942,-0.3347312046374945,-1.2659200955887862,0.13465581658042824,0.5654859381542479,0.8320611451593787,1.0023369015181418,-0.11961856362683389,1.6480496110265102,-0.46994545268318283,-0.015224706177592497,-0.39342622407795175,-0.9700520135575201,-0.5476267975869491,2.030045954944977,-1.5578018954718926,-0.49328742177918633,0.36371738599988407,-1.5335166984554294,0.32823249676979444,0.36080889017194445,-0.5103003484237678,-0.2577746599421133,-1.2260325336868476,-1.3400008605892677,-0.7888391996132548,-0.1805349652268755,-2.7870612249492357,-1.6231111032379821,-0.20870420704404763,-1.0489201906470407,1.5982362619116064,0.5133177757958577,0.6451896617047006,0.5595373707838494,-1.3035398359706536,-0.08915153144856452,-0.6370329047148614,-1.6898577809441822,-1.7206531237950253,0.3165593321662007,-0.4193199437614097,-0.006817112285743662,-0.3592698275251694,-0.30073240884233216,0.18107081759291613,0.27616246598898686,0.2209976308179867,-0.5135798259227565,0.7544398513767271,-2.0662000069141033,-0.4643695599564302,-0.4496058106815334,0.9351445964508636,0.566084031427488,-0.31002620796214925,1.7870493151859166,0.4145838582266771,-1.0825857222744408,0.05297319268852606,-0.6212362443339472,0.5664580564583881,-2.6369277968788656,2.5654273054460877,1.1639055197030825,0.4362623066625233,-0.9064219638921069,0.5476382049525546,-0.8448305218795784,-0.8023770306303516,1.7075045073436297,-0.17318671254781676,-1.1272991181651215,0.0014433781112684807,0.27745167170524093,-0.6151947083476522,0.3056625866572595,-1.3292677827385855,-0.44001205660310366,-0.22734013708212364,-1.2724104327203167,-0.7899199980702127,2.207757243635011,1.0480563821280975,1.625890625054313,-0.7633550410834815,-0.6810921728663549,-0.4041658207819299,-0.7450521755741468,0.3564308343134899,-2.0500362806789956,0.876659944187108,-0.2864988251479551,0.5479306552007028,-0.513477678596191,-1.3209197939699029,-2.112787680231522,-0.2266659871075767,-1.5061736206160978,-0.6843376250775897,0.9708209509162,0.10671843682850195,-0.16170454600170467,0.3129006840597076,1.9592068859649308,-0.18452341139836004,-0.6663718493449122,1.2209282671407269,0.37429084837867355,0.6712995293654532,1.10618304311625,1.7708697764826367,-0.8690362440437961,-0.5512871539075197,-1.2346636913655566,-0.5387829567900472,1.553526818035187,-0.3000465408404426,-0.011485265830304183,0.6084717593253004,-1.1064988598314307,-0.0863610896010671,-1.828534164824868,-0.16141577260705411,0.018036769804825267,-0.3906069144252603,-0.4805106154612084,0.4895825883461994,0.8569249538620277,-0.5281021235860213,-1.0658889430000362,-0.3541356468614791,-0.7255921815383454,1.9705588012886133,-0.11668985996911495,0.42755279997656764,-0.5207621421352375,-1.2316004470575632,1.0386727476081523,-0.9185261387314979,0.0973567277129539,1.3036472923807465,-1.140345216507326,-0.2924129779191499,1.3932000251184236,0.3610762216177662,0.6909124189798167,1.332040326982112,0.1371564558990874,-0.664138939307616,-0.6308210462381075,0.2642642868283137,-0.7195072884816675,-0.04076298965404285,-0.5407767520257153,-0.16608291729385632,-1.8721748269707261,-0.5830040630843314,-1.1174182445871554,-0.4164335097116695,0.3156731459662887,-1.0107845669273594,1.2466235159179822,0.3462833847242691,0.3349303202421025,0.3169604000981443,0.34570716365053517,1.9629830399858872,1.4880796379413985,-0.7168553140106976,0.734477463021951,1.2061902062959582,1.48130446606004,0.09168372445645606,-0.32301435446827703,1.150401689444164,0.4715541750680958,-0.26104140095974687,0.0211515789281869,0.4643377472142911,0.09551669616117621,1.926962618379988,-1.6294462414043438,0.4545915077188765,0.1916903644127159,-0.28760106050144946,-1.764041716732199,-0.34597941427896106,-0.30952801717269196,-0.8198363961108791,1.9132841291829035,-0.5783749745065085,-1.4644915930924762,-0.686228965134737,-1.2807458641306029,0.3750400386439266,0.9162367065921063,-0.2713472028661206,0.8849083555981829,0.22395082785144346,-0.5281248643792557,-0.3535542941736508,1.0498639719844853,-0.9434439907908633,-1.2249432676794265,1.9352377229773245,1.9271116241320698,-0.7045157639615026,0.44341610696440065,-0.041847758565678794,1.445075672806797,-1.1097688685209908,-1.5781149208239238,0.14135745065640573,-0.9677543088365933,0.10102434307871372,0.33008344395862615,-1.1685272918779486,-0.09077808274407295,-0.05511755576610272,0.4694405481460627,0.0414313635298186,-2.3738576767867894,-0.3760190160077355,-1.2090475276943495,1.9046324828765293,0.6070781728501626,1.6207276271612194,-1.3919817195472608,-0.9633420762807844,-0.6726531479878833,-0.3250911740963498,-2.0041870251802676,-2.3157470640684457,1.0115525499766242,-0.1656704625747664,0.7510499866533286,-0.07985365229335029,-0.13250804171453026,-1.046758679223083,0.6256436398947516,0.33512685055007735,0.06658071585329842,1.6420038275317521,-1.1213527588793237,-0.44161246492196904,0.5565993294016822,-0.19500345114875023,0.7173922091709823,1.1334184354249068,-0.26393049114677347,0.938964997985055,0.613664109188646,1.2136887237034382,0.4706804431406041,0.019271909832496985,-0.9524553467907901,1.5944713195410427,0.4129714674315,0.05552821068339585,0.430077776674839,-1.7769775822023635,-0.705763965411577,-0.40432353354129735,0.3605465118522433,0.13710651165168514,-1.1838159624747115,0.4770980898797706,0.039433718139507634,0.39676337552971686,-0.19523411977241084,0.5284299081878134,0.3455886483379059,0.8697077648964244,0.19699618328168023,-1.8124857569004136,1.1198335862390953,-1.2034733432003106,0.9026947777032723,0.9067628868506503,-1.7387779288920342,-0.8723217212042782,-0.3620500887018259,-0.3337568694271625,0.7101443416830071,0.5824156894104382,0.9379254946663245,0.40283803899238685,-0.8391343712010085,1.4254818558091058,1.5582909513627463,-1.0006893638962537,-0.3834803354103462,1.4701636416834734,0.2803940802924053,0.8242247632709613,1.5769612462152631,-0.4097393990047433,-0.6261748950942568,0.6467805183995989,-0.33934738351753496,-0.07824396664814923,0.5440842033743696,0.29377822256575037,0.2000636351662315,-0.6005518946711956,0.45121107542995276,0.14543619803025726,-0.48752062746071817,0.10784048108884932,-1.4333044887030353,-0.9418652287196071,1.1341114033872848,0.04927200136446633,-1.6167007523020167,-0.43926997142544877,-0.9445936453305651,1.351397590616904,2.7199365301332823,0.5267160864899106,0.18470370850579004,0.692636843105337,0.9408474906310308,2.2982374487871007,0.9665084164524909,0.29438315757161887,0.26294690121471676,0.8872161990793812,1.7265549949454786,0.23551513774975255,1.3114373360351468,-0.3761445613372074,-0.746441714150522,0.7198487792484849,-0.5555033315261229,-0.9614148213616546,-0.5795601584503307,-0.6474609240079756,0.1223913781443448,-1.0376465805456456,2.2464764452757966,0.15867766789552776,0.3522426080859689,0.2465698241044511,-0.9448494354309255,-0.3268343096661783,1.8380915274368121,-0.7147169363703194,-0.46343841715969253,-0.14123120160285954,-0.9367359187042251,2.61355499413423,-0.6472027366980609,1.6522649523426496,0.8733573688383847,0.9084383591856198,0.43849504472003964,-0.3887563615637815,0.4025993739326068,-0.754564730696472,1.0814069418206231,-0.8493724252772576,1.9361571288702935,0.7932992430854618,-0.4279335315162683,1.4344306731256855,0.054934759179575916,-0.3992680669425836,1.5362521885020153,1.7872633733510948,0.9090489570161845,-1.7232629015327114,0.01082132557792762,-0.5726055741811338,-0.9467015420770274,2.266769185253444,-0.2817954827272276,-0.12672141417508148,0.16389727591276754,1.0372800662181558,1.041912293954959,2.940589185093944,1.1463885553556614,0.4290706808323129,-0.791345607686752,-1.1164436081422922,1.2744905902926156,-0.10464837913416367,-1.2819009488040003,0.7382074705617092,-0.8444533184403044,-0.0368786637158494,0.2219240707471619,0.5164825121796293,-1.3420388598286728,0.12282405732056764,0.6369824527915297,0.40178338761708066,0.26294166719322154,-0.28570404282836787,-0.6283421767966476,0.6940950346382135,1.2429960920582268,-1.3940715727077324,-2.623124598815176,-0.08228246153195715,1.6809118611967837,-0.8091102161049014,-0.25123405845780866,-0.3372776225084407,-0.012464867983651057,-0.9684672251685414,-0.18939451683872857,-0.8226004313916037,-1.0745580004604196,0.2810017685322879,0.2681370330788167,0.07808616876520097,-0.6605225777865774,0.42750479642055267,0.8261385848904135,-0.2764398597621662,-0.15036780094787158,-1.7340362460346663,0.17154683418368663,0.15023396161874034,-0.8212913847126458,-1.4908934613601643,0.795043489550899,-1.1587676630839194,0.24451842141990102,0.3531349157812793,-2.2502158663462613,0.4747516219555323,1.0048922595767966,-1.0692699132227188,-0.10192335678423942,-0.21831330118070985,1.1044910633184974,-0.7750159702350257,0.12264390774018474,0.6810612781569728,1.6508889071254382,0.954900131308118,0.908070300699389,-0.6883126690669392,0.018417336464423038,-0.549565077168142,-0.4593817726878126,-0.3733475932772137,0.36981824104522454,0.5680369167960821,0.11994927368767243,0.49689359652341675,-0.1349966340096339,2.023964470774155,1.2151754129632943,-0.15283872793541634,0.34050416831662195,0.8335842089153269,0.9843008562420851,1.2205838679654557,0.41868390233104696,2.1142103127057785,-0.622722029414483,-2.299512669758608,0.6838504018110434,-0.7218077520672406,-1.470905232210234,-1.322211880990327,0.3230235417913801,-0.48226902796291504,0.7105532637152371,0.5117101283176143,-1.5622200918844817,-0.3980346856245436,-0.3620834852003039,-0.025241125986706057,0.6826042401197061,0.40812312270888534,1.6321268563292912,-0.7885154226940417,0.6627026575710521,-0.3855842085415024,-0.7375310520818674,0.5821960628643517,-0.4365067733055699,-0.6560135229783071,-0.6026667810331753,-0.0781086273913795,0.21400834917406572,0.5426221611435431,-0.10906915169378699,-0.5658655025709027,0.19826355631475978,0.39580577062232675,0.31048453405366383,1.4811634481232332,-2.372665281004921,0.9325601665679303,1.028032771554492,-0.10850974554452814,0.6974047034359028,-1.7665863255057768,-0.8560509243218677,-1.0224161659228317,0.40003652956780644,1.0219228370517257,0.586528037283969,-0.4499603528556726,-0.6488397133240054,0.2819407963339395,1.5412786744842186,-1.0888226409341422,0.2918949776939546,2.1635210890865997,0.7584777531777395,0.9717142144609853,0.026133467958301165,0.11389411047645445,-1.2404628959350097,-0.2208217519609546,0.7872671032727008,1.644415117963571,1.0188594155441162,-1.829928355608966,0.833496855513661,-1.202353897704345,0.8288697129925947,0.2905505455777777,0.44212762077724577,-0.45057572352287456,0.0033128587640016837,0.6052516892639944,-0.5120743631340845,-0.7165377300696878,-0.23767570729012896,1.2028433974096857,0.6363386907158411,1.1476836527338736,1.1303509135001804,1.113477904654372,0.03810798627728349,1.0812623129786767,-0.7143912177435697,-0.8588108954984692,-0.5136723852997802,0.5454038664141834,0.6660546820896475,-0.7376968863978972,1.2366093383141838,-1.3019482812486547,0.5002017090157337,0.7465704548837541,0.059735739032517714,-0.659150725913972,0.466231720160963,1.7264927165069017,0.9887668553774827,0.25677473492796715,-0.38925102602159717,0.8761672564537992,0.9003195315575315,0.6479411106069637,-0.631167717628487,-0.5994529296972672,0.18766954067277974,0.5229483385108884,-1.6288809690232713,-1.4768261942805112,0.17268300705727668,-0.1064214861711757,0.34911360512832595,0.9644305034823485,-0.26388195868270525,-1.1141477925627161,0.9372498655698169,-0.6662019498297589,0.028439078432889422,1.3265994094004152,-1.4393390138372157,1.1058806730149728,-0.7194105497744027,-0.27382797528170755,-0.017178393598821545,0.8837822443570128,-1.4977626613800439,1.916426739213576,0.1780522941620833,0.1032824176284266,-1.1413639757572753,-0.6105408951371294,-1.5213450096437955,-2.6053402441074205,-3.275918598769842,0.7517188733109641,-0.7999895739856451,-0.12182668865162306,-0.19192473477841934,-1.878434959628889,-3.7552428017786,1.0716266045039795,-1.3346193518846328,-1.5961017109869184,-1.800342822745815,0.9081083070836391,-0.4986868486876408,-1.2936073784299533,-1.405885315403595,1.3808665962350222,0.5984193899003737,1.9651087862545162,-1.6239471859802144,1.0319753913847283,0.48025512432793055,-0.6663734876913616,-0.7823499870405679,0.6762093454277188,-0.32815653993903804,-0.31232762298352135,-0.6960090270767384,-0.9581145837024221,-0.8047763838109534,0.6786457055875164,1.5993747341581643,