{
    "layers": [
        {
            "biases": [
                0.0,
                0.0,
                0.0,
                0.0,
                0.0,
                0.0,
                0.0,
                0.0,
                0.0,
                0.0,
                0.0,
                0.0,
                0.0,
                0.0,
                0.0,
                0.0,
                0.0,
                0.0,
                0.0,
                0.0,
                0.0,
                0.0,
                0.0,
                0.0,
                0.0,
                0.0,
                0.0,
                0.0,
                0.0,
                0.0,
                0.0,
                0.0
            ],
            "weights": [
                -0.04299253867152762,
                1.403099066419633,
                0.39541009105833985,
                0.31276826960993914,
                -0.05433733717218406,
                -0.4406733994097653,
                -0.4883250159489073,
                -1.2388320918742295,
                0.1557637238260144,
                -0.3338970209282757,
                -1.3026860261397664,
                -0.4390274103191388,
                0.5860973731546416,
                -0.7801772854892771,
                -1.8871077076415834,
                -0.5291001504298753,
                1.0617769403985002,
                0.43042325040409646,
                0.947044120445028,
                -1.0529577417471396,
                -2.4291729719810875,
                -0.4162716039007573,
                0.554808924900707,
                1.0939738513949506,
                0.40748930635220454,
                -0.3027058345058429,
                0.388926881383527,
                -1.489319414108464,
                0.19071655790155526,
                0.7196843887465528,
                -0.8825509431394043,
                -0.29445473115674525,
                1.9609805515994436,
                -0.6336174373455762,
                0.9508990257613692,
                0.196654662776486,
                0.41443668426109614,
                -0.07022748732958504,
                -1.2814509018047284,
                -1.4522820599185777,
                0.5004408841445733,
                0.6120043350753336,
                -0.04075757448473841,
                1.5767153669780256,
                -0.568225983114596,
                0.24339651108424237,
                0.12848395905951726,
                0.7994225248935636,
                -0.8116246424759841,
                -1.7323744345929932,
                0.6315784767987485,
                1.4968996003496005,
                -0.7670868163812651,
                -1.9219891420406852,
                -0.3286608836923842,
                0.24651668008715527,
                0.6568366705514379,
                0.05615362739839893,
                -0.7060340203272547,
                1.9390112031458266,
                -0.1791813457920816,
                1.3670250890387852,
                -0.5570071863049003,
                0.4108803671351955,
                0.9171218460480124,
                -0.03393201707718705,
                0.26010494934475903,
                0.6853974438570134,
                0.13702513937694807,
                0.5477928164125956,
                -1.2380183311280324,
                0.10796853824461819,
                -0.051202745023776024,
                0.8378895344001325,
                -1.1694936717188218,
                -1.6450439591608625,
                -0.8207148038133653,
                -1.3338554217724992,
                0.20030044309666362,
                -0.10421738967558979,
                -0.4101134541133212,
                -1.045155955642762,
                -0.5430043733893233,
                1.456274046953889,
                -0.08617276307782626,
                -0.7207007480098722,
                1.5534736742436077,
                1.0871439514371426,
                -0.5154998752852513,
                1.6647969954329418,
                -1.2172399429706589,
                1.1227075095679326,
                -1.0800872993948352,
                -0.21897928439500539,
                0.8648989599896203,
                -1.020464408581194,
                0.7482232971849844,
                1.2736376193823575,
                1.9907915274496595,
                1.3288981356668017,
                1.713733866923583,
                -1.2536989458381078,
                0.5932088357095746,
                0.4066574309106725,
                0.2616638461853242,
                1.0045749884218944,
                1.0728630499089602,
                0.7281773384746899,
                0.3442594908049403,
                1.7986683866259743,
                -1.2443514425110525,
                -1.810477995498668,
                -0.7206922266533876,
                -1.2867289307469196,
                -0.2585867459242369,
                -2.832851565404086,
                -1.6420858640708604,
                -0.021862617690433725,
                -0.09049686236538777,
                0.4247531057108578,
                -0.8037445785342634,
                -0.23549863978208394,
                0.4806148958822535,
                0.39953010843455933,
                0.7121206350394348,
                -0.9501987224972461,
                -1.8096924496196327,
                -0.5513668230678272,
                0.5873544337196016,
                -0.8024521486028228,
                -0.3510708106416274,
                0.4320986748495113,
                1.4168776210492264,
                0.44867656069445155,
                -1.1316169322560936,
                -0.4585113602402394,
                0.2123881030178841,
                -0.9071840287792676,
                -2.0569058230802963,
                -1.3712173954794076,
                0.5107970340196367,
                1.12844843803257,
                -1.343367590047619,
                2.8007463595798727,
                -0.7610143562096117,
                0.8044095910724609,
                -0.3027727835721973,
                -0.7181500603529329,
                1.3421461985339915,
                -0.6802395342501669,
                0.3132926202770723,
                1.9833425179551176,
                0.6346574912479056,
                -1.0344886935392659,
                0.5006531999103647,
                0.24415132602527823,
                1.163751715708835,
                -1.2570066782744758,
                1.655717539155338,
                0.04577828851322108,
                0.17722389219259319,
                0.09350109798169558,
                -0.25194447587088065,
                -0.813736346506693,
                -0.2934153112994355,
                -0.004190840307317764,
                0.6525353626579186,
                -1.2293328748100636,
                -0.47575067593403453,
                -0.9616613610987846,
                -0.5400407318722071,
                -0.7628649218108131,
                0.5100036381809616,
                1.2252810373526986,
                1.6834050020748859,
                1.0173480933789985,
                0.1620602871184514,
                -0.3183319042268635,
                -0.5490167422001222,
                -1.7061129282916152,
                -0.5178520627041743,
                -0.9551880470882677,
                1.2869218128549518,
                2.380281249139514,
                0.0732620161937421,
                0.02184921962171017,
                0.965230683799679,
                0.3963271245615324,
                0.07612698945592022,
                -0.5656907594273282,
                0.5545881817530376,
                -0.25884987299369744,
                1.6417301039061758,
                1.5785077899524365,
                -1.38728255541557,
                -1.2962061849248292,
                0.005733751691062652,
                1.2839334845087045,
                1.640492085135043,
                0.07862847628638303,
                -0.669484046289501,
                -1.3080451509981053,
                1.221068622702051,
                0.4375259078408117,
                1.0446684010373748,
                0.8226636898078024,
                -0.06137426999571311,
                -0.41366334033447993,
                0.5067628023006459,
                -1.3128083809460545,
                -1.1790249298696878,
                0.9159600476771622,
                0.5793533010369591,
                -1.1830546874163768,
                1.5388167099051762,
                -0.4488520046074262,
                -1.2738028852462517,
                1.140460465541555,
                0.09379733856136277,
                0.97579761901312,
                0.5164208428742106,
                -0.015913269651138116,
                0.9827879026680632,
                -1.1969077707468787,
                0.16180773082494682,
                -2.052592805133497,
                0.9394867841696206,
                0.6949244920270287,
                1.932186097837253,
                -0.26047717916739815,
                0.5587287123976554,
                0.8970648149480726,
                -0.28186416971617184,
                -0.013248799699181182,
                -1.2097761404820366,
                0.7638516673400345,
                0.21763547146270795,
                0.875988304503514,
                1.9598421463371383,
                -1.0356211796882226,
                -1.7299383158740147,
                -1.5205227980529497,
                0.1820851400889266,
                0.40912164700378834,
                -0.08831596878712364,
                -0.8681824405103973,
                0.020861988408506626,
                -1.725810070946332,
                -0.7952977826430512,
                -2.948184982428601,
                -1.8820340801770803,
                -0.8979787426796794,
                1.6440093639161018,
                0.31068431113384926,
                1.0886823135882668,
                -1.0241258265727757,
                0.21174815717641018,
                0.34174793257680797,
                2.3769674411743225,
                0.12839853843657298,
                -0.0799695194293145,
                -0.9051628019606519,
                -1.6348390888962188,
                0.12565177818839576,
                1.862661735567973,
                0.23073179228820898,
                -1.2799257314046555,
                -1.1546077101319667,
                -1.7300630028801216,
                0.06583605386081225,
                -0.6142245722231476,
                0.6453269031512459,
                -0.3458499480074313,
                -0.8916100961747627,
                -1.2834535871367956,
                -1.476231220846436,
                -1.0050319849837006,
                -0.8321885417380516,
                -1.7665556595257772,
                1.7009261293406341,
                0.3752708948394542,
                -0.2240531832072672,
                -0.33686454353282,
                -0.8520852927394329,
                -0.5739780701480864,
                0.8339870727224231,
                0.867618531980734,
                -1.2748389547294878,
                0.6443853962233853,
                0.4871334541950683,
                0.9138941630642279,
                -0.6501956105659803,
                -0.3135609998465892,
                -0.993431054178956,
                1.587196468275413,
                0.1857994181906354,
                0.9823092675557907,
                -1.7280053387868644,
                1.2685848643926598,
                -0.6261551225603406,
                -0.34907727866561056,
                0.42671195639542536,
                -0.7468349815364234,
                0.5845835231864922,
                -1.0377030851052267,
                1.9997083541108873,
                -1.4547797282116124,
                0.3644239239653463,
                -0.6534639017503227,
                0.146862708152595,
                1.11955104554979,
                -0.8660065247616789,
                -1.4560200022358925,
                -0.2711613072692313,
                0.015019214101841651,
                -0.23339945757457584,
                -0.48159106208172653,
                0.27483170336899665,
                0.8512166798846156,
                -0.6341211587321892,
                -0.20477960028726788,
                -0.757306563347064,
                -0.7922083198422571,
                0.044271163155216696,
                1.543661959466699,
                1.133166606880246,
                1.7873085455902822,
                1.1098165632303862,
                0.12638149967873144,
                -0.8744298912849205,
                1.884002529566704,
                -0.5288325005778675,
                -0.39814640205384905,
                0.1921728239084986,
                0.6909097572307884,
                0.5903112452758906,
                0.8198174215823896,
                1.5475605633930607,
                -1.4022635826000394,
                -1.6516834924934782,
                -1.3317942501394473,
                -0.23984128724241788,
                0.11816897338246929,
                -0.4980351850089433,
                -1.5409945844693476,
                -1.0608689739627923,
                -0.7316286563873916,
                -0.20580649503375797,
                0.7485180474431862,
                -0.6677919169041773,
                -0.31548282919862575,
                -1.2272460999169421,
                0.5546286854308565,
                -0.4759273092033788,
                -0.7505128664846218,
                0.14288905681794006,
                -0.9634449986909384,
                -1.3424192534052333,
                -0.8880683486303736,
                0.09081626301388077,
                0.2647978837133196,
                -0.09243830379338956,
                0.9275272723212689,
                0.12413541551464626,
                0.1543127541078396,
                0.9576037843632045,
                -0.48141333766909905,
                -0.43093568090350787,
                1.257149154311607,
                -0.07644296569295413,
                1.2022704104765018,
                0.42615195775115083,
                -1.4061181643725282,
                0.6462250841993243,
                -0.07063803216004087,
                -0.08179493341570919,
                0.8680238896792429,
                0.2874863832202956,
                2.0107090377820773,
                -0.7197826060525624,
                1.6375848763919398,
                0.45482891100530276,
                -1.2141505508644141,
                -0.5665328388480221,
                -0.7559006738786611,
                -0.5420891747927347,
                -0.4927836948999533,
                -1.0008427815516798,
                -0.9438864366088134,
                1.840566777045699,
                2.7872033018279874,
                0.11058861737987694,
                1.4721657975682947,
                1.0926539579443686,
                0.28576690040972835,
                0.878909209899889,
                -1.4128730778871093,
                -0.2801417499260789,
                0.4202374747010787,
                -0.42915241697627965,
                -0.8909128231329749,
                0.772678305067457,
                -0.13646286031465796,
                0.8025987410067775,
                0.7790255462855257,
                -0.3734250742353797,
                -0.5420496828920599,
                -0.5560605813401623,
                -1.12897278017284,
                0.08310893667685094,
                1.144466141236862,
                0.47480710038135654,
                0.43402379561818116,
                2.7070626691442787,
                0.18394849076568845,
                -1.440920265402893,
                1.0798036147887358,
                -0.37202701125082993,
                -1.9725752488866313,
                0.29498831488504434,
                1.582333671190738,
                0.9408427087155463,
                -0.9675969950455301,
                0.2021134625384111,
                -0.9745689842438428,
                0.9159602332184565,
                -1.2290139558249702,
                0.9484773994858643,
                0.24478785004927864,
                -0.5729944176624578,
                -0.7293437819940354,
                0.995578328283767,
                -1.83913936819669,
                0.7740161669324901,
                -0.20125331260599186,
                -0.263411430772355,
                -1.0157751683308796,
                1.2412918320726425,
                -0.04037232899533794,
                -0.30985874529024554,
                -1.1471668519302336,
                -0.7983792642944788,
                -0.6719724065938467,
                0.23957534205883194,
                -0.08249879042314512,
                -0.10498782382146309,
                -0.6429611665124859,
                -0.6664155095212466,
                0.9692753563924197,
                1.1546724787592684,
                -0.375004240347169,
                -0.6123533606457544,
                -1.3069171101477988,
                0.43477307889875105,
                -2.7887631901908567,
                -1.1851765325633907,
                1.4081613106859792,
                -0.06324625154434645,
                -0.680859565263805,
                -0.268697877296671,
                0.022611041586160178,
                -1.9165838367897767,
                0.3410073461740599,
                -1.8928424972095963,
                0.8819429385376669,
                0.46781213821703566,
                -1.2657581095876413,
                -0.298097744876125,
                -3.2916637663293473,
                -0.9842290988859514,
                0.03590595100814355,
                0.9817175384037393,
                -1.0746362411405392,
                0.2984642409778445,
                -0.9794738894041949,
                1.0137934911433428,
                0.9292030649270105,
                -1.9847505019425453,
                -0.557753683999244,
                -0.40884814004593967,
                -1.1735222568204882,
                0.6186040580067239,
                0.43367536293318043,
                1.0464360034300761,
                1.2063136846405857,
                0.7421361702768976,
                1.5650723008344531,
                -0.2838324166964365,
                1.4951466213872655,
                0.37232627726081335,
                -0.1171153989017471,
                0.8154173136908134,
                -0.013720416537072736,
                1.1087346138803262,
                -1.2225461206782897,
                -1.45231040320312,
                -0.6341315622195853,
                0.6966049142450402,
                -0.1583537962730104,
                1.377010600461857,
                -0.6761019582809268,
                0.40181077687145206,
                -0.37299070929417527,
                0.331244861471371,
                0.14490341052894468,
                0.25056263102683135,
                -2.7744520831095536,
                -0.2185395715550403,
                0.8154516542351182,
                0.6153310280529076,
                -1.06251293111865,
                0.4635491473764043,
                0.3933127507109879,
                0.3251692610477764,
                -0.0004481402467013371,
                1.7849417238617067,
                -1.5656239871609132,
                -1.674486263081896,
                -0.464735410794558,
                0.36629612842388076,
                2.2088662544666593,
                -0.7284019973362384,
                -1.3701669673685086,
                -0.8091034666517435,
                -1.0374369668477534,
                -0.48156443704600715,
                2.3274723417363803,
                1.9303973620520942,
                1.3054040100406965,
                0.9817839555949182,
                -0.6628471606588615,
                0.9166489949874815,
                -1.154188079255491,
                0.7760992425573999,
                -2.1340728520786603,
                -1.297073796295195,
                1.3130745491158955,
                -0.9391985294706938,
                0.5121647807295032,
                -1.427777386951992,
                -0.4111689471168258,
                -0.360097197121826,
                -1.2757346350683756,
                -0.8752873630499536,
                -0.2955991184298648,
                -0.8899089439148883,
                -0.034898466650434515,
                -0.01896764502749088,
                0.3420481215416261,
                -0.24838758225951935,
                0.20381427562903498,
                -0.2012000578598461,
                -0.06714917017046261,
                0.1171778799373555,
                -0.5624619549552637,
                1.1830350970717718,
                0.39458658799212903,
                2.272720366168729,
                -1.2848125085854922,
                -1.2803196439466755,
                0.24688708341615623,
                1.7705190072028687,
                1.3460989532459315,
                -0.2608112671698658,
                -0.33506244427726206,
                -0.28917948425337847,
                0.04694032051366304,
                0.6558832760848248,
                -0.6836895708760976,
                1.6228022735546161,
                -1.5540787039774662,
                -0.6205892230092165,
                -1.2446437707201865,
                -2.3630599532982894,
                -0.3526300445835106,
                -0.23198077500429262,
                -0.3906247034559168,
                0.500658901998457,
                0.8058298794384705,
                -0.005141959861229832,
                -1.2011995397593989,
                -0.07209870180001011,
                0.46460476152918184,
                0.7072522656133793,
                -0.8238569318125705,
                0.606364135633076,
                0.03701623477222774,
                -0.10301275102195485,
                -0.6643195789049497,
                -0.7590792231406649,
                -2.38860260441,
                -0.387255737684404,
                -0.2061678329864087,
                0.6367297455491745,
                -1.0857204085487662,
                1.0595243963647831,
                -0.16253776738227796,
                1.8945923981114536,
                0.2551486932343892,
                1.4169766307297897,
                -0.6270826993626415,
                -0.33771439478932264,
                0.48651388803398843,
                1.1826518061820652,
                -0.9964800032337765,
                -2.3112776657422134,
                1.3134139128781617,
                -0.08431967362439026,
                0.3703420153329393,
                -0.5599647714016952,
                -0.9869188574162935,
                1.9083245689063646,
                0.3457601051345583,
                0.13627870149703195,
                0.771888429475141,
                -0.5977588467728209,
                1.8840510000558333,
                -1.483612003075126,
                2.5930455131039065,
                -1.1748081027950774,
                0.8056416851119867,
                -2.7131250159329574,
                -0.08649378696303564,
                -1.1284295313641006,
                0.7218996953406303,
                0.5282253275178155,
                -2.611379075667185,
                -0.8111838570759082,
                0.30777160191198866,
                1.0746288217795505,
                -0.7359910294427354,
                -1.1558433062558544,
                -0.022571537229211652,
                -1.7212390987255457,
                1.062422870901871,
                -0.47189818580911363,
                0.11626647858279976,
                0.6147077783241535,
                -0.6898812304459538,
                -0.4224128857951084,
                0.2753690112991385,
                0.08769418574765371,
                -0.6311173387236662,
                1.5322533205515152,
                0.8323679253880991,
                0.2762763970164554,
                -0.4981828344209242,
                -2.112926084075217,
                0.9265659310923731,
                1.0661421942684877,
                -1.2223552873395773,
                -1.271208099647538,
                -2.08903202176044,
                2.000338355326896,
                -1.1432826918328314,
                -0.06060539070598409,
                -0.2188248136659649,
                0.3083543268097665,
                1.73827517467699,
                -0.9729937764246872,
                -0.3232478481436059,
                -1.2819382381103246,
                0.8830415122613521,
                -2.3993421943722293,
                -0.4424890216477039,
                -0.2586312464599375,
                0.5465750779877535,
                -1.2161487683252334,
                -1.0274570957130795,
                -0.17657672529604773,
                -0.552392097935686,
                0.8690176955529793,
                0.08652872636017267,
                -0.03045203290670709,
                -0.5491240032267205,
                0.719812135525321,
                0.3522643374458685,
                -0.07309644946335847,
                0.06632075289385894,
                -0.9948594955869157,
                -0.47386781591610283,
                -1.4276144310230847,
                0.3050258361145806,
                2.2045930538463794,
                0.0576119146979099,
                0.7602395648124561,
                -1.0894422683932792,
                0.3828723740310421,
                0.0055473193447764585,
                -1.5105970212772504,
                0.24837492195202251,
                -0.5258734277909073,
                -0.4339483822950108,
                -0.6485936601119405,
                -0.35490884356983626,
                1.0894816835416627,
                0.9985723625933245,
                -1.2503886964517872,
                -0.05038329876803345,
                0.0827246547678667,
                0.2696454630747793,
                -0.5437531762861216,
                -1.2151783124883742,
                -0.5694045462935414,
                0.24876148818523539,
                0.18747013049168473,
                -0.5641999323144821,
                -1.3723235107756244,
                0.7932858630336233,
                2.251665044159248,
                -0.10657143338547934,
                1.0755364761468897,
                0.45864711005579567,
                0.825389886701821,
                -0.0961547855871424,
                0.377953448178398,
                0.7018588339704545,
                0.9625577588485537,
                -1.9985874111679398,
                0.31266928765333346,
                0.34972373335953494,
                2.5627198733437107,
                0.5123564856083891,
                0.08962824203382289,
                -0.046794928119628404,
                0.276693023556213,
                0.5606181865389032,
                0.5370865457320836,
                -0.9342706357819363,
                -3.4244207926376853,
                0.6770029259406433,
                0.5952228886147433,
                0.06335350982578802,
                -0.6533662210618824,
                -1.2693042456793793,
                -0.2476381635628228,
                -0.09173652015213292,
                -0.11900776420103108,
                0.7231487439785839,
                -0.16334083130750218,
                0.15960459339884592,
                0.9108970156305577,
                -0.9947068306488207,
                -1.5282125454260904,
                -0.4837199159673656,
                1.4207969662102764,
                0.27222772811157026,
                0.19739598209718953,
                0.6973554855075386,
                -0.3657939014484265,
                2.5263491463874366,
                0.7522039873876528,
                -0.5535418276665096,
                1.1102861556174657,
                0.5077029499359446,
                -1.3148791928113592,
                -1.6393475537783702,
                0.22808308471510466,
                -0.2856343321988427,
                0.3454899684785063,
                0.4673850179792021,
                1.0073526228480454,
                -0.7859152488614228,
                0.7915168182493095,
                -1.738608651836177,
                0.19755851324233434,
                -1.6558244243444384,
                -0.7227602308725735,
                -0.4016216670746982,
                -0.5986896246553643,
                0.9185098793616685,
                1.0701624178674702,
                1.0833089162018903,
                0.8097300267006676,
                0.31338738617941975,
                0.9145077765998768,
                -0.7887767663689453,
                -0.43484380949358453,
                1.3421643570037667,
                -0.010032810911384164,
                1.6396640432441583,
                -0.41688475600977526,
                -1.7777756447436963,
                0.07863970746616303,
                -0.5607371614768689,
                -0.48038082449501357,
                -0.511878074003867,
                -1.3077292262688174,
                -1.81593409285796,
                -1.2087642922283166,
                0.01316541925437983,
                0.8755976923691512,
                0.38085465229530635,
                1.9573801493801648,
                -0.6178537091770678,
                -0.5558798515473866,
                0.7785030055063309,
                -1.763169185563273,
                0.3550799204016148,
                0.7468037093407075,
                0.19417808217743932,
                -0.6514108735665779,
                0.5468798432715706,
                -1.1695996282054315,
                -0.5546143299337304,
                0.5112489876464318,
                0.5894169044632296,
                -0.43720598006850286,
                -0.10792961851968427,
                -0.898914446349133,
                -0.8342859013171586,
                1.9872316825546597,
                -1.378431475407512,
                -0.30865566999040833,
                -0.3122360882196815,
                -0.09825547167914873,
                1.0985168806220074,
                0.7021402152804449,
                0.6376201595430981,
                0.6849349286964976,
                0.8465559225032753,
                0.3804368779694388,
                2.4840268093008104,
                0.7719132638844558,
                0.3426871979780876,
                -0.10338888358097131,
                -1.0821312663397462,
                -0.02610506196734687,
                0.677716046711779,
                -0.4611671498977263,
                -0.4122671600423573,
                -0.9938586170182423,
                1.1715588160400416,
                0.6945485434935343,
                -0.09527174747820732,
                -0.23973648877597153,
                1.248626165276161,
                -0.019568769696721888,
                -0.23539267993384974,
                -1.4780645598177085,
                0.12688424021694655,
                0.06343306798123323,
                0.07772637898888807,
                1.7307746619336297,
                1.3922095138579913,
                -1.0721711423673896,
                -0.8567127492051992,
                -0.45677136377695265,
                1.7944103911759084,
                -0.571628120469664,
                -0.7865688866939242,
                0.5504153800811504,
                0.22362557910730332,
                0.4809112469631157,
                -0.7425338957067295,
                -2.9461251619526276,
                -0.8457086586038383,
                1.210920985089747,
                0.5026771445345879,
                -0.03668144897779551,
                -0.0029077454173574552,
                0.1545130429819738,
                0.511630595090406,
                -0.14868799907598632,
                -0.45853417492117754,
                0.23629910010469685,
                1.707462312017803,
                -0.32031849508128074,
                1.674899464852768,
                -0.8622665369627229,
                -0.8078145774883876,
                -1.4233203366132012,
                -0.09119393172638048,
                -0.05000677587900081,
                -0.7223968184255686,
                1.2996380093431135,
                -0.31149764117256173,
                -0.08179150079065538,
                0.1736590585051746,
                1.0725860583143214,
                0.8079595061303738,
                0.5686202960870607,
                0.717952154325369,
                -1.0271709214108142,
                0.10958339727084147,
                0.1560698328445132,
                -0.9176091763947029,
                1.0051246521167307,
                0.6107331729362945,
                -0.7613475091537457,
                1.9784245196226207,
                -0.14587276336909194,
                0.5186923095591783,
                0.8956732242821761,
                -0.39986354613612485,
                0.0047886246908614176,
                -0.21379337367509693,
                0.9360137983817756,
                0.35064407804179476,
                0.3705336908866477,
                -1.9799426939412486,
                0.09486634000777909,
                -0.7344317250787543,
                -0.2611598750416834,
                0.17950794441958223,
                -1.689192969034222,
                1.0608186059560152,
                -0.035716795252257905,
                0.54649210280968,
                -2.083997856302023,
                0.7092387251598686,
                -0.9486129034787792,
                0.17200654980700011,
                1.0989312518206302,
                0.966729571132524,
                1.4583364276808601,
                -0.34023044783957046,
                -0.6594013691765318,
                -0.25050278078478244,
                0.15378292860505424,
                -1.1458303952527369,
                -0.7507382674056801,
                -0.3601679590595176,
                0.7236471988004748,
                -0.7179293456485272,
                -2.3161053138183085,
                0.009327556447961441,
                -0.32387025602898323,
                1.5289902249429623,
                -1.04299435179992,
                -0.6081571976749502,
                -2.528855494726607,
                -0.7353353048563277,
                0.11248191333171526,
                -0.4080265360733118,
                0.4141309018337601,
                1.4669996088008492,
                -1.5069634035457575,
                -0.479649576734068,
                -0.5729895830795181,
                2.408241353485376,
                0.29981427578030806,
                0.30607793107073245,
                -1.1427527609151251,
                0.06460899422005435,
                -1.0225346093756555,
                -1.1085810810777224,
                -0.02361036814093834,
                1.2333239150144373,
                0.9433101201906541,
                0.9730510269141366,
                -0.39127074728936395,
                -0.1458810906315627,
                0.2234672605595041,
                0.5295822181459613,
                -0.14546302393163354,
                -0.31960069654754425,
                0.2313683233039042,
                0.16392715389631088,
                1.1553829365199553,
                1.9326945513521145,
                0.698352555615407,
                1.2147122360054954,
                0.4739558883150256,
                0.5697977781847017,
                0.03530526370119406,
                -1.0392265395723879,
                0.9848744352612482,
                -1.1142677347635495,
                0.5966962953409555,
                -0.9012127888307591,
                0.4939790665373447,
                0.8891195685184424,
                -0.5039087500096167,
                -1.4371106480152562,
                0.08678760743112138,
                -0.31041298915125304,
                0.291172620066698,
                0.36803821855089364,
                -1.9100906485132452,
                1.2993521789025886,
                -0.8502143017680389,
                0.3847734693204953,
                0.2431341947605927,
                0.7665583979563875,
                0.3831564547804378,
                -1.4200047002666174,
                1.1576417336997877,
                0.9365019609987428,
                -0.28754693824709976,
                -1.0673900553383835,
                0.5290707399089067,
                1.191886894680435,
                -0.9533783973754397,
                0.5304967056516833,
                0.5640676804203966,
                0.3169552455374615,
                0.8397275909327572,
                0.26228641116449847,
                -0.5316332248325492,
                0.9458742893609123,
                0.09878593688955478,
                2.3734136424646564,
                2.20206655967139,
                0.0329265442849981,
                -1.2671330759739514,
                0.2859733937012546,
                0.03600028306553829,
                0.36313746441053385,
                -0.9033779400699161,
                0.35182148729324225,
                -0.6549786742721412,
                -0.3812219241728007,
                1.5637953778123983,
                -2.40345457289895,
                0.48352989635724064,
                3.4136385207797226,
                0.3143932095303446,
                -1.0094902534377843,
                0.34447786012347276,
                -0.16347109376762076,
                -0.051004637233134746,
                0.8024093735353157,
                1.5687740948464954,
                1.2470124902738693,
                -0.7201921110689166,
                0.7695302402949128,
                -0.18944253921575377,
                0.5475780859944069,
                0.1470295204865484,
                -1.363004792612926,
                -0.6691278792762014,
                -1.3270237749270117,
                0.9368282458971734,
                0.692428606235037,
                1.6394562402566577,
                0.547865496836418,
                0.4269823950148869,
                -0.04897038245260652,
                -2.486644383090937,
                -0.3778629464667996,
                -1.2523577993235506,
                -0.35735635092126444,
                -2.4738409943233024,
                0.8476992028013495,
                -1.4318822338202963,
                1.5829271129404674,
                0.33261853084202575,
                -0.0667304249514457,
                0.24027120073071467,
                0.10291673474004262,
                -1.0125533192216063,
                0.05632208276355635,
                0.6312383383475384,
                -0.21808301940186137,
                0.22551062267074792,
                1.0864572137842055,
                -0.022214709916922308,
                0.652162600341316,
                0.24482784840749613,
                -0.6800826120523072,
                0.001453367258966705,
                0.037831026427714576,
                -0.7675053529266415,
                -0.0620569088917097,
                2.1328561254236718,
                0.81601908799412,
                0.1935166291707748,
                1.1133928310572274,
                -1.6033521598204103,
                0.9915491716845832,
                -0.6316304429648895,
                0.17253252798563282,
                -0.3651933828894111,
                -0.26710993688390866,
                -0.1661570315031867,
                0.5241750738270067,
                -0.6792778851826683,
                0.7097145851671883,
                -1.2520596566470652,
                -0.6376431088226858,
                -0.0865439797165693,
                0.4588136132096648,
                1.02316786092075,
                -0.5708405837135355,
                0.027486926625609042,
                1.0824498395580366,
                1.080540606940857,
                0.32768248050149956,
                0.4063883074313684,
                -0.6525741839198632,
                1.2096549491272803,
                1.4173211162557984,
                -0.8761945582845103,
                1.174799707629786,
                -1.7628362221030038,
                0.5471610456589743,
                -0.2623378585125527,
                0.43902419749552263,
                1.7656317531219654,
                -0.28168456260283503,
                -0.10468235351058582,
                -0.5729603484325079,
                -1.8680449005492208,
                0.34099225827246,
                1.3377916344777234,
                -1.4210632815587023,
                2.0456766194737264,
                -2.132705077450618,
                -0.47510846241593735,
                0.8814914990339902,
                0.6044167464005381,
                1.2275876384448736,
                0.11657178353058795,
                -0.5189516635837984,
                0.8352492202729036,
                -0.38714448838322857,
                -1.2387620510668935,
                1.1045632839952755,
                1.3619941136109492,
                0.6389924127473088,
                -1.0695317876040569,
                -2.240817528394529,
                0.4434355352277901,
                0.6236750019249993,
                -2.1683988881900786,
                -2.416998195324329,
                1.6908036555623132,
                1.101057723518147,
                -2.2811936498580954,
                -0.14010014087907754,
                1.356493097130774,
                -1.5118375276071467,
                1.220141904012756,
                -0.6430227918929871,
                0.2663115197028432,
                -1.2166258601727844,
                -0.45688554232008594,
                -0.7654941510704084,
                0.3106661460176994,
                1.0103032396560991,
                1.3580856790457068,
                0.5215072502616708,
                -0.1532425609485555,
                -2.1030020472456297,
                0.04709234433333112,
                0.008730520720307023,
                -0.7563279205679427,
                0.7589823602730115,
                0.9333432573269379,
                -0.8917437093800485,
                -1.1584258880056808,
                -1.0129988795599896,
                0.49849232218140443,
                0.26339485569858684,
                0.9097109005832014,
                0.8243877369119712,
                1.6907404319274062,
                -0.7806930236943272,
                0.11941788110096081,
                -0.3576468353070258,
                0.833562712322303,
                0.053824436997280706,
                0.8099633906224238,
                0.03656292161384372,
                0.9817673867829447,
                -0.6102188751911972,
                -0.06676960019241454,
                -0.23887677932702525,
                -0.09937715943210107,
                1.306242398492739,
                -1.1549009920013718,
                -1.7665210860368767,
                0.7837545897245793,
                0.8343532889382144,
                -0.08523244087651864,
                0.09503054057352217,
                0.1378995453930523,
                -0.05718677146223231,
                -0.19282225632782482,
                -0.40339660739871114,
                -0.37037447933700135,
                -0.3133119037093277,
                -0.9960700166900212,
                0.2585072594995687,
                0.29560609933862736,
                -0.008141073560146027,
                1.982344959117701,
                -0.4003816254477226,
                -1.1268410467888965,
                0.9077345156941078,
                -1.0550454350283287,
                0.330625399636712,
                -0.2966034371192725,
                1.2306266236381664,
                0.8700618236945984,
                -0.778269341987895,
                0.10648823816465754,
                0.5524490374094064,
                0.9581232869100934,
                -0.10710051464538183,
                -0.40438778034016837,
                0.4587008649737903,
                -1.2875285333420143,
                -0.12710250378587437,
                -1.7307342268138386,
                1.2304867711385343,
                0.17616291748899662,
                -0.30328969896958846,
                -0.2715387472604432,
                -1.384429551450538,
                -0.8521956655485393,
                -3.293215353603276,
                0.23404835744727143,
                -0.4861551351039619,
                -1.266902315837552,
                -0.28708225788528813,
                0.6563933469171651,
                1.0374374065836407,
                -0.45106506238893845,
                -0.951856060480546,
                0.3197229181738138,
                -0.2381724208609216,
                -1.6723216851241713,
                -1.5861457899583546,
                -0.02728055793543444,
                -0.15450953692935993,
                -0.8490635225661872,
                -0.9162763328193599,
                0.4696756450332468,
                0.2736320504055597,
                -1.0070685965512103,
                -1.239828627264468,
                0.18705372515089508,
                -0.13546281366161023,
                -0.8466082927185022,
                0.9212934493611421,
                2.2206272198876476,
                0.4347647618336979,
                -0.20505308684278,
                -1.905560462920444,
                0.9818669666592924,
                1.13986216614916,
                0.3174683011480982,
                0.9679288560034992,
                0.9821613190007962,
                0.11689464808400121,
                0.1389511449080268,
                -0.8392692587868344,
                0.5006602244207756,
                0.7500678741982821,
                2.1914515943143567,
                0.11015514562282994,
                0.14055203376276165,
                2.7766846513477543,
                -0.24464516596275776,
                -0.12266799970117993,
                -0.004874579704960074,
                0.8903023959807967,
                0.24331527380379772,
                -0.6295904285071396,
                -0.9918587252302438,
                -0.018827793928658583,
                0.9017544620348148,
                -1.298260077838238,
                0.8173301702324401,
                -1.3561282534711654,
                -1.4263661459987984,
                -0.07423512710752536,
                0.09207412576743763,
                -0.656508831016594,
                -0.6705438933297492,
                0.9986591595399263,
                0.5393931039097103,
                0.2497091773591375,
                -1.213832693611613,
                -0.9726552286012289,
                0.7399723329570833,
                0.36137950318316636,
                -0.6535551477157763,
                0.2822949385264062,
                -1.3772609762525545,
                -0.17309750050022346,
                -0.6506135268978115,
                -0.8675036965274977,
                0.6361281776696711,
                -0.09544480002730404,
                -1.0520523176906635,
                -0.06511007885210399,
                -0.671678333262648,
                1.922351181698603,
                1.1846135824341544,
                -1.8400064134982064,
                -0.3399696192948594,
                -0.9798470102012521,
                -0.44531700126987034,
                -0.8226655288562829,
                0.1349087877307127,
                -0.1810348520970989,
                0.8302622008989288,
                -0.2737030093419306,
                0.7885345879958079,
                1.4919339598197607,
                -0.1014631039705051,
                -0.6947699809294963,
                0.574637113792384,
                1.3244474120952843,
                0.24016693812446077,
                -0.15866871120765272,
                -0.7539514384049854,
                0.33910244852391047,
                -0.06375034784228206,
                0.04175068913135873,
                -0.7497900232990801,
                0.23133691469871473,
                -1.6136097232686823,
                -0.9036004793398642,
                -0.8246876294871232,
                0.6834074384008897,
                1.7395918883456714,
                -0.745488445383489,
                -0.019223558115579423,
                0.07293393761707472,
                -0.0492824122444588,
                1.708968440694662,
                0.05053706219659084,
                0.4087094666322761,
                1.1062665804835592,
                -0.27295742432688036,
                -0.7345748878594318,
                0.3342719608463328,
                0.9358897996570528,
                -1.9317031747005065,
                0.484976598994759,
                1.0803860889201944,
                -0.6276298503804324,
                0.6344662119519586,
                0.016633024061859257,
                0.0852190321128831,
                -0.3257400273860479,
                -1.827151985162571,
                -1.86822015815788,
                -0.16860942881205868,
                1.0835545261309836,
                -0.06061267366783958,
                1.382497407092659,
                0.7344625627612519,
                -0.3607724372438095,
                0.26033162299623014,
                -0.058278044432953355,
                -1.1760037387382345,
                -1.3400135315415618,
                0.8559474485436058,
                1.7257266598771948,
                0.22517380115955152,
                0.28890325758476515,
                -2.6552087377546383,
                -1.2673830298334023,
                -1.3404752216306026,
                -0.20060552920804903,
                -2.0823680476272175,
                -0.3047616373215236,
                0.19368913718956288,
                -0.693009902959364,
                2.0242650489434766,
                -0.5206455976879696,
                -0.3139494367381054,
                0.2961009297931844,
                0.8088667448334992,
                -2.4764773674989113,
                -0.49170972750557795,
                0.7701203588348631,
                0.6588737599153426,
                0.9609887442080131,
                -0.3992530575786365,
                -1.5304689791368649,
                0.5684308999532325,
                1.0287202320295434,
                -0.5091017941071894,
                -1.0536365897561146,
                -1.1321771011412263,
                0.811042413477742,
                -0.21039362776142,
                -0.24443948734188392,
                -0.8713032710418596,
                -0.39460337623232916,
                -0.4491425081021042,
                -1.7640326478171426,
                0.6983705559621982,
                0.29598537735451297,
                -1.2761079215903246,
                0.4988922809229282,
                -0.1488794563839847,
                0.27710960145694297,
                -0.16378371689057905,
                0.9133793468241593,
                0.5303246925642006,
                0.14775525117499963,
                0.09236457203170662,
                -0.667238867713323,
                -0.5380631118870222,
                -0.6833305766464853,
                0.5509797324117811,
                0.2774033110682882,
                0.44331846842718164,
                -1.4684702313790048,
                -0.24511688166576412,
                2.2950147606423967,
                -3.248576284647519,
                0.08557633083528081,
                -1.2028163423802212,
                0.11778216712420678,
                0.9810113039579373,
                0.7943136876012463,
                0.3163325253245325,
                -0.38589307499375036,
                2.166101369434653,
                -0.43441743024026847,
                -1.6237886865143585,
                0.8522862635242007,
                -1.552616091777038,
                2.4949471291539425,
                -0.061717215856697386,
                -1.8558638184031195,
                -0.7883588907744583,
                0.5200675129830542,
                1.227249759764927,
                -0.9160658418348842,
                0.018679246289922458,
                -1.1028290211456158,
                1.0600771771402393,
                -0.2948923171103985,
                0.8428141916644374,
                -0.6089952561222581,
                -1.2907663802695266,
                -2.0708635187902775,
                2.1616625999609864,
                0.6502303152025196,
                0.4780017786358761,
                -1.8854684744183645,
                1.3147375522306326,
                -0.02077466421981467,
                -0.44444801859531174,
                -0.43196011866689277,
                1.1296398197936777,
                -1.0506973267757322,
                -1.7618530011587727,
                0.25994642354013625,
                -0.24573610964385195,
                -1.0157005459318849,
                -1.599103801716816,
                -0.9647767588747682,
                0.19510711636238143,
                1.714418787789052,
                0.988877820681584,
                -0.8291399284076593,
                0.42558370417616087,
                0.1672691334484033,
                -0.2088020516481725,
                -0.5501129017894214,
                2.383992754018588,
                -0.6020429150739852,
                -0.36494684777001557,
                0.7404172384731008,
                -0.5290404272446528,
                -0.7049748856686316,
                -1.9691343147657845,
                -0.3496478033466031,
                0.5265971056008965,
                -0.906866790433822,
                0.40106532453108035,
                0.9024841737429351,
                1.4142439545584893,
                2.0698761210926717,
                0.1719565462645179,
                -1.1982402426910572,
                1.8619280258236155,
                -1.1104927833886633,
                0.9167362408507409,
                -0.8077841189748607,
                -0.379165283938804,
                -0.31824272057202724,
                1.9522990277829355,
                0.3140783689243397,
                -0.6735714671512073,
                -0.865671812271774,
                -0.3923014894317053,
                -0.727242311594438,
                -0.4564049156842158,
                0.280173381766138,
                0.10875938054938665,
                -0.14566529342383047,
                -0.9667291671978709,
                -0.5400862449667504,
                0.20871120900062504,
                2.4211545150515383,
                -0.194602355324951,
                0.8500699041666477,
                -1.1225666128199867,
                -0.12540765254386138,
                -0.22185000355737053,
                -0.15265881948195476,
                0.8893353370019834,
                1.2255077346997412,
                0.9431870820545617,
                1.292823356256789,
                0.58920815860427,
                0.8010859122977148,
                -2.3455491320511572,
                0.2108184723456291,
                -0.8980991342319726,
                -0.833319784688152,
                -0.7933717959968242,
                -0.37224195616045985,
                -0.3266088274797293,
                -1.08881318093946,
                -1.549826973799568,
                -0.6839112295534396,
                -1.095370864646693,
                0.5160079789336377,
                1.8587637979754503,
                -0.20606084915749295,
                -2.0177537601539433,
                -1.1190787524887043,
                0.8419892133033421,
                -0.1928899806738395,
                -0.615190030360379,
                1.4692355727370234,
                0.1467120201326456,
                -0.280428338412656,
                0.4052472131122917,
                1.1871952848454257,
                -0.0922487539898502,
                0.7652745349674724,
                1.1106880031823962,
                1.7046916029048729,
                0.07417524410429827,
                -0.46622226728095517,
                -1.5221616750254199,
                -0.9084018981373623,
                -0.9381167660064297,
                -1.0554246419722422,
                0.4012063165686437,
                1.324927987258676,
                -0.8933388862524644,
                0.3986665907839285,
                -1.2316373508227365,
                -1.3996400318561926,
                -0.47369945276388903,
                -0.30912341913451813,
                1.6379655333413778,
                -0.24622060765590026,
                -0.624557139985776,
                0.02158677924993136,
                -1.0135456348482788,
                0.734429753254139,
                0.9148284318909611,
                0.28776390397412605,
                -1.0074541744298153,
                -0.4945617748621779,
                0.2649602937134077,
                0.6662808553658055,
                0.5215001636636427,
                2.1066803334711843,
                0.9208729485393964,
                0.2474619313911869,
                0.03728590194990088,
                -0.8920659299686698,
                -1.162665107327375,
                0.07393981552806296,
                0.3180375203676079,
                -0.2537926567144397,
                1.638452392646839,
                -1.218400655234754,
                0.43830558092299243,
                0.8020239481602749,
                0.1393898347704745,
                1.1650677736895807,
                -1.1913007641383342,
                -0.6496571634118968,
                -0.16003532101395054,
                -0.014301250384140854,
                -1.7716655872404057,
                -1.011971810246034,
                0.8153661853159299,
                0.7695158011821484,
                0.24175187101915674,
                -0.7233678392642748,
                0.25180361561870807,
                -0.24767504676212826,
                -0.0671356266168099,
                -0.716483100635074,
                -0.2869398374094064,
                1.305105970171769,
                -0.4262072390110558,
                0.3160899557747329,
                -0.5596540505441183,
                -0.7524380244556303,
                -0.7154552223500829,
                -0.6555953851034436,
                -0.39887219412430985,
                2.6419282674237534,
                -1.1485377332757825,
                -0.5345726743653324,
                -0.2415953017389461,
                0.7977845570567736,
                0.8244906061834975,
                0.9697152268118329,
                0.49564168827380145,
                1.7544849824654178,
                -0.957492244433072,
                0.1038540054186672,
                0.17924138007339796,
                1.6856819452400449,
                -0.9389109754574854,
                -0.1345437608332821,
                -0.4945315830181012,
                -0.46355935545018706,
                0.17645737223207356,
                1.1731386971388877,
                -0.1150254435352297,
                0.05076604914513339,
                0.99544534716222,
                0.21151683865854876,
                -0.10850384950039572,
                -0.35060349704638943,
                2.215354045557716,
                -0.9378620769289719,
                -1.530963684811606,
                -0.5142571672154528,
                -2.059174210520165,
                0.4581704985872892,
                1.404118811966458,
                1.0910519063870787,
                -1.523247078751446,
                -1.133402387751443,
                1.3851866327277287,
                -1.1096633345765614,
                -1.2289213409114896,
                -0.36508963071766104,
                -0.24088760075311452,
                0.9508547408321265,
                0.07784411687232783,
                0.014013738614073038,
                -0.6128333914666989,
                -1.6557464968932767,
                0.9133976483713286,
                0.40643738351618913,
                -1.7997071518396364,
                0.0004035558483443504,
                0.6124633449388461,
                -0.13072994986534003,
                0.2203014285286865,
                -1.3822621610461878,
                1.0904837275466899,
                0.3487769223939835,
                1.4556675326872512,
                -0.35902749119220934,
                -1.1807283522635739,
                -0.32650983651353216,
                -0.39813070174024034,
                -0.607029811603504,
                1.2706825788071332,
                1.310030410510322,
                0.8985803486931755,
                1.2056773929990194,
                0.11550645250363442,
                0.4158167240790055,
                0.062470654993676496,
                0.1253853358101684,
                0.0630950093139622,
                -1.1290623347736817,
                1.2391898474793466,
                0.0832895266546718,
                0.7694415260964624,
                -0.3225177379605377,
                -0.4045737448532098,
                0.49600346134894263,
                0.9682689544512741,
                -0.09103472572687007,
                -0.26775346071765554,
                0.04572643862975725,
                0.8235980028230663,
                -1.3929551788395338,
                -1.9115439689455658,
                0.5183964489290094,
                1.1424130071749656,
                -0.6299490102702742,
                -0.18398531844053548,
                0.7292237854190128,
                -0.1425098043575004,
                0.02238039392599912,
                -1.1129832787674077,
                0.27090126620622335,
                -1.1887303428796157,
                0.9500052717658148,
                1.1625368379795344,
                1.0922915832273188,
                0.05244662394618787,
                0.17215333515483972,
                -1.9055677284477488,
                -0.3298714347534776,
                1.0082365855320958,
                0.1708239914985749,
                -0.6782926915165055,
                -0.10895801615015366,
                -0.05363649852532546,
                -2.0292973787095727,
                -2.9767924630629317,
                -0.5352382829386065,
                -1.8533232686910743,
                0.3842146842413618,
                -2.0337473534082067,
                -1.5183934476979632,
                -1.2946103288525126,
                0.5911380940441223,
                -0.5863769118515567,
                -0.4529938227088945,
                0.9303176296372665,
                -2.1483901814320085,
                -1.5745089245624766,
                0.3402900830982508,
                -1.4272648529717624,
                -0.6574585258497573,
                -0.18242100290781432,
                1.0419844508923728,
                -0.2064610897333845,
                -2.8230814467156398,
                0.25536624805474323,
                0.20913595944992647,
                1.121306419183889,
                -0.04500468555709614,
                -0.17367070576528704,
                -0.3815211004973993,
                0.9709809531441522,
                -1.0062291630536553,
                0.8827362892347186,
                0.4146880920411098,
                -0.49759172529619666,
                1.0575905048389778,
                -0.7457788540268278,
                -0.3271556047348652,
                1.3412851434442659,
                -1.6068900996139197,
                0.9034865676118987,
                -0.04447666174619119,
                0.7324535311231247,
                0.07326012837337875,
                1.0113161741104943,
                1.4184516315789883,
                0.8907838201586573,
                -0.34271746449022034,
                -1.4703109514602024,
                0.8855219868139736,
                0.39858772528678527,
                0.6566155305881182,
                -0.7317390694091549,
                0.40587130346638195,
                -0.056686305835130034,
                1.4822844492512446,
                0.7467925902184259,
                0.35092802664922434,
                0.5262514956664788,
                0.010187544291215642,
                -0.430760315190213,
                0.9837952934003535,
                -0.20299274793397962,
                -0.9851672634391802,
                2.0409873238701923,
                -1.8510349059821674,
                0.7362165392544454,
                -1.2339045151615844,
                0.28811580675237597,
                0.28939108393458995,
                0.8235114687120328,
                1.0291407070059662,
                0.14628515276926468,
                -1.3068217265243525,
                -0.6412988562895036,
                0.689362007296534,
                -0.4967781824292181,
                -1.0773637135570207,
                0.6611121962059113,
                0.6401679954151266,
                0.49062421150865293,
                -0.7659639345902436,
                -1.1677952782097734,
                -0.6498635126484335,
                0.8378533358232914,
                1.257915422057079,
                0.5793319496471967,
                -0.7116007588161388,
                -1.4539261802561922,
                0.4504285638320068,
                -0.6722809717006282,
                -0.02916274947593061,
                -0.5128958551477439,
                1.246967114025978,
                -0.6446822051379002,
                -1.0422726335477823,
                -0.6243714195892672,
                0.3372333905041716,
                -2.3605493491821807,
                -0.4026777876988085,
                -1.5401527580912922,
                0.18600300928127442,
                -1.410370320424103,
                -1.1513510960052664,
                -0.5513769191990778,
                0.259155232776167,
                -0.8500296916076453,
                -1.1848080207304064,
                0.8107450142973393,
                0.5101940034711819,
                -1.4791521182560523,
                -0.7076725453213082,
                -0.48653706082996134,
                0.18595271387641715,
                -0.7479225927461695,
                1.3620040854399775,
                -0.5873973042643702,
                -0.654442158054221,
                -0.5553279902670396,
                -0.7160188027490026,
                -0.27396673485435785,
                -0.19485638765577473,
                1.1381211301821565,
                0.8071730053426401,
                1.069588009654356,
                -0.9370668107703606,
                -1.1477108314199547,
                0.42224186239553213,
                -0.7102201836395658,
                -0.4931246466389651,
                3.100014756299822,
                -1.118806308375641,
                1.3846307335394235,
                -0.26771239457031293,
                -0.950194875612131,
                1.5485500647139057,
                1.1965231577434954,
                1.7759818960272715,
                -1.1304145562611791,
                -0.691444276607243,
                0.2872305671070175,
                -0.8224769177223034,
                -1.8591659037817319,
                0.031795905843791,
                -0.23486307832184397,
                -0.32396920247862615,
                -1.2637032434526372,
                -0.34135141633069543,
                -0.18821430971977732,
                0.901791986710563,
                -0.005883232618287233,
                2.405894155092942,
                -0.7064533089097117,
                -1.6002915213117985,
                -1.1019932140938737,
                0.8644765658531137,
                -2.343055883482239,
                1.7109129248009867,
                -0.05608041534900528,
                0.32751324443538643,
                0.22540038621408096,
                1.452217451917219,
                0.4335303689289891,
                0.9428328747406564,
                -0.4822336573617422,
                -0.17724633244019994,
                0.7678820139378197,
                -0.08117390893743844,
                -0.6929522908252189,
                2.5051151118413943,
                -2.260325839600263,
                -0.5910984365531717,
                0.03779675670531691,
                0.15390779148600145,
                0.5963026738288209,
                0.41134391357891315,
                0.2113618747424993,
                0.33338542684907524,
                0.6139624563111372,
                -0.6966476054835488,
                1.2286134160559077,
                -0.9346571965271713,
                0.8709803514767627,
                -0.9802586517605598,
                -0.9772615203646849,
                0.6451279914442412,
                -0.906729877936819,
                0.48984996774757056,
                0.27636547083681035,
                0.6014624080664508,
                1.7637898741080413,
                1.0641416025107953,
                1.4320529178928376,
                -1.0909994730314834,
                -0.5541969585854893,
                1.0980534283299954,
                -0.018951160417886775,
                0.15457732458290124,
                -0.4456039799734157,
                1.8443856527246416,
                -1.1355274714431245,
                -1.780520586389971,
                -0.028026089307301886,
                -0.6448442015695103,
                0.8341038430163744,
                0.9657038526908808,
                -1.0903059550513807,
                1.2188458339284038,
                -1.3542727155556402,
                -1.2766741593451651,
                0.31452371727377876,
                -0.8054723321215331,
                1.063728951638896,
                0.6966452118202527,
                1.2455197139693184,
                -0.12787551647167608,
                0.06916876267156337,
                0.4121316100557524,
                -0.2705687653175418,
                0.8566451153242478,
                0.17800305672183758,
                -0.6514898056754108,
                -1.3198486640570635,
                0.17200503255590224,
                -2.1064539032933856,
                -1.072123186129096,
                -1.6667200171307937,
                -0.9859859873048968,
                0.8215770989089255,
                -0.12280039156857295,
                0.10744538861481122,
                0.5359830077424312,
                -0.8866582780813712,
                -0.47336473228078757,
                -0.10935675197710171,
                -1.1306749629945647,
                -0.49164747569875455,
                0.122175599597835,
                0.08761362531301685,
                -0.42483964540729274,
                -0.8378905913137413,
                0.3583674668431321,
                -0.3163358507158083,
                0.5110908215437342,
                -0.0859541364677758,
                1.8657986659760784,
                -1.0582145580899736,
                1.6457507938650446,
                -1.3396029644816827,
                -1.1728162565104732,
                -0.7971457971921722,
                0.4959030065876497,
                -2.007703853112325,
                -0.41438887291948734,
                0.5651766266996037,
                1.2746661570961095,
                0.8311102911691026,
                -0.8062000573053271,
                2.0071748292243394,
                -1.4829156442919469,
                0.41173761990356794,
                -0.3019837951517471,
                0.18462726785194608,
                0.8535105117667765,
                1.5046077434588596,
                0.2052089001917707,
                0.3568259809460532,
                0.148964359191752,
                0.22895080398912016,
                -0.9543400547819897,
                0.671371416778834,
                0.3670588761384259,
                0.2162448722775385,
                -0.893092180214471,
                -0.09479074667277719,
                -0.44558144643855163,
                -0.13971284196622044,
                0.15052902693703232,
                2.194350318735485,
                -0.08618169105595781,
                -0.9802544095347335,
                -0.8483614512702983,
                -0.2296569803905623,
                0.9349641844294796,
                -0.5451602026685606,
                -0.09973499670258947,
                0.03390878397652915,
                -0.4776788880216374,
                0.06266533539769677,
                -0.7033967512666544,
                0.9772668949184761,
                1.9855052776647992,
                -0.14191875791576067,
                0.5138716365075998,
                -0.9615592073188629,
                -1.426997086391883,
                -0.08456775965112984,
                0.2971700839317093,
                1.6355777397987095,
                0.09292601898381896,
                0.11439145437925086,
                2.159212316736529,
                -0.6546355852239164,
                -1.8448516497435372,
                0.9837809644151803,
                0.27226769475869855,
                -0.42743953388574507,
                1.5831639123432777,
                -0.45312032562915117,
                0.25007042141881786,
                0.22835933792443605,
                0.39422206321287423,
                -1.549966476707376,
                0.26371390258293725,
                -1.6243710274219127,
                0.30589380076469114,
                1.1467895173510967,
                -1.0655141093294962,
                0.37161310251086954,
                0.737349777210018,
                0.6260245594855829,
                -1.1542006711180721,
                0.18666575972225072,
                -0.31628047462933595,
                1.178216989640509,
                0.09835221595942573,
                1.189552938588649,
                0.5275037097378915,
                -1.265408018779445,
                -1.2074743188035946,
                0.07997245196486187,
                -0.5564064326193155,
                0.5104880197176993,
                0.3073077179785791,
                2.757633571134321,
                1.2995531769565762,
                -0.2083564563586545,
                0.8503384637216901,
                1.9101139444447954,
                1.0253074064476304,
                0.362010108205898,
                -1.0031126162303667,
                -1.3548075047398653,
                1.4822786509682453,
                -0.024171087788971625,
                -0.6787535012166304,
                0.666943973763097,
                0.22854711417217607,
                -0.5003077780168289,
                -0.8220380391007734,
                -0.6753141773321455,
                -0.8180887545635551,
                1.1761526843921917,
                0.9975254107536544,
                1.8131594377205627,
                -0.07453379377294787,
                -0.8477007039219336,
                0.32663732390394595,
                -0.911706137049878,
                0.39881980198317496,
                -1.109702261219839,
                0.5332519667120315,
                -0.8346571466435861,
                -0.6725464674373075,
                2.9602218890421135,
                1.092744479749585,
                -0.3793881635100888,
                0.2585961881680142,
                1.0556678915108577,
                0.46585513873849954,
                0.04695819831047408,
                0.4513037654901628,
                -0.8843950957919057,
                1.184261451873636,
                -2.233073839144391,
                -0.36278096123602577,
                -1.7320303351522994,
                -0.617703642952214,
                -0.17520604701551307,
                -0.5221869212683626,
                0.20519142768701634,
                2.178742366747805,
                0.8613233168459298,
                0.9150467382953553,
                1.9145184495921554,
                1.6425529228726552,
                0.8988462940276948,
                0.8603653937979135,
                -1.691116326429953,
                -0.3842737277336309,
                1.6824381626887204,
                -0.19071520845781087,
                -0.40015902539438375,
                -2.2298820226661364,
                -1.3548460376571396,
                -0.19593183442575265,
                0.3676855354743645,
                -0.33505143595370906,
                1.8264482880921897,
                -0.10022506951572921,
                -1.5897085131322455,
                -0.7906868594432055,
                0.04084841394604763,
                -0.524184652638114,
                -2.3303354105831975,
                0.7775371574395603,
                -0.5479413367912211,
                0.34798217532921855,
                -0.20710454657966218,
                -0.6354384574356717,
                -0.18670155757808576,
                0.4060185934708855,
                0.03058250351773027,
                -0.9395995180691233,
                0.06833356089934717,
                0.6529476524728257,
                -1.3259989117160942,
                1.105438793304377,
                -0.2185116924408963,
                0.6740977571668821,
                3.573157867755737,
                0.6843478449696149,
                1.4084100861293143,
                0.7529485584033814,
                -1.1570003602119256,
                -0.3421381710436178,
                -2.4344316130292123,
                0.556690583875305,
                -0.706412971464216,
                0.7775215668680252,
                -0.6710558349975863,
                1.2429106863055017,
                0.2152502371324095,
                0.32653654200017634,
                0.41888543193106725,
                -0.5617316895883046,
                0.265596361902659,
                0.10886097738430939,
                -1.0376522892009539,
                0.09808469768957827,
                -0.4130132795721663,
                -0.1485024228402414,
                -2.6331466314196006,
                -1.927041846293207,
                1.4058439347769631,
                0.7856750354396443,
                -0.49914654097959515,
                0.09021445095202783,
                -0.1815189795090759,
                -0.4928623532274582,
                0.23779886007349127,
                0.48699413996582,
                0.1893906986392402,
                -0.08623852653140066,
                -0.15460913299701934,
                -0.6452959991739319,
                -0.28710384414664114,
                0.7713162959090016,
                0.35936245411148376,
                0.028367868779297666,
                -0.009354670140053218,
                -0.6418032053363557,
                0.8498994996751702,
                -0.009775551505294662,
                0.4755069987927074,
                1.6155338356807767,
                1.0370345155134966,
                -1.698479884461875,
                -0.16526587690836686,
                -0.2618273560797512,
                0.40545758420593747,
                -0.11724776431252669,
                -0.7105818019925593,
                -1.6320336440888834,
                -0.03316119336423722,
                0.7825610738507948,
                0.2671899120999699,
                -0.20440541504207554,
                0.7121963008046268,
                -0.6951597297451194,
                -0.8639899892072456,
                0.5246440790594508,
                1.8222181139111542,
                -0.2588314695347037,
                1.6258008654606495,
                1.6786003739899695,
                0.49777762292312644,
                -1.4592629167853284,
                -1.5497648714737464,
                -0.3565950978974731,
                -0.03950642909051611,
                -0.7883003705085938,
                0.1413399053746623,
                0.11489025653304578,
                1.6111515502791107,
                0.2735425119039924,
                -0.6551153439343896,
                0.29552336538566787,
                1.630212149829152,
                0.2940488914541692,
                -0.6206219234734429,
                -2.0988031043571396,
                1.8125497058282705,
                0.05472007895994677,
                0.6350958457635997,
                -1.0757670586905428,
                1.4346194129793224,
                1.1693089142652704,
                -2.072162214406157,
                -1.3344088696924985,
                1.7782321626354451,
                -0.9280355532294866,
                0.2895848669844741,
                0.9790471485210045,
                0.861652089205481,
                2.533298215263549,
                -1.1895312586693698,
                -0.7333696311561619,
                -1.1178809014617141,
                1.1685351482089152,
                -0.27933939724598555,
                0.2091022093497866,
                -0.7092700302258445,
                -0.14202572506387376,
                0.3537970363379088,
                -0.5531474659350977,
                0.20510199073851404,
                0.034932199495541015,
                -1.1627819618783686,
                0.31525442295568556,
                -0.8371843651849922,
                0.4920332977539868,
                -0.8763454354974737,
                -0.005047528292933088,
                1.7103903164180985,
                0.16970911088197382,
                -1.6794738438816936,
                -0.47130815990943564,
                -1.3115216111516386,
                -1.6499560586265487,
                0.46726646866316784,
                -1.517367227343596,
                -2.47054073328533,
                -1.2213160374275651,
                1.1536993557814599,
                -0.06989789529289252,
                0.3604744528144765,
                0.9237588671201186,
                -0.2497481149487122,
                0.857166598249348,
                -0.2820149877867816,
                -0.8462839812594446,
                -1.3973766564143224,
                -0.22241999403431906,
                0.7741338717180675,
                -0.7740187896572314,
                -0.7245144874600624,
                0.547231700557961,
                -1.3096026747835061,
                0.18915649783402283,
                -1.7800678969018262,
                1.0574756726621402,
                1.4543588867151807,
                0.36197094601226665,
                -1.0730909991722626,
                -1.5509789705578492,
                -0.06600059784428895,
                -0.14491864404151186,
                0.3389161870939878,
                0.09189817091193442,
                -1.3243913292038239,
                -0.08793075235655116,
                -0.22025788024059836,
                0.54329608602202,
                1.3913771425130026,
                -2.3496614946016985,
                0.23894232966317197,
                0.8189169925015487,
                -1.2854538594715987,
                -0.9007764992147369,
                -1.0556061756989157,
                2.790874362228299,
                2.0312474200110793,
                1.282094097724611,
                1.0108895982798538,
                -0.7045136160059401,
                0.14022693591413068,
                -0.2394540577794195,
                1.5131974710753855,
                -1.8196499199100025,
                1.110347891435254,
                -0.08500376694679658,
                -0.04960429161541693,
                -0.2814224520246608,
                0.6653886490197941,
                -0.0011352733210189757,
                -0.08701433467836937,
                1.6001935945513026,
                -0.23546167559098768,
                0.8666852812403539,
                -1.5802876438874884,
                0.0017168973886455864,
                1.4787433336560023,
                0.8469126357369888,
                1.6206191528394844,
                -0.3949357368949801,
                -0.403506645497103,
                2.816964779673679,
                1.5258524479520887,
                0.7948331515766176,
                -0.6828108258624461,
                0.5745002730621043,
                0.5117441606672508,
                1.4661418187038227,
                0.5015380553722248,
                -0.40270815589680853,
                -0.6363502934195351,
                -0.209363927941424,
                -0.896198114758668,
                -0.6369399991780292,
                -2.7753434129306154,
                -0.31299357909915576,
                1.0794336995841811,
                0.46983875245903123,
                -0.10515319879298975,
                -0.8408288598524245,
                0.19856677144654716,
                1.7113655351810255,
                -0.367520565719701,
                -0.2645606116024643,
                0.6715717747312875,
                0.09070464454005756,
                0.07143288563803074,
                -0.4084634648411957,
                -0.05818781421768633,
                0.6849849246193026,
                -1.219552843234853,
                -0.2086952849401424,
                0.8376051347425089,
                1.3055125745892309,
                0.524026769117861,
                1.0910721803831627,
                -0.8118291157137315,
                0.13247246421848857,
                0.33487979461321593,
                -1.1368650715886235,
                1.0501795484072223,
                -0.7696783197223729,
                0.3984474402978936,
                -0.41063569100161734,
                -1.6211110498598622,
                -0.5050465330911115,
                0.6265851287181168,
                1.0714836997625359,
                -1.4370831493291853,
                -0.5704041304462758,
                1.3751004299584293,
                -1.017347284691748,
                -0.9872276025795426,
                -0.5606682518332343,
                0.35254655289637404,
                -0.25330539391071044,
                -2.279851910317157,
                1.8873311592648707,
                -0.6974216484301252,
                0.15754399120458126,
                1.639978848709449,
                -2.3696534090477583,
                -1.9304168333574965,
                -0.3550795621683231,
                -0.6858676207088532,
                1.523808370176421,
                1.295017049022529,
                0.42748855275980757,
                -0.6929324549085043,
                0.1964856920142866,
                -0.40937374414562633,
                -0.20668198496644916,
                1.5119070788813045,
                1.2072818273074228,
                -0.09180505364624858,
                -1.3134231222647328,
                -1.9139056857115815,
                -0.678221628546409,
                -0.541532220515248,
                0.5392625913327984,
                2.372928493792801,
                0.07738058109660381,
                1.1667018907021895,
                0.7065563463002643,
                0.5798805516619446,
                -1.880646253215298,
                -0.4897387386388501,
                0.8399188789591238,
                0.49253026975757486,
                -1.550937113836663,
                0.17953815517889526,
                1.0916040918080496,
                0.8040976572584848,
                -0.8229417344291627,
                0.5435140605299911,
                -1.3994394283397718,
                0.6033574554937783,
                -0.7411403640980423,
                -1.4444447503012514,
                -0.05082865147799719,
                0.26432891641974054,
                1.3261200214921378,
                0.3337861591708564,
                1.2108959137805562,
                -0.2305196926393142,
                1.4809741634848332,
                -1.3399312913135994,
                -2.2871418201262204,
                0.19294011308940714,
                0.854601857295562,
                1.0876710387444264,
                1.2850441490256241,
                -1.7187198498718743,
                0.688330410301888,
                -0.19084560822259175,
                1.1387743871961895,
                -1.1593348767876057,
                0.9072169298110561,
                0.44167121970957923,
                0.35989722124686785,
                0.38480859273393153,
                -0.44040063358958464,
                -2.1014849876236745,
                0.06710460325737642,
                -0.3158410197565034,
                -0.42502776543917575,
                0.6802055145568775,
                0.41400623102200845,
                0.43238152787085593,
                0.1349657228300566,
                -0.2144436949051681,
                1.8663921110499184,
                1.1880028997930485,
                -0.030689850176718558,
                0.1312912848070908,
                -0.3660970642963378,
                -1.7650140210024008,
                0.5864761481894663,
                -0.36166416882439406,
                -0.27919659684190923,
                -0.044106529556566465,
                -0.09033624086661823,
                -0.49334184702137457,
                1.808802078474369,
                -0.2819779794543965,
                0.053926454359975125,
                0.16944217060355296,
                0.5271604675487024,
                -1.3378442928022425,
                0.984721078505571,
                0.3463973073308405,
                -1.3765221484615104,
                0.2723152662277722,
                1.41781086764773,
                0.355743882887159,
                -0.1414917296588976,
                0.9498996711890718,
                1.61177115045761,
                1.136115559185652,
                0.369973894224926,
                -0.8635360277848919,
                -1.5209490856959147,
                -3.1409954212970557,
                0.5501315434622737,
                -0.9572757139145367,
                -0.2638412052658115,
                0.8338926775484455,
                -0.9185584637994374,
                -1.036776407329482,
                -0.2328874107575035,
                0.007385874684885534,
                -1.2350576995603206,
                -0.6230770473132207,
                0.1602972095061115,
                -0.79468709855933,
                -0.48213465791502574,
                2.0930601667999538,
                -1.466319833150086,
                -0.21363078214905667,
                0.43908200179572865,
                0.2840330126837724,
                0.03910559469715188,
                -0.048039407341780395,
                -0.39965433439285775,
                2.343813721589691,
                0.7612893654466792,
                2.399117271516519,
                -0.21333352091855323,
                -0.2723560676699634,
                0.3454801958669438,
                -0.8237478386989585,
                -1.260493746338083,
                2.012024418444868,
                0.2395753921007179,
                0.4491866989429129,
                1.2710390136225973,
                -0.24712323762840135,
                1.7502404259798103,
                -0.4003925190340953,
                -1.0159790964953042,
                0.6339407447930514,
                -0.03220396514559961,
                -1.3028783321989625,
                1.4100867226491256,
                0.7486053458992861,
                -1.5974324152725297,
                0.7066657947529073,
                0.40157404240562566,
                -1.9011473850098213,
                0.880264586254528,
                0.9627078201764894,
                -0.7408583496299582,
                0.748389072550497,
                -0.44813730206643176,
                -0.0077265005673938115,
                0.06319031973674945,
                -0.48851164168701955,
                -0.7206476493921543,
                -1.1044454788066334,
                0.49381968697534645,
                1.178342737194221,
                -0.39096321811336887,
                -0.5988233139315898,
                1.4154995757329476,
                2.2397233859048846,
                1.5767969083475757,
                -0.9527547079110241,
                0.7557149913832159,
                0.321143045050512,
                -1.1766731221421824,
                0.18793387511708598,
                0.8749158486012099,
                0.2777776559102886,
                0.6334676210025472,
                0.6498303124927898,
                -0.6579207971707509,
                0.725258582782728,
                0.035437558668618245,
                0.7035536403257833,
                -0.1982902026906951,
                1.2032476806014898,
                -0.9310427214998818,
                0.4266299174441253,
                1.3813563633849069,
                -1.6152327275474705,
                0.11422921841746843,
                -1.3201407985055766,
                1.5726320555957798,
                -1.121222207387977,
                1.293189660963674,
                -0.114505253313849,
                0.13531806431315974,
                -3.1261791666291763,
                -0.3164385810989181,
                1.3580161094912093,
                0.5924718155846697,
                -0.4536421803099687,
                0.5324771612080562,
                2.1805147845557,
                0.22460023017078562,
                -1.5048590518659906,
                0.7214726160587036,
                0.6024868256044874,
                -1.2200528369747548,
                -1.022490172656386,
                0.361073778724342,
                0.38990280930764176,
                -0.8709953063475636,
                -1.1858605979991688,
                2.062222371042536,
                -1.0835904037248074,
                0.09669867451136321,
                -0.5736627182327868,
                -0.829331619469818,
                -1.564118731764027,
                0.7741987581290453,
                1.2743689474362843,
                0.23061962420967305,
                -0.9767091484047399,
                0.7479357659796421,
                0.13133779913303528,
                0.7567673955388019,
                -0.44962535214945054,
                -0.5577947033700967,
                -0.1364292463167726,
                1.1332472591933984,
                -0.2862817217236841,
                0.3498418445786998,
                2.212773865410356,
                0.7688064048351655,
                0.8670428348032155,
                1.2505325931738436,
                -0.15913987778304003,
                -0.32033992723461757,
                1.4971185804383953,
                -1.1794944418439817,
                1.4961313316955052,
                -0.16554356092194022,
                -1.097442445113369,
                0.25359475177044266,
                -0.2008179043258354,
                1.6515862945279374,
                -1.0060769896374333,
                1.0916741954219311,
                0.9972326503650509,
                1.3269228507511657,
                0.47023941105665784,
                0.7971739629858272,
                0.6673505870249333,
                1.0022500072530005,
                -1.4805933714451334,
                -0.803732556382442,
                0.006775094606377072,
                0.26252472785319786,
                1.396579755747456,
                0.2770968443308505,
                0.3989418975912249,
                1.659838867365742,
                -1.1229340001412869,
                -0.009208422671802661,
                1.1686639155667162,
                0.6393429966018537,
                -1.5143886511902158,
                0.8919398802252512,
                -1.1377172124380321,
                0.8892963292156499,
                2.1495415274454976,
                0.2776168357963793,
                0.2762092274992056,
                0.34060919713973054,
                -0.8503237463946223,
                -1.3017869329360088,
                -0.5834136154691463,
                1.1668356663876185,
                0.7845086167643949,
                -0.593545499538736,
                -0.39355374490951933,
                -0.6684700193938709,
                1.3434796755948337,
                0.0041492566887755995,
                0.40657395780459327,
                -1.5949732732742845,
                -0.24578336552455016,
                0.9164472669847677,
                -0.08768608483356784,
                -1.1314287576909534,
                -2.07884731497616,
                -0.8065320275207689,
                1.0356705894570912,
                -0.7919857455161664,
                0.7361296066886055,
                0.4539838090468323,
                0.3520216023463778,
                0.18255172957879606,
                0.15144767983117668,
                0.24039117639103652,
                0.24542689948420507,
                -0.6767462157267246,
                0.33686863348470175,
                0.8686107124881128,
                0.5096612907581589,
                2.1019598637290224,
                -0.2821576864387598,
                -1.6885859780416008,
                -1.7048866554928654,
                -1.0185556645686145,
                -0.16810910164332066,
                0.8625373599826748,
                0.8268895871995287,
                0.5549901778033893,
                -0.6727207328477883,
                -0.7273363634928649,
                0.9726502646042762,
                -0.8736186221956782,
                -0.8112929379919787,
                0.6286871362182603,
                -0.20701844626245297,
                0.43432806192761625,
                0.13331357787943143,
                0.23844724759873742,
                0.15000188119232896,
                0.4000624568441333,
                -0.6856115104455268,
                0.021313642691350342,
                0.3353191583679509,
                1.4860994657346422,
                -2.1690424477952743,
                -1.49861430551134,
                -0.3760552136114813,
                -0.9482368751046621,
                2.70993593865917,
                1.9297207891064325,
                1.3895730032773508,
                -1.9259267860209115,
                -0.5224153902437109,
                -0.8820510261739165,
                0.019822599362543613,
                0.036549981953442195,
